<?xml version="1.0"?>
<opencv_storage>
<cascade>
  <stageType>BOOST</stageType>
  <featureType>HAAR</featureType>
  <height>25</height>
  <width>25</width>
  <stageParams>
    <boostType>GAB</boostType>
    <minHitRate>9.9500000476837158e-01</minHitRate>
    <maxFalseAlarm>5.0000000000000000e-01</maxFalseAlarm>
    <weightTrimRate>9.4999999999999996e-01</weightTrimRate>
    <maxDepth>1</maxDepth>
    <maxWeakCount>100</maxWeakCount></stageParams>
  <featureParams>
    <maxCatCount>0</maxCatCount>
    <featSize>1</featSize>
    <mode>ALL</mode></featureParams>
  <stageNum>20</stageNum>
  <stages>
    <!-- stage 0 -->
    <_>
      <maxWeakCount>7</maxWeakCount>
      <stageThreshold>-1.0209164619445801e+00</stageThreshold>
      <weakClassifiers>
        <_>
          <internalNodes>
            0 -1 86 -3.4888677299022675e-02</internalNodes>
          <leafValues>
            8.0246913433074951e-01 -4.3878656625747681e-01</leafValues></_>
        <_>
          <internalNodes>
            0 -1 286 3.8235180079936981e-02</internalNodes>
          <leafValues>
            -2.9329225420951843e-01 7.4850583076477051e-01</leafValues></_>
        <_>
          <internalNodes>
            0 -1 7 8.0250218510627747e-02</internalNodes>
          <leafValues>
            -1.8131886422634125e-01 8.6039394140243530e-01</leafValues></_>
        <_>
          <internalNodes>
            0 -1 142 4.8694439232349396e-02</internalNodes>
          <leafValues>
            -2.8221216797828674e-01 7.1432274580001831e-01</leafValues></_>
        <_>
          <internalNodes>
            0 -1 304 3.4113635774701834e-04</internalNodes>
          <leafValues>
            2.6970416307449341e-01 -8.1291586160659790e-01</leafValues></_>
        <_>
          <internalNodes>
            0 -1 55 -5.9599392116069794e-02</internalNodes>
          <leafValues>
            6.5336024761199951e-01 -3.4082072973251343e-01</leafValues></_>
        <_>
          <internalNodes>
            0 -1 307 -2.1230471320450306e-03</internalNodes>
          <leafValues>
            -9.1304957866668701e-01 2.4580991268157959e-01</leafValues></_></weakClassifiers></_>
    <!-- stage 1 -->
    <_>
      <maxWeakCount>8</maxWeakCount>
      <stageThreshold>-9.6867209672927856e-01</stageThreshold>
      <weakClassifiers>
        <_>
          <internalNodes>
            0 -1 61 -7.4198186397552490e-02</internalNodes>
          <leafValues>
            8.5375118255615234e-01 -1.5958300232887268e-01</leafValues></_>
        <_>
          <internalNodes>
            0 -1 299 1.6044236253947020e-03</internalNodes>
          <leafValues>
            3.2231327891349792e-01 -9.1201287508010864e-01</leafValues></_>
        <_>
          <internalNodes>
            0 -1 20 7.1092203259468079e-02</internalNodes>
          <leafValues>
            -3.1591147184371948e-01 6.9424325227737427e-01</leafValues></_>
        <_>
          <internalNodes>
            0 -1 33 -5.2083991467952728e-02</internalNodes>
          <leafValues>
            6.7522960901260376e-01 -3.1936520338058472e-01</leafValues></_>
        <_>
          <internalNodes>
            0 -1 310 5.2872020751237869e-04</internalNodes>
          <leafValues>
            3.3439651131629944e-01 -6.3146424293518066e-01</leafValues></_>
        <_>
          <internalNodes>
            0 -1 330 3.4474071115255356e-02</internalNodes>
          <leafValues>
            -3.9151611924171448e-01 4.1012158989906311e-01</leafValues></_>
        <_>
          <internalNodes>
            0 -1 390 1.3365095946937799e-03</internalNodes>
          <leafValues>
            3.1328251957893372e-01 -6.4484566450119019e-01</leafValues></_>
        <_>
          <internalNodes>
            0 -1 306 6.2557164346799254e-04</internalNodes>
          <leafValues>
            2.1357214450836182e-01 -8.9550626277923584e-01</leafValues></_></weakClassifiers></_>
    <!-- stage 2 -->
    <_>
      <maxWeakCount>7</maxWeakCount>
      <stageThreshold>-5.1909112930297852e-01</stageThreshold>
      <weakClassifiers>
        <_>
          <internalNodes>
            0 -1 181 1.4282182091847062e-03</internalNodes>
          <leafValues>
            5.7030373811721802e-01 -6.0153257846832275e-01</leafValues></_>
        <_>
          <internalNodes>
            0 -1 312 4.5766197144985199e-02</internalNodes>
          <leafValues>
            -3.5691604018211365e-01 6.9212633371353149e-01</leafValues></_>
        <_>
          <internalNodes>
            0 -1 3 8.1935085356235504e-02</internalNodes>
          <leafValues>
            -2.5463619828224182e-01 7.1717035770416260e-01</leafValues></_>
        <_>
          <internalNodes>
            0 -1 50 -1.3289847970008850e-01</internalNodes>
          <leafValues>
            7.6831513643264771e-01 -1.7724353075027466e-01</leafValues></_>
        <_>
          <internalNodes>
            0 -1 268 -9.4772223383188248e-03</internalNodes>
          <leafValues>
            5.4213112592697144e-01 -3.0581566691398621e-01</leafValues></_>
        <_>
          <internalNodes>
            0 -1 300 4.5614934060722589e-04</internalNodes>
          <leafValues>
            2.5316262245178223e-01 -7.9360437393188477e-01</leafValues></_>
        <_>
          <internalNodes>
            0 -1 235 -1.2763146311044693e-02</internalNodes>
          <leafValues>
            -9.3582582473754883e-01 7.5943455100059509e-02</leafValues></_></weakClassifiers></_>
    <!-- stage 3 -->
    <_>
      <maxWeakCount>13</maxWeakCount>
      <stageThreshold>-8.0841636657714844e-01</stageThreshold>
      <weakClassifiers>
        <_>
          <internalNodes>
            0 -1 104 -3.0988840386271477e-02</internalNodes>
          <leafValues>
            6.9882351160049438e-01 -1.8634146451950073e-01</leafValues></_>
        <_>
          <internalNodes>
            0 -1 185 -2.2464208304882050e-03</internalNodes>
          <leafValues>
            -6.6578966379165649e-01 2.6072630286216736e-01</leafValues></_>
        <_>
          <internalNodes>
            0 -1 309 5.4953634738922119e-02</internalNodes>
          <leafValues>
            -2.8633326292037964e-01 4.8194020986557007e-01</leafValues></_>
        <_>
          <internalNodes>
            0 -1 9 1.3766208291053772e-01</internalNodes>
          <leafValues>
            -1.8173986673355103e-01 7.1728032827377319e-01</leafValues></_>
        <_>
          <internalNodes>
            0 -1 287 1.7429114086553454e-04</internalNodes>
          <leafValues>
            2.3048080503940582e-01 -6.1026066541671753e-01</leafValues></_>
        <_>
          <internalNodes>
            0 -1 264 1.4401739463210106e-02</internalNodes>
          <leafValues>
            1.5243649482727051e-01 -7.1191507577896118e-01</leafValues></_>
        <_>
          <internalNodes>
            0 -1 60 -1.9054886698722839e-01</internalNodes>
          <leafValues>
            6.7764180898666382e-01 -1.8011628091335297e-01</leafValues></_>
        <_>
          <internalNodes>
            0 -1 422 -1.2558437883853912e-02</internalNodes>
          <leafValues>
            4.3893852829933167e-01 -3.2263433933258057e-01</leafValues></_>
        <_>
          <internalNodes>
            0 -1 155 -6.2033656984567642e-02</internalNodes>
          <leafValues>
            5.0580185651779175e-01 -1.9754730165004730e-01</leafValues></_>
        <_>
          <internalNodes>
            0 -1 4 4.6267576515674591e-02</internalNodes>
          <leafValues>
            -1.9123165309429169e-01 7.2559481859207153e-01</leafValues></_>
        <_>
          <internalNodes>
            0 -1 2 6.8597167730331421e-02</internalNodes>
          <leafValues>
            -1.2218649685382843e-01 8.2262498140335083e-01</leafValues></_>
        <_>
          <internalNodes>
            0 -1 282 5.5897170677781105e-03</internalNodes>
          <leafValues>
            2.2012549638748169e-01 -7.1871781349182129e-01</leafValues></_>
        <_>
          <internalNodes>
            0 -1 406 2.8713239589706063e-04</internalNodes>
          <leafValues>
            2.3143930733203888e-01 -4.9870634078979492e-01</leafValues></_></weakClassifiers></_>
    <!-- stage 4 -->
    <_>
      <maxWeakCount>16</maxWeakCount>
      <stageThreshold>-8.4512895345687866e-01</stageThreshold>
      <weakClassifiers>
        <_>
          <internalNodes>
            0 -1 210 2.6294576004147530e-02</internalNodes>
          <leafValues>
            -9.6153847873210907e-02 6.3492065668106079e-01</leafValues></_>
        <_>
          <internalNodes>
            0 -1 278 1.0516659822314978e-03</internalNodes>
          <leafValues>
            2.0879445970058441e-01 -6.6894018650054932e-01</leafValues></_>
        <_>
          <internalNodes>
            0 -1 278 -2.1597933955490589e-03</internalNodes>
          <leafValues>
            -7.0364874601364136e-01 1.4579489827156067e-01</leafValues></_>
        <_>
          <internalNodes>
            0 -1 6 7.4303805828094482e-02</internalNodes>
          <leafValues>
            -2.3678579926490784e-01 4.4149914383888245e-01</leafValues></_>
        <_>
          <internalNodes>
            0 -1 300 -1.0468572327226866e-05</internalNodes>
          <leafValues>
            1.6838409006595612e-01 -7.1433591842651367e-01</leafValues></_>
        <_>
          <internalNodes>
            0 -1 226 2.1216424182057381e-02</internalNodes>
          <leafValues>
            1.3852682709693909e-01 -6.2058961391448975e-01</leafValues></_>
        <_>
          <internalNodes>
            0 -1 111 2.4712541699409485e-01</internalNodes>
          <leafValues>
            -1.7898595333099365e-01 9.3536794185638428e-01</leafValues></_>
        <_>
          <internalNodes>
            0 -1 144 2.8081338852643967e-02</internalNodes>
          <leafValues>
            2.4445307254791260e-01 -5.4257363080978394e-01</leafValues></_>
        <_>
          <internalNodes>
            0 -1 16 -4.1306233406066895e-01</internalNodes>
          <leafValues>
            8.0763983726501465e-01 -1.1996513605117798e-01</leafValues></_>
        <_>
          <internalNodes>
            0 -1 419 -4.7447960823774338e-03</internalNodes>
          <leafValues>
            3.2599231600761414e-01 -2.7718877792358398e-01</leafValues></_>
        <_>
          <internalNodes>
            0 -1 202 7.3754736222326756e-03</internalNodes>
          <leafValues>
            1.2543596327304840e-01 -8.6704075336456299e-01</leafValues></_>
        <_>
          <internalNodes>
            0 -1 108 -2.4010380730032921e-02</internalNodes>
          <leafValues>
            4.9705174565315247e-01 -1.9771400094032288e-01</leafValues></_>
        <_>
          <internalNodes>
            0 -1 189 3.9894512156024575e-04</internalNodes>
          <leafValues>
            1.2565088272094727e-01 -7.4852168560028076e-01</leafValues></_>
        <_>
          <internalNodes>
            0 -1 167 -2.8337204828858376e-02</internalNodes>
          <leafValues>
            2.5394493341445923e-01 -3.3041861653327942e-01</leafValues></_>
        <_>
          <internalNodes>
            0 -1 337 1.4203382888808846e-03</internalNodes>
          <leafValues>
            1.1238004267215729e-01 -7.6170128583908081e-01</leafValues></_>
        <_>
          <internalNodes>
            0 -1 65 -6.0186511836946011e-03</internalNodes>
          <leafValues>
            4.9671930074691772e-01 -2.0191052556037903e-01</leafValues></_></weakClassifiers></_>
    <!-- stage 5 -->
    <_>
      <maxWeakCount>19</maxWeakCount>
      <stageThreshold>-9.4469493627548218e-01</stageThreshold>
      <weakClassifiers>
        <_>
          <internalNodes>
            0 -1 83 -5.9578776359558105e-02</internalNodes>
          <leafValues>
            6.5541738271713257e-01 -3.2367974519729614e-02</leafValues></_>
        <_>
          <internalNodes>
            0 -1 170 -1.4137198217213154e-02</internalNodes>
          <leafValues>
            3.2802534103393555e-01 -3.3345720171928406e-01</leafValues></_>
        <_>
          <internalNodes>
            0 -1 14 9.0863510966300964e-02</internalNodes>
          <leafValues>
            -1.7945116758346558e-01 5.0596010684967041e-01</leafValues></_>
        <_>
          <internalNodes>
            0 -1 54 -2.8804201632738113e-02</internalNodes>
          <leafValues>
            5.7078206539154053e-01 -1.9615806639194489e-01</leafValues></_>
        <_>
          <internalNodes>
            0 -1 279 -4.3992428109049797e-03</internalNodes>
          <leafValues>
            -9.2684108018875122e-01 1.2734355032444000e-01</leafValues></_>
        <_>
          <internalNodes>
            0 -1 302 -6.9858995266258717e-03</internalNodes>
          <leafValues>
            -8.6844730377197266e-01 7.8361473977565765e-02</leafValues></_>
        <_>
          <internalNodes>
            0 -1 334 -1.4116527381702326e-05</internalNodes>
          <leafValues>
            1.5572127699851990e-01 -5.9700828790664673e-01</leafValues></_>
        <_>
          <internalNodes>
            0 -1 301 3.5541176795959473e-02</internalNodes>
          <leafValues>
            -1.7878107726573944e-01 4.4212999939918518e-01</leafValues></_>
        <_>
          <internalNodes>
            0 -1 237 1.5286531997844577e-03</internalNodes>
          <leafValues>
            1.1748499423265457e-01 -6.8842667341232300e-01</leafValues></_>
        <_>
          <internalNodes>
            0 -1 283 3.6304927198216319e-04</internalNodes>
          <leafValues>
            1.5851102769374847e-01 -4.7344917058944702e-01</leafValues></_>
        <_>
          <internalNodes>
            0 -1 412 2.2324219346046448e-02</internalNodes>
          <leafValues>
            -1.7454911768436432e-01 4.1910636425018311e-01</leafValues></_>
        <_>
          <internalNodes>
            0 -1 320 -1.5312619507312775e-02</internalNodes>
          <leafValues>
            5.2770632505416870e-01 -2.0523823797702789e-01</leafValues></_>
        <_>
          <internalNodes>
            0 -1 321 6.5815681591629982e-04</internalNodes>
          <leafValues>
            1.5278422832489014e-01 -5.1309722661972046e-01</leafValues></_>
        <_>
          <internalNodes>
            0 -1 36 1.0631700977683067e-02</internalNodes>
          <leafValues>
            -2.1360202133655548e-01 3.5747960209846497e-01</leafValues></_>
        <_>
          <internalNodes>
            0 -1 47 1.2581980787217617e-02</internalNodes>
          <leafValues>
            -1.3366284966468811e-01 4.6429136395454407e-01</leafValues></_>
        <_>
          <internalNodes>
            0 -1 249 -2.2533847950398922e-03</internalNodes>
          <leafValues>
            4.4051909446716309e-01 -1.5542276203632355e-01</leafValues></_>
        <_>
          <internalNodes>
            0 -1 244 1.2773704947903752e-03</internalNodes>
          <leafValues>
            1.1767205595970154e-01 -5.7225233316421509e-01</leafValues></_>
        <_>
          <internalNodes>
            0 -1 392 -9.3866381794214249e-03</internalNodes>
          <leafValues>
            5.6379675865173340e-01 -1.5750762820243835e-01</leafValues></_>
        <_>
          <internalNodes>
            0 -1 209 -8.5175130516290665e-04</internalNodes>
          <leafValues>
            -4.8959672451019287e-01 1.6850312054157257e-01</leafValues></_></weakClassifiers></_>
    <!-- stage 6 -->
    <_>
      <maxWeakCount>17</maxWeakCount>
      <stageThreshold>-6.7466419935226440e-01</stageThreshold>
      <weakClassifiers>
        <_>
          <internalNodes>
            0 -1 297 -1.1082050390541553e-02</internalNodes>
          <leafValues>
            6.1440002918243408e-01 -6.4761906862258911e-02</leafValues></_>
        <_>
          <internalNodes>
            0 -1 0 5.4361969232559204e-02</internalNodes>
          <leafValues>
            -1.9806672632694244e-01 5.0547814369201660e-01</leafValues></_>
        <_>
          <internalNodes>
            0 -1 408 -2.6391517370939255e-02</internalNodes>
          <leafValues>
            5.0891590118408203e-01 -1.9570362567901611e-01</leafValues></_>
        <_>
          <internalNodes>
            0 -1 53 -2.8105813264846802e-01</internalNodes>
          <leafValues>
            7.9533958435058594e-01 -1.7029932141304016e-01</leafValues></_>
        <_>
          <internalNodes>
            0 -1 21 8.5654981434345245e-02</internalNodes>
          <leafValues>
            -1.8252748250961304e-01 5.3890240192413330e-01</leafValues></_>
        <_>
          <internalNodes>
            0 -1 80 -1.9740086048841476e-02</internalNodes>
          <leafValues>
            6.4749413728713989e-01 -1.3031496107578278e-01</leafValues></_>
        <_>
          <internalNodes>
            0 -1 138 -6.4923698082566261e-03</internalNodes>
          <leafValues>
            6.7387247085571289e-01 -1.0965169966220856e-01</leafValues></_>
        <_>
          <internalNodes>
            0 -1 252 1.8980016466230154e-03</internalNodes>
          <leafValues>
            -1.9129566848278046e-01 5.5460989475250244e-01</leafValues></_>
        <_>
          <internalNodes>
            0 -1 119 1.7656017094850540e-02</internalNodes>
          <leafValues>
            -3.9615935087203979e-01 2.5548070669174194e-01</leafValues></_>
        <_>
          <internalNodes>
            0 -1 215 -4.1168238967657089e-03</internalNodes>
          <leafValues>
            -5.8606821298599243e-01 1.6855339705944061e-01</leafValues></_>
        <_>
          <internalNodes>
            0 -1 354 2.5876485742628574e-03</internalNodes>
          <leafValues>
            -1.6410334408283234e-01 6.3103371858596802e-01</leafValues></_>
        <_>
          <internalNodes>
            0 -1 256 -9.5262438058853149e-02</internalNodes>
          <leafValues>
            -6.5269809961318970e-01 1.3111233711242676e-01</leafValues></_>
        <_>
          <internalNodes>
            0 -1 414 4.2806586134247482e-04</internalNodes>
          <leafValues>
            2.0441552996635437e-01 -3.5105291008949280e-01</leafValues></_>
        <_>
          <internalNodes>
            0 -1 84 6.7078736610710621e-03</internalNodes>
          <leafValues>
            -1.2665411829948425e-01 5.5347144603729248e-01</leafValues></_>
        <_>
          <internalNodes>
            0 -1 148 -6.4901104196906090e-03</internalNodes>
          <leafValues>
            -7.3704952001571655e-01 1.0006911307573318e-01</leafValues></_>
        <_>
          <internalNodes>
            0 -1 423 -3.9947433397173882e-03</internalNodes>
          <leafValues>
            3.3100712299346924e-01 -2.1622219681739807e-01</leafValues></_>
        <_>
          <internalNodes>
            0 -1 328 -1.0521030053496361e-02</internalNodes>
          <leafValues>
            3.4557336568832397e-01 -2.4906936287879944e-01</leafValues></_></weakClassifiers></_>
    <!-- stage 7 -->
    <_>
      <maxWeakCount>21</maxWeakCount>
      <stageThreshold>-7.9440951347351074e-01</stageThreshold>
      <weakClassifiers>
        <_>
          <internalNodes>
            0 -1 315 3.1167827546596527e-02</internalNodes>
          <leafValues>
            -4.6123649924993515e-02 5.8313816785812378e-01</leafValues></_>
        <_>
          <internalNodes>
            0 -1 240 -2.1174687426537275e-03</internalNodes>
          <leafValues>
            -6.1105781793594360e-01 1.7746871709823608e-01</leafValues></_>
        <_>
          <internalNodes>
            0 -1 51 -4.6216470003128052e-01</internalNodes>
          <leafValues>
            7.7223891019821167e-01 -1.2645703554153442e-01</leafValues></_>
        <_>
          <internalNodes>
            0 -1 10 1.5414625406265259e-01</internalNodes>
          <leafValues>
            -1.7730258405208588e-01 5.7642972469329834e-01</leafValues></_>
        <_>
          <internalNodes>
            0 -1 176 4.2544461786746979e-02</internalNodes>
          <leafValues>
            -1.5442708134651184e-01 4.5157754421234131e-01</leafValues></_>
        <_>
          <internalNodes>
            0 -1 131 6.5322741866111755e-03</internalNodes>
          <leafValues>
            -2.1464180946350098e-01 4.3168970942497253e-01</leafValues></_>
        <_>
          <internalNodes>
            0 -1 105 -6.2137395143508911e-03</internalNodes>
          <leafValues>
            2.7176818251609802e-01 -3.1878101825714111e-01</leafValues></_>
        <_>
          <internalNodes>
            0 -1 74 1.3063434511423111e-02</internalNodes>
          <leafValues>
            -1.2742719054222107e-01 6.7402291297912598e-01</leafValues></_>
        <_>
          <internalNodes>
            0 -1 248 4.1020293720066547e-03</internalNodes>
          <leafValues>
            -1.2923127412796021e-01 5.0487661361694336e-01</leafValues></_>
        <_>
          <internalNodes>
            0 -1 401 2.0832445006817579e-03</internalNodes>
          <leafValues>
            1.6991335153579712e-01 -4.4776019454002380e-01</leafValues></_>
        <_>
          <internalNodes>
            0 -1 271 -8.9222732931375504e-03</internalNodes>
          <leafValues>
            -6.4454853534698486e-01 1.1033228039741516e-01</leafValues></_>
        <_>
          <internalNodes>
            0 -1 367 -2.0673521794378757e-04</internalNodes>
          <leafValues>
            -4.6459740400314331e-01 1.2808193266391754e-01</leafValues></_>
        <_>
          <internalNodes>
            0 -1 133 -1.3648485764861107e-04</internalNodes>
          <leafValues>
            1.6136917471885681e-01 -4.4968700408935547e-01</leafValues></_>
        <_>
          <internalNodes>
            0 -1 245 -1.8476720899343491e-02</internalNodes>
          <leafValues>
            3.2257425785064697e-01 -2.2028286755084991e-01</leafValues></_>
        <_>
          <internalNodes>
            0 -1 197 7.5430259108543396e-02</internalNodes>
          <leafValues>
            -1.2707908451557159e-01 5.6918704509735107e-01</leafValues></_>
        <_>
          <internalNodes>
            0 -1 8 4.8437759280204773e-02</internalNodes>
          <leafValues>
            -1.6817925870418549e-01 3.5288137197494507e-01</leafValues></_>
        <_>
          <internalNodes>
            0 -1 81 -2.1216500550508499e-02</internalNodes>
          <leafValues>
            5.6493693590164185e-01 -1.1515090614557266e-01</leafValues></_>
        <_>
          <internalNodes>
            0 -1 274 1.0867233504541218e-04</internalNodes>
          <leafValues>
            1.2754195928573608e-01 -5.1179754734039307e-01</leafValues></_>
        <_>
          <internalNodes>
            0 -1 166 1.5008950140327215e-03</internalNodes>
          <leafValues>
            -1.4971709251403809e-01 4.6268138289451599e-01</leafValues></_>
        <_>
          <internalNodes>
            0 -1 180 -1.9049714319407940e-03</internalNodes>
          <leafValues>
            1.9865024089813232e-01 -3.5872727632522583e-01</leafValues></_>
        <_>
          <internalNodes>
            0 -1 379 -1.3424996286630630e-03</internalNodes>
          <leafValues>
            5.0268179178237915e-01 -1.3248392939567566e-01</leafValues></_></weakClassifiers></_>
    <!-- stage 8 -->
    <_>
      <maxWeakCount>20</maxWeakCount>
      <stageThreshold>-8.3856970071792603e-01</stageThreshold>
      <weakClassifiers>
        <_>
          <internalNodes>
            0 -1 1 -5.2705764770507812e-01</internalNodes>
          <leafValues>
            -7.7593362331390381e-01 4.3079164624214172e-01</leafValues></_>
        <_>
          <internalNodes>
            0 -1 11 -2.9132407903671265e-01</internalNodes>
          <leafValues>
            6.3234084844589233e-01 -1.5267200767993927e-01</leafValues></_>
        <_>
          <internalNodes>
            0 -1 273 -1.0468572327226866e-05</internalNodes>
          <leafValues>
            8.6060866713523865e-02 -6.5619385242462158e-01</leafValues></_>
        <_>
          <internalNodes>
            0 -1 365 1.1792543344199657e-02</internalNodes>
          <leafValues>
            -2.8094339370727539e-01 2.6330271363258362e-01</leafValues></_>
        <_>
          <internalNodes>
            0 -1 272 1.2500897981226444e-02</internalNodes>
          <leafValues>
            7.6015971601009369e-02 -9.0313088893890381e-01</leafValues></_>
        <_>
          <internalNodes>
            0 -1 27 2.6197634637355804e-02</internalNodes>
          <leafValues>
            6.1308842152357101e-02 -7.6086789369583130e-01</leafValues></_>
        <_>
          <internalNodes>
            0 -1 165 -8.8437758386135101e-03</internalNodes>
          <leafValues>
            -8.5311847925186157e-01 5.7378396391868591e-02</leafValues></_>
        <_>
          <internalNodes>
            0 -1 121 -9.1847013682126999e-03</internalNodes>
          <leafValues>
            -8.1580322980880737e-01 6.3729234039783478e-02</leafValues></_>
        <_>
          <internalNodes>
            0 -1 371 -2.9296710636117496e-05</internalNodes>
          <leafValues>
            2.1454530954360962e-01 -2.9486984014511108e-01</leafValues></_>
        <_>
          <internalNodes>
            0 -1 212 -1.3606067514047027e-03</internalNodes>
          <leafValues>
            -5.3661340475082397e-01 9.9367655813694000e-02</leafValues></_>
        <_>
          <internalNodes>
            0 -1 195 3.3332966268062592e-03</internalNodes>
          <leafValues>
            -1.9669151306152344e-01 4.1059443354606628e-01</leafValues></_>
        <_>
          <internalNodes>
            0 -1 362 -5.3674541413784027e-03</internalNodes>
          <leafValues>
            2.4726244807243347e-01 -2.8205612301826477e-01</leafValues></_>
        <_>
          <internalNodes>
            0 -1 291 -8.9899934828281403e-03</internalNodes>
          <leafValues>
            3.2514563202857971e-01 -2.3239661753177643e-01</leafValues></_>
        <_>
          <internalNodes>
            0 -1 385 -9.3709174543619156e-03</internalNodes>
          <leafValues>
            4.5982211828231812e-01 -1.8506301939487457e-01</leafValues></_>
        <_>
          <internalNodes>
            0 -1 255 6.4774066209793091e-02</internalNodes>
          <leafValues>
            -1.7702259123325348e-01 4.1988471150398254e-01</leafValues></_>
        <_>
          <internalNodes>
            0 -1 400 6.0961898270761594e-05</internalNodes>
          <leafValues>
            -2.7135726809501648e-01 2.5297710299491882e-01</leafValues></_>
        <_>
          <internalNodes>
            0 -1 198 1.4841756783425808e-03</internalNodes>
          <leafValues>
            -1.4576716721057892e-01 4.1104307770729065e-01</leafValues></_>
        <_>
          <internalNodes>
            0 -1 223 -3.3353711478412151e-03</internalNodes>
          <leafValues>
            3.1389164924621582e-01 -2.3543699085712433e-01</leafValues></_>
        <_>
          <internalNodes>
            0 -1 305 2.1654511801898479e-03</internalNodes>
          <leafValues>
            8.2564599812030792e-02 -8.0826336145401001e-01</leafValues></_>
        <_>
          <internalNodes>
            0 -1 168 -3.8467842387035489e-05</internalNodes>
          <leafValues>
            2.1621900796890259e-01 -2.9779374599456787e-01</leafValues></_></weakClassifiers></_>
    <!-- stage 9 -->
    <_>
      <maxWeakCount>21</maxWeakCount>
      <stageThreshold>-8.2647490501403809e-01</stageThreshold>
      <weakClassifiers>
        <_>
          <internalNodes>
            0 -1 417 8.4869772195816040e-02</internalNodes>
          <leafValues>
            1.6150081157684326e-01 8.7418657541275024e-01</leafValues></_>
        <_>
          <internalNodes>
            0 -1 402 -5.9587452560663223e-03</internalNodes>
          <leafValues>
            4.3769916892051697e-01 -1.2518884241580963e-01</leafValues></_>
        <_>
          <internalNodes>
            0 -1 263 4.5951753854751587e-02</internalNodes>
          <leafValues>
            -1.0220259428024292e-01 7.7013289928436279e-01</leafValues></_>
        <_>
          <internalNodes>
            0 -1 150 -8.8308723643422127e-03</internalNodes>
          <leafValues>
            5.7831329107284546e-01 -1.5576983988285065e-01</leafValues></_>
        <_>
          <internalNodes>
            0 -1 257 4.2770169675350189e-02</internalNodes>
          <leafValues>
            1.2773978710174561e-01 -6.4617717266082764e-01</leafValues></_>
        <_>
          <internalNodes>
            0 -1 265 -2.0804927044082433e-04</internalNodes>
          <leafValues>
            1.8297281861305237e-01 -4.6788996458053589e-01</leafValues></_>
        <_>
          <internalNodes>
            0 -1 251 -1.2972948607057333e-03</internalNodes>
          <leafValues>
            5.1321119070053101e-01 -1.6393610835075378e-01</leafValues></_>
        <_>
          <internalNodes>
            0 -1 200 1.0881775990128517e-02</internalNodes>
          <leafValues>
            -9.3068286776542664e-02 6.0975795984268188e-01</leafValues></_>
        <_>
          <internalNodes>
            0 -1 296 -3.4756576642394066e-03</internalNodes>
          <leafValues>
            -6.2542390823364258e-01 1.2920449674129486e-01</leafValues></_>
        <_>
          <internalNodes>
            0 -1 173 -4.2714122682809830e-03</internalNodes>
          <leafValues>
            5.2715432643890381e-01 -1.2036942690610886e-01</leafValues></_>
        <_>
          <internalNodes>
            0 -1 222 1.6343567520380020e-02</internalNodes>
          <leafValues>
            -1.1564656347036362e-01 5.7083469629287720e-01</leafValues></_>
        <_>
          <internalNodes>
            0 -1 114 -1.2105312198400497e-02</internalNodes>
          <leafValues>
            4.8479884862899780e-01 -1.3275879621505737e-01</leafValues></_>
        <_>
          <internalNodes>
            0 -1 285 -7.2907330468297005e-03</internalNodes>
          <leafValues>
            -7.4641466140747070e-01 1.0335740447044373e-01</leafValues></_>
        <_>
          <internalNodes>
            0 -1 201 1.8315587192773819e-02</internalNodes>
          <leafValues>
            7.7419087290763855e-02 -7.6220566034317017e-01</leafValues></_>
        <_>
          <internalNodes>
            0 -1 413 2.0970538258552551e-02</internalNodes>
          <leafValues>
            -2.3265099525451660e-01 2.6282006502151489e-01</leafValues></_>
        <_>
          <internalNodes>
            0 -1 37 -2.1937113255262375e-02</internalNodes>
          <leafValues>
            5.4546427726745605e-01 -1.1445188522338867e-01</leafValues></_>
        <_>
          <internalNodes>
            0 -1 42 -6.1149552464485168e-02</internalNodes>
          <leafValues>
            -5.5470496416091919e-01 1.3681896030902863e-01</leafValues></_>
        <_>
          <internalNodes>
            0 -1 196 3.9012208580970764e-02</internalNodes>
          <leafValues>
            -1.2276182323694229e-01 4.9743968248367310e-01</leafValues></_>
        <_>
          <internalNodes>
            0 -1 276 -7.0741097442805767e-04</internalNodes>
          <leafValues>
            -3.9855784177780151e-01 1.6801746189594269e-01</leafValues></_>
        <_>
          <internalNodes>
            0 -1 160 4.8459969460964203e-02</internalNodes>
          <leafValues>
            -1.0187847912311554e-01 6.1353582143783569e-01</leafValues></_>
        <_>
          <internalNodes>
            0 -1 98 -1.8438262864947319e-02</internalNodes>
          <leafValues>
            2.5513926148414612e-01 -3.2913479208946228e-01</leafValues></_></weakClassifiers></_>
    <!-- stage 10 -->
    <_>
      <maxWeakCount>27</maxWeakCount>
      <stageThreshold>-9.0932178497314453e-01</stageThreshold>
      <weakClassifiers>
        <_>
          <internalNodes>
            0 -1 243 -1.8111938843503594e-03</internalNodes>
          <leafValues>
            -4.3272727727890015e-01 4.0444445610046387e-01</leafValues></_>
        <_>
          <internalNodes>
            0 -1 34 -6.6937154531478882e-01</internalNodes>
          <leafValues>
            8.7367326021194458e-01 -1.0000690072774887e-01</leafValues></_>
        <_>
          <internalNodes>
            0 -1 216 -9.4625569181516767e-04</internalNodes>
          <leafValues>
            1.9728183746337891e-01 -3.5183867812156677e-01</leafValues></_>
        <_>
          <internalNodes>
            0 -1 194 -9.4626704230904579e-03</internalNodes>
          <leafValues>
            6.4660578966140747e-01 -8.0351263284683228e-02</leafValues></_>
        <_>
          <internalNodes>
            0 -1 407 -1.1863322928547859e-02</internalNodes>
          <leafValues>
            3.5137584805488586e-01 -1.7994150519371033e-01</leafValues></_>
        <_>
          <internalNodes>
            0 -1 186 -1.4177779667079449e-03</internalNodes>
          <leafValues>
            -6.3382434844970703e-01 1.0856332629919052e-01</leafValues></_>
        <_>
          <internalNodes>
            0 -1 49 1.2888329103589058e-02</internalNodes>
          <leafValues>
            -2.5881621241569519e-01 2.5769394636154175e-01</leafValues></_>
        <_>
          <internalNodes>
            0 -1 63 -3.3951930701732635e-02</internalNodes>
          <leafValues>
            4.1411536931991577e-01 -1.6827011108398438e-01</leafValues></_>
        <_>
          <internalNodes>
            0 -1 378 5.6735705584287643e-04</internalNodes>
          <leafValues>
            -2.2824175655841827e-01 2.8056904673576355e-01</leafValues></_>
        <_>
          <internalNodes>
            0 -1 324 -8.5693702567368746e-04</internalNodes>
          <leafValues>
            3.9167186617851257e-01 -1.4311468601226807e-01</leafValues></_>
        <_>
          <internalNodes>
            0 -1 13 2.1448694169521332e-02</internalNodes>
          <leafValues>
            -9.6679009497165680e-02 6.0858142375946045e-01</leafValues></_>
        <_>
          <internalNodes>
            0 -1 187 9.2709215823560953e-04</internalNodes>
          <leafValues>
            1.6013038158416748e-01 -4.6475726366043091e-01</leafValues></_>
        <_>
          <internalNodes>
            0 -1 137 -1.4171958900988102e-03</internalNodes>
          <leafValues>
            3.7244442105293274e-01 -1.7176079750061035e-01</leafValues></_>
        <_>
          <internalNodes>
            0 -1 172 4.1362829506397247e-03</internalNodes>
          <leafValues>
            -1.4815224707126617e-01 4.0581747889518738e-01</leafValues></_>
        <_>
          <internalNodes>
            0 -1 319 -4.5263269566930830e-04</internalNodes>
          <leafValues>
            -4.7774249315261841e-01 1.7591838538646698e-01</leafValues></_>
        <_>
          <internalNodes>
            0 -1 338 -2.4715263862162828e-04</internalNodes>
          <leafValues>
            -3.3785834908485413e-01 1.6719439625740051e-01</leafValues></_>
        <_>
          <internalNodes>
            0 -1 84 5.8239446952939034e-03</internalNodes>
          <leafValues>
            -1.4393123984336853e-01 4.1060093045234680e-01</leafValues></_>
        <_>
          <internalNodes>
            0 -1 403 2.2490092087537050e-03</internalNodes>
          <leafValues>
            1.6485765576362610e-01 -3.6628389358520508e-01</leafValues></_>
        <_>
          <internalNodes>
            0 -1 232 4.8438541591167450e-02</internalNodes>
          <leafValues>
            -1.1464697122573853e-01 5.1797890663146973e-01</leafValues></_>
        <_>
          <internalNodes>
            0 -1 369 -1.1869339505210519e-04</internalNodes>
          <leafValues>
            -4.2914897203445435e-01 1.6942229866981506e-01</leafValues></_>
        <_>
          <internalNodes>
            0 -1 219 5.6217755191028118e-03</internalNodes>
          <leafValues>
            -1.3077434897422791e-01 4.3235248327255249e-01</leafValues></_>
        <_>
          <internalNodes>
            0 -1 18 -2.6603033766150475e-03</internalNodes>
          <leafValues>
            -4.1453015804290771e-01 1.4591851830482483e-01</leafValues></_>
        <_>
          <internalNodes>
            0 -1 220 8.2889478653669357e-04</internalNodes>
          <leafValues>
            -1.2899482250213623e-01 4.4209203124046326e-01</leafValues></_>
        <_>
          <internalNodes>
            0 -1 211 -1.6250067856162786e-03</internalNodes>
          <leafValues>
            -5.9362423419952393e-01 1.0112949460744858e-01</leafValues></_>
        <_>
          <internalNodes>
            0 -1 229 1.0117518249899149e-03</internalNodes>
          <leafValues>
            -1.7936521768569946e-01 3.6849159002304077e-01</leafValues></_>
        <_>
          <internalNodes>
            0 -1 177 -9.1092310845851898e-02</internalNodes>
          <leafValues>
            2.7043387293815613e-01 -2.0334063470363617e-01</leafValues></_>
        <_>
          <internalNodes>
            0 -1 183 -5.0894594751298428e-03</internalNodes>
          <leafValues>
            4.5376864075660706e-01 -1.3985693454742432e-01</leafValues></_></weakClassifiers></_>
    <!-- stage 11 -->
    <_>
      <maxWeakCount>26</maxWeakCount>
      <stageThreshold>-7.7649557590484619e-01</stageThreshold>
      <weakClassifiers>
        <_>
          <internalNodes>
            0 -1 342 2.9539585113525391e-02</internalNodes>
          <leafValues>
            1.2906664533787401e-17 5.4858934879302979e-01</leafValues></_>
        <_>
          <internalNodes>
            0 -1 397 1.7058503627777100e-01</internalNodes>
          <leafValues>
            -6.5425395965576172e-02 7.1535241603851318e-01</leafValues></_>
        <_>
          <internalNodes>
            0 -1 45 4.7491500154137611e-03</internalNodes>
          <leafValues>
            -2.4634151160717010e-01 2.5393265485763550e-01</leafValues></_>
        <_>
          <internalNodes>
            0 -1 358 9.6198469400405884e-03</internalNodes>
          <leafValues>
            1.7452383041381836e-01 -3.6105003952980042e-01</leafValues></_>
        <_>
          <internalNodes>
            0 -1 28 -1.7838582396507263e-02</internalNodes>
          <leafValues>
            4.2289343476295471e-01 -1.5029776096343994e-01</leafValues></_>
        <_>
          <internalNodes>
            0 -1 355 -5.0259515643119812e-02</internalNodes>
          <leafValues>
            5.4824250936508179e-01 -9.4257667660713196e-02</leafValues></_>
        <_>
          <internalNodes>
            0 -1 73 6.5054865553975105e-03</internalNodes>
          <leafValues>
            -1.3591362535953522e-01 4.0915474295616150e-01</leafValues></_>
        <_>
          <internalNodes>
            0 -1 267 1.4756056480109692e-02</internalNodes>
          <leafValues>
            9.4701819121837616e-02 -6.4950019121170044e-01</leafValues></_>
        <_>
          <internalNodes>
            0 -1 154 6.4275175333023071e-02</internalNodes>
          <leafValues>
            5.6931771337985992e-02 -8.4041082859039307e-01</leafValues></_>
        <_>
          <internalNodes>
            0 -1 129 2.6922402903437614e-02</internalNodes>
          <leafValues>
            8.9869126677513123e-02 -5.4054617881774902e-01</leafValues></_>
        <_>
          <internalNodes>
            0 -1 122 3.2872450537979603e-03</internalNodes>
          <leafValues>
            -1.0905696451663971e-01 4.8112344741821289e-01</leafValues></_>
        <_>
          <internalNodes>
            0 -1 141 1.9224279094487429e-03</internalNodes>
          <leafValues>
            -1.5182773768901825e-01 3.6860740184783936e-01</leafValues></_>
        <_>
          <internalNodes>
            0 -1 78 -2.7686667442321777e-01</internalNodes>
          <leafValues>
            5.7168692350387573e-01 -9.3724787235260010e-02</leafValues></_>
        <_>
          <internalNodes>
            0 -1 421 -1.1139519512653351e-02</internalNodes>
          <leafValues>
            3.5059103369712830e-01 -1.7309908568859100e-01</leafValues></_>
        <_>
          <internalNodes>
            0 -1 360 -5.9470981359481812e-03</internalNodes>
          <leafValues>
            2.3008738458156586e-01 -2.6243290305137634e-01</leafValues></_>
        <_>
          <internalNodes>
            0 -1 89 1.4309120178222656e-01</internalNodes>
          <leafValues>
            -9.4491779804229736e-02 7.6931989192962646e-01</leafValues></_>
        <_>
          <internalNodes>
            0 -1 221 3.0426788143813610e-03</internalNodes>
          <leafValues>
            8.7961487472057343e-02 -8.9023286104202271e-01</leafValues></_>
        <_>
          <internalNodes>
            0 -1 134 -2.4003316648304462e-03</internalNodes>
          <leafValues>
            -4.3171551823616028e-01 1.1683471500873566e-01</leafValues></_>
        <_>
          <internalNodes>
            0 -1 82 7.0190966129302979e-02</internalNodes>
          <leafValues>
            -6.8902969360351562e-02 8.4420877695083618e-01</leafValues></_>
        <_>
          <internalNodes>
            0 -1 311 -1.9701293786056340e-04</internalNodes>
          <leafValues>
            -4.0829238295555115e-01 1.7281337082386017e-01</leafValues></_>
        <_>
          <internalNodes>
            0 -1 126 -5.7260626927018166e-03</internalNodes>
          <leafValues>
            2.8812015056610107e-01 -1.8527844548225403e-01</leafValues></_>
        <_>
          <internalNodes>
            0 -1 224 -3.6439113318920135e-03</internalNodes>
          <leafValues>
            3.8610172271728516e-01 -1.5249326825141907e-01</leafValues></_>
        <_>
          <internalNodes>
            0 -1 239 -1.8415212398394942e-03</internalNodes>
          <leafValues>
            -5.1260828971862793e-01 1.0693597048521042e-01</leafValues></_>
        <_>
          <internalNodes>
            0 -1 277 -1.3813132682116702e-05</internalNodes>
          <leafValues>
            1.0488118231296539e-01 -4.5763182640075684e-01</leafValues></_>
        <_>
          <internalNodes>
            0 -1 139 6.5134475007653236e-03</internalNodes>
          <leafValues>
            -1.1229806393384933e-01 4.6831905841827393e-01</leafValues></_>
        <_>
          <internalNodes>
            0 -1 109 -7.1506649255752563e-03</internalNodes>
          <leafValues>
            4.9250683188438416e-01 -1.0780306905508041e-01</leafValues></_></weakClassifiers></_>
    <!-- stage 12 -->
    <_>
      <maxWeakCount>25</maxWeakCount>
      <stageThreshold>-7.0341765880584717e-01</stageThreshold>
      <weakClassifiers>
        <_>
          <internalNodes>
            0 -1 57 -3.3030763268470764e-01</internalNodes>
          <leafValues>
            8.1623929738998413e-01 1.7358078062534332e-01</leafValues></_>
        <_>
          <internalNodes>
            0 -1 217 -4.7677522525191307e-03</internalNodes>
          <leafValues>
            2.6259827613830566e-01 -2.3809446394443512e-01</leafValues></_>
        <_>
          <internalNodes>
            0 -1 146 2.0983777940273285e-02</internalNodes>
          <leafValues>
            -1.7142213881015778e-01 3.8181525468826294e-01</leafValues></_>
        <_>
          <internalNodes>
            0 -1 388 -1.7739750444889069e-02</internalNodes>
          <leafValues>
            -7.1019637584686279e-01 7.0010922849178314e-02</leafValues></_>
        <_>
          <internalNodes>
            0 -1 391 -2.8754291124641895e-03</internalNodes>
          <leafValues>
            3.9588579535484314e-01 -1.5285506844520569e-01</leafValues></_>
        <_>
          <internalNodes>
            0 -1 231 -1.0744803585112095e-03</internalNodes>
          <leafValues>
            1.5639404952526093e-01 -4.2771908640861511e-01</leafValues></_>
        <_>
          <internalNodes>
            0 -1 343 -2.1840570843778551e-04</internalNodes>
          <leafValues>
            -3.7345448136329651e-01 1.5113978087902069e-01</leafValues></_>
        <_>
          <internalNodes>
            0 -1 260 1.3235189020633698e-02</internalNodes>
          <leafValues>
            -1.1525376141071320e-01 5.0151759386062622e-01</leafValues></_>
        <_>
          <internalNodes>
            0 -1 31 1.0946968197822571e-01</internalNodes>
          <leafValues>
            -1.0145455598831177e-01 6.3771563768386841e-01</leafValues></_>
        <_>
          <internalNodes>
            0 -1 192 -3.1145391985774040e-03</internalNodes>
          <leafValues>
            4.3972384929656982e-01 -1.1742477864027023e-01</leafValues></_>
        <_>
          <internalNodes>
            0 -1 208 1.4349166303873062e-03</internalNodes>
          <leafValues>
            7.3920361697673798e-02 -7.3215180635452271e-01</leafValues></_>
        <_>
          <internalNodes>
            0 -1 76 4.6634206175804138e-01</internalNodes>
          <leafValues>
            -7.9653225839138031e-02 7.7338284254074097e-01</leafValues></_>
        <_>
          <internalNodes>
            0 -1 94 3.1356227118521929e-03</internalNodes>
          <leafValues>
            1.4500541985034943e-01 -5.0337928533554077e-01</leafValues></_>
        <_>
          <internalNodes>
            0 -1 373 1.6639672685414553e-03</internalNodes>
          <leafValues>
            -1.4709895849227905e-01 3.6623778939247131e-01</leafValues></_>
        <_>
          <internalNodes>
            0 -1 241 -6.2563754618167877e-03</internalNodes>
          <leafValues>
            -6.3808047771453857e-01 9.7874641418457031e-02</leafValues></_>
        <_>
          <internalNodes>
            0 -1 274 -1.4446422457695007e-02</internalNodes>
          <leafValues>
            -7.6089829206466675e-01 5.0943888723850250e-02</leafValues></_>
        <_>
          <internalNodes>
            0 -1 116 -9.4729047268629074e-03</internalNodes>
          <leafValues>
            5.8352559804916382e-01 -9.1980449855327606e-02</leafValues></_>
        <_>
          <internalNodes>
            0 -1 318 -2.3036262427922338e-04</internalNodes>
          <leafValues>
            -3.8061118125915527e-01 1.3502852618694305e-01</leafValues></_>
        <_>
          <internalNodes>
            0 -1 308 2.8684961143881083e-03</internalNodes>
          <leafValues>
            -2.4682997167110443e-01 2.1091435849666595e-01</leafValues></_>
        <_>
          <internalNodes>
            0 -1 410 -2.1925523877143860e-02</internalNodes>
          <leafValues>
            4.7779843211174011e-01 -1.0986389964818954e-01</leafValues></_>
        <_>
          <internalNodes>
            0 -1 169 -3.5708093491848558e-05</internalNodes>
          <leafValues>
            2.1562957763671875e-01 -2.3654511570930481e-01</leafValues></_>
        <_>
          <internalNodes>
            0 -1 331 -2.0399630069732666e-01</internalNodes>
          <leafValues>
            -8.4978944063186646e-01 5.1317922770977020e-02</leafValues></_>
        <_>
          <internalNodes>
            0 -1 269 -9.5878951251506805e-03</internalNodes>
          <leafValues>
            -5.4668325185775757e-01 7.4393011629581451e-02</leafValues></_>
        <_>
          <internalNodes>
            0 -1 115 2.1124958992004395e-01</internalNodes>
          <leafValues>
            5.1798008382320404e-02 -7.5705111026763916e-01</leafValues></_>
        <_>
          <internalNodes>
            0 -1 88 5.2819356322288513e-02</internalNodes>
          <leafValues>
            -1.0981193184852600e-01 4.9702081084251404e-01</leafValues></_></weakClassifiers></_>
    <!-- stage 13 -->
    <_>
      <maxWeakCount>27</maxWeakCount>
      <stageThreshold>-7.3209643363952637e-01</stageThreshold>
      <weakClassifiers>
        <_>
          <internalNodes>
            0 -1 25 -2.2739851474761963e-01</internalNodes>
          <leafValues>
            7.9238754510879517e-01 1.4053426682949066e-01</leafValues></_>
        <_>
          <internalNodes>
            0 -1 26 2.5806584744714200e-04</internalNodes>
          <leafValues>
            -2.5519895553588867e-01 2.1650204062461853e-01</leafValues></_>
        <_>
          <internalNodes>
            0 -1 329 2.5502378121018410e-02</internalNodes>
          <leafValues>
            -2.4071194231510162e-01 2.0839077234268188e-01</leafValues></_>
        <_>
          <internalNodes>
            0 -1 44 7.2423562407493591e-02</internalNodes>
          <leafValues>
            8.1474408507347107e-02 -5.8360648155212402e-01</leafValues></_>
        <_>
          <internalNodes>
            0 -1 218 1.7802813090384007e-03</internalNodes>
          <leafValues>
            -2.2409443557262421e-01 2.8866010904312134e-01</leafValues></_>
        <_>
          <internalNodes>
            0 -1 95 -1.9702559709548950e-01</internalNodes>
          <leafValues>
            5.6149172782897949e-01 -5.6713696569204330e-02</leafValues></_>
        <_>
          <internalNodes>
            0 -1 377 -7.4206460267305374e-03</internalNodes>
          <leafValues>
            4.3928018212318420e-01 -1.4313465356826782e-01</leafValues></_>
        <_>
          <internalNodes>
            0 -1 147 -2.7026323601603508e-02</internalNodes>
          <leafValues>
            -8.0443012714385986e-01 6.8298943340778351e-02</leafValues></_>
        <_>
          <internalNodes>
            0 -1 322 7.9016172094270587e-04</internalNodes>
          <leafValues>
            9.1035537421703339e-02 -5.2199620008468628e-01</leafValues></_>
        <_>
          <internalNodes>
            0 -1 238 -1.2080901302397251e-02</internalNodes>
          <leafValues>
            6.5229249000549316e-01 -8.1739328801631927e-02</leafValues></_>
        <_>
          <internalNodes>
            0 -1 353 1.3444249052554369e-03</internalNodes>
          <leafValues>
            -1.3066007196903229e-01 3.6036774516105652e-01</leafValues></_>
        <_>
          <internalNodes>
            0 -1 127 7.0910071954131126e-03</internalNodes>
          <leafValues>
            -1.1513919383287430e-01 4.8621803522109985e-01</leafValues></_>
        <_>
          <internalNodes>
            0 -1 12 2.9812907800078392e-02</internalNodes>
          <leafValues>
            -8.7427720427513123e-02 5.1445001363754272e-01</leafValues></_>
        <_>
          <internalNodes>
            0 -1 298 -4.3281773105263710e-03</internalNodes>
          <leafValues>
            2.0932456851005554e-01 -2.9364153742790222e-01</leafValues></_>
        <_>
          <internalNodes>
            0 -1 398 -7.0556844584643841e-03</internalNodes>
          <leafValues>
            -5.6455224752426147e-01 1.0465574264526367e-01</leafValues></_>
        <_>
          <internalNodes>
            0 -1 351 3.6243814975023270e-03</internalNodes>
          <leafValues>
            -1.3659870624542236e-01 3.3139756321907043e-01</leafValues></_>
        <_>
          <internalNodes>
            0 -1 24 8.7705850601196289e-02</internalNodes>
          <leafValues>
            8.6024954915046692e-02 -6.2698435783386230e-01</leafValues></_>
        <_>
          <internalNodes>
            0 -1 123 -2.9707122594118118e-02</internalNodes>
          <leafValues>
            -5.9341657161712646e-01 7.3753051459789276e-02</leafValues></_>
        <_>
          <internalNodes>
            0 -1 75 1.6364603070542216e-03</internalNodes>
          <leafValues>
            1.0266593843698502e-01 -4.1403326392173767e-01</leafValues></_>
        <_>
          <internalNodes>
            0 -1 340 2.1345777437090874e-02</internalNodes>
          <leafValues>
            -1.5101794898509979e-01 3.4117057919502258e-01</leafValues></_>
        <_>
          <internalNodes>
            0 -1 135 -1.4956044033169746e-02</internalNodes>
          <leafValues>
            3.8326051831245422e-01 -1.3622918725013733e-01</leafValues></_>
        <_>
          <internalNodes>
            0 -1 384 -3.6327526904642582e-03</internalNodes>
          <leafValues>
            1.8246649205684662e-01 -3.0873754620552063e-01</leafValues></_>
        <_>
          <internalNodes>
            0 -1 152 -1.9365493208169937e-02</internalNodes>
          <leafValues>
            6.0347229242324829e-01 -8.8316708803176880e-02</leafValues></_>
        <_>
          <internalNodes>
            0 -1 93 -2.6794038712978363e-02</internalNodes>
          <leafValues>
            -7.1053415536880493e-01 7.3433354496955872e-02</leafValues></_>
        <_>
          <internalNodes>
            0 -1 164 -8.2360431551933289e-03</internalNodes>
          <leafValues>
            -7.2266185283660889e-01 5.4437715560197830e-02</leafValues></_>
        <_>
          <internalNodes>
            0 -1 59 1.4619611203670502e-02</internalNodes>
          <leafValues>
            -2.0576830208301544e-01 2.2757512331008911e-01</leafValues></_>
        <_>
          <internalNodes>
            0 -1 344 -1.3428519196168054e-05</internalNodes>
          <leafValues>
            2.1913900971412659e-01 -2.1558916568756104e-01</leafValues></_></weakClassifiers></_>
    <!-- stage 14 -->
    <_>
      <maxWeakCount>26</maxWeakCount>
      <stageThreshold>-6.8684852123260498e-01</stageThreshold>
      <weakClassifiers>
        <_>
          <internalNodes>
            0 -1 409 1.4729329943656921e-01</internalNodes>
          <leafValues>
            1.9384615123271942e-01 9.2000001668930054e-01</leafValues></_>
        <_>
          <internalNodes>
            0 -1 364 2.2211819887161255e-03</internalNodes>
          <leafValues>
            -2.2848676145076752e-01 2.8031876683235168e-01</leafValues></_>
        <_>
          <internalNodes>
            0 -1 32 5.4520651698112488e-02</internalNodes>
          <leafValues>
            -1.2036865204572678e-01 7.3955804109573364e-01</leafValues></_>
        <_>
          <internalNodes>
            0 -1 204 1.5841485001146793e-03</internalNodes>
          <leafValues>
            1.7679128050804138e-01 -4.7769725322723389e-01</leafValues></_>
        <_>
          <internalNodes>
            0 -1 335 1.8459588289260864e-02</internalNodes>
          <leafValues>
            -2.0892305672168732e-01 3.5203403234481812e-01</leafValues></_>
        <_>
          <internalNodes>
            0 -1 182 -1.6716752201318741e-02</internalNodes>
          <leafValues>
            4.5240610837936401e-01 -8.9730113744735718e-02</leafValues></_>
        <_>
          <internalNodes>
            0 -1 178 1.8935278058052063e-02</internalNodes>
          <leafValues>
            -8.8741481304168701e-02 6.8290406465530396e-01</leafValues></_>
        <_>
          <internalNodes>
            0 -1 156 -2.4046376347541809e-03</internalNodes>
          <leafValues>
            2.9598832130432129e-01 -1.7454513907432556e-01</leafValues></_>
        <_>
          <internalNodes>
            0 -1 333 -8.4718863945454359e-05</internalNodes>
          <leafValues>
            1.2019271403551102e-01 -4.3409675359725952e-01</leafValues></_>
        <_>
          <internalNodes>
            0 -1 145 -1.1684978380799294e-02</internalNodes>
          <leafValues>
            4.4147738814353943e-01 -1.5672127902507782e-01</leafValues></_>
        <_>
          <internalNodes>
            0 -1 262 2.2855024784803391e-02</internalNodes>
          <leafValues>
            1.2092083692550659e-01 -5.2550750970840454e-01</leafValues></_>
        <_>
          <internalNodes>
            0 -1 303 -1.9843712449073792e-02</internalNodes>
          <leafValues>
            3.0870479345321655e-01 -1.7605979740619659e-01</leafValues></_>
        <_>
          <internalNodes>
            0 -1 361 -1.3998884707689285e-02</internalNodes>
          <leafValues>
            2.7373167872428894e-01 -2.2587971389293671e-01</leafValues></_>
        <_>
          <internalNodes>
            0 -1 266 1.2189026165287942e-04</internalNodes>
          <leafValues>
            1.6829283535480499e-01 -4.6674147248268127e-01</leafValues></_>
        <_>
          <internalNodes>
            0 -1 372 -1.0450201443745755e-05</internalNodes>
          <leafValues>
            2.6876735687255859e-01 -2.0045389235019684e-01</leafValues></_>
        <_>
          <internalNodes>
            0 -1 113 -5.0924178212881088e-03</internalNodes>
          <leafValues>
            3.2899191975593567e-01 -1.4923022687435150e-01</leafValues></_>
        <_>
          <internalNodes>
            0 -1 352 -4.5391563326120377e-03</internalNodes>
          <leafValues>
            4.1880133748054504e-01 -1.2876529991626740e-01</leafValues></_>
        <_>
          <internalNodes>
            0 -1 206 -7.0781381800770760e-03</internalNodes>
          <leafValues>
            -6.4924925565719604e-01 9.5646776258945465e-02</leafValues></_>
        <_>
          <internalNodes>
            0 -1 85 9.3443226069211960e-03</internalNodes>
          <leafValues>
            -9.4545416533946991e-02 5.9198802709579468e-01</leafValues></_>
        <_>
          <internalNodes>
            0 -1 64 -6.0861941426992416e-02</internalNodes>
          <leafValues>
            3.9880108833312988e-01 -1.1818202584981918e-01</leafValues></_>
        <_>
          <internalNodes>
            0 -1 136 -4.8840581439435482e-04</internalNodes>
          <leafValues>
            -3.2250764966011047e-01 1.8514958024024963e-01</leafValues></_>
        <_>
          <internalNodes>
            0 -1 38 -5.3613549098372459e-03</internalNodes>
          <leafValues>
            3.6575090885162354e-01 -1.7054189741611481e-01</leafValues></_>
        <_>
          <internalNodes>
            0 -1 382 -3.5239838063716888e-02</internalNodes>
          <leafValues>
            6.1979728937149048e-01 -8.4882333874702454e-02</leafValues></_>
        <_>
          <internalNodes>
            0 -1 290 -4.9373187357559800e-04</internalNodes>
          <leafValues>
            3.6285775899887085e-01 -1.3027895987033844e-01</leafValues></_>
        <_>
          <internalNodes>
            0 -1 174 7.0734741166234016e-03</internalNodes>
          <leafValues>
            -1.2409351021051407e-01 5.5348461866378784e-01</leafValues></_>
        <_>
          <internalNodes>
            0 -1 316 -1.1518426472321153e-03</internalNodes>
          <leafValues>
            -9.0163660049438477e-01 7.4232958257198334e-02</leafValues></_></weakClassifiers></_>
    <!-- stage 15 -->
    <_>
      <maxWeakCount>26</maxWeakCount>
      <stageThreshold>-6.9197380542755127e-01</stageThreshold>
      <weakClassifiers>
        <_>
          <internalNodes>
            0 -1 22 -2.8672337532043457e-01</internalNodes>
          <leafValues>
            7.9962891340255737e-01 1.5275411307811737e-01</leafValues></_>
        <_>
          <internalNodes>
            0 -1 416 -1.7351545393466949e-02</internalNodes>
          <leafValues>
            3.5921809077262878e-01 -1.1807280033826828e-01</leafValues></_>
        <_>
          <internalNodes>
            0 -1 56 -1.1512267403304577e-02</internalNodes>
          <leafValues>
            2.3064617812633514e-01 -3.3360150456428528e-01</leafValues></_>
        <_>
          <internalNodes>
            0 -1 29 -4.1514423489570618e-01</internalNodes>
          <leafValues>
            -6.2660259008407593e-01 1.2176327407360077e-01</leafValues></_>
        <_>
          <internalNodes>
            0 -1 72 3.8922291249036789e-02</internalNodes>
          <leafValues>
            -1.5129032731056213e-01 3.8637390732765198e-01</leafValues></_>
        <_>
          <internalNodes>
            0 -1 96 -8.1145823001861572e-02</internalNodes>
          <leafValues>
            6.8339729309082031e-01 -1.0562980920076370e-01</leafValues></_>
        <_>
          <internalNodes>
            0 -1 356 -1.0933528840541840e-01</internalNodes>
          <leafValues>
            -8.1059020757675171e-01 6.6741518676280975e-02</leafValues></_>
        <_>
          <internalNodes>
            0 -1 87 2.2733620426151901e-04</internalNodes>
          <leafValues>
            1.5537889301776886e-01 -2.9263883829116821e-01</leafValues></_>
        <_>
          <internalNodes>
            0 -1 30 6.8093478679656982e-02</internalNodes>
          <leafValues>
            -7.2117730975151062e-02 6.3511615991592407e-01</leafValues></_>
        <_>
          <internalNodes>
            0 -1 17 -3.5342895984649658e-01</internalNodes>
          <leafValues>
            6.9738066196441650e-01 -6.2244284898042679e-02</leafValues></_>
        <_>
          <internalNodes>
            0 -1 420 -5.4973792284727097e-03</internalNodes>
          <leafValues>
            2.6129701733589172e-01 -2.5159069895744324e-01</leafValues></_>
        <_>
          <internalNodes>
            0 -1 159 -3.5171424970030785e-03</internalNodes>
          <leafValues>
            3.7103521823883057e-01 -2.0732039213180542e-01</leafValues></_>
        <_>
          <internalNodes>
            0 -1 339 1.6323127783834934e-03</internalNodes>
          <leafValues>
            7.1738712489604950e-02 -7.4463683366775513e-01</leafValues></_>
        <_>
          <internalNodes>
            0 -1 254 -6.3952023629099131e-04</internalNodes>
          <leafValues>
            3.2232680916786194e-01 -1.5335178375244141e-01</leafValues></_>
        <_>
          <internalNodes>
            0 -1 383 9.3356529250741005e-03</internalNodes>
          <leafValues>
            -1.2587366998195648e-01 3.3972012996673584e-01</leafValues></_>
        <_>
          <internalNodes>
            0 -1 326 9.3626603484153748e-04</internalNodes>
          <leafValues>
            -1.4599403738975525e-01 3.6736044287681580e-01</leafValues></_>
        <_>
          <internalNodes>
            0 -1 323 -5.0939008360728621e-04</internalNodes>
          <leafValues>
            -4.6217995882034302e-01 1.1520083993673325e-01</leafValues></_>
        <_>
          <internalNodes>
            0 -1 228 -5.0858609378337860e-02</internalNodes>
          <leafValues>
            -5.2256470918655396e-01 8.7888672947883606e-02</leafValues></_>
        <_>
          <internalNodes>
            0 -1 309 4.6725951135158539e-02</internalNodes>
          <leafValues>
            -2.2292748093605042e-01 2.1689327061176300e-01</leafValues></_>
        <_>
          <internalNodes>
            0 -1 332 -1.9782646559178829e-03</internalNodes>
          <leafValues>
            2.1596750617027283e-01 -2.7097994089126587e-01</leafValues></_>
        <_>
          <internalNodes>
            0 -1 203 -2.1633735741488636e-04</internalNodes>
          <leafValues>
            -2.6273104548454285e-01 2.0083189010620117e-01</leafValues></_>
        <_>
          <internalNodes>
            0 -1 259 2.0082555711269379e-03</internalNodes>
          <leafValues>
            -1.4448551833629608e-01 3.2444772124290466e-01</leafValues></_>
        <_>
          <internalNodes>
            0 -1 399 3.9878492243587971e-03</internalNodes>
          <leafValues>
            1.1731983721256256e-01 -3.9598223567008972e-01</leafValues></_>
        <_>
          <internalNodes>
            0 -1 366 -1.5524052083492279e-02</internalNodes>
          <leafValues>
            3.8592535257339478e-01 -1.3142548501491547e-01</leafValues></_>
        <_>
          <internalNodes>
            0 -1 363 7.0770638994872570e-03</internalNodes>
          <leafValues>
            -1.8036387860774994e-01 3.3094727993011475e-01</leafValues></_>
        <_>
          <internalNodes>
            0 -1 149 -2.9405909590423107e-03</internalNodes>
          <leafValues>
            4.0886676311492920e-01 -1.2313042581081390e-01</leafValues></_></weakClassifiers></_>
    <!-- stage 16 -->
    <_>
      <maxWeakCount>27</maxWeakCount>
      <stageThreshold>-7.4270176887512207e-01</stageThreshold>
      <weakClassifiers>
        <_>
          <internalNodes>
            0 -1 396 1.5936511754989624e-01</internalNodes>
          <leafValues>
            1.6620954871177673e-01 8.3228510618209839e-01</leafValues></_>
        <_>
          <internalNodes>
            0 -1 91 -2.5508573278784752e-02</internalNodes>
          <leafValues>
            3.3614590764045715e-01 -1.8086892366409302e-01</leafValues></_>
        <_>
          <internalNodes>
            0 -1 110 1.7903548479080200e-01</internalNodes>
          <leafValues>
            -6.1483453959226608e-02 7.8630584478378296e-01</leafValues></_>
        <_>
          <internalNodes>
            0 -1 393 -7.9127860954031348e-04</internalNodes>
          <leafValues>
            2.1217969059944153e-01 -2.5363841652870178e-01</leafValues></_>
        <_>
          <internalNodes>
            0 -1 418 -4.1963863186538219e-03</internalNodes>
          <leafValues>
            2.5744155049324036e-01 -2.7116903662681580e-01</leafValues></_>
        <_>
          <internalNodes>
            0 -1 346 -2.2970051504671574e-03</internalNodes>
          <leafValues>
            -5.8616518974304199e-01 1.4079323410987854e-01</leafValues></_>
        <_>
          <internalNodes>
            0 -1 92 -2.2527778148651123e-01</internalNodes>
          <leafValues>
            5.3814232349395752e-01 -1.0409275442361832e-01</leafValues></_>
        <_>
          <internalNodes>
            0 -1 158 -1.5993320848792791e-03</internalNodes>
          <leafValues>
            2.4051485955715179e-01 -2.7519547939300537e-01</leafValues></_>
        <_>
          <internalNodes>
            0 -1 214 -1.2336085092101712e-05</internalNodes>
          <leafValues>
            2.2024095058441162e-01 -2.4252083897590637e-01</leafValues></_>
        <_>
          <internalNodes>
            0 -1 375 1.2295711785554886e-03</internalNodes>
          <leafValues>
            -1.5202619135379791e-01 3.6782142519950867e-01</leafValues></_>
        <_>
          <internalNodes>
            0 -1 41 3.4025078639388084e-03</internalNodes>
          <leafValues>
            -1.3706785440444946e-01 4.0877681970596313e-01</leafValues></_>
        <_>
          <internalNodes>
            0 -1 97 -6.4082011580467224e-02</internalNodes>
          <leafValues>
            -8.3324301242828369e-01 6.5116249024868011e-02</leafValues></_>
        <_>
          <internalNodes>
            0 -1 184 7.9061544965952635e-04</internalNodes>
          <leafValues>
            8.0484427511692047e-02 -5.5432516336441040e-01</leafValues></_>
        <_>
          <internalNodes>
            0 -1 345 2.3738937452435493e-03</internalNodes>
          <leafValues>
            7.6555132865905762e-02 -5.7692247629165649e-01</leafValues></_>
        <_>
          <internalNodes>
            0 -1 48 3.3482614904642105e-02</internalNodes>
          <leafValues>
            -9.7443193197250366e-02 5.2604252099990845e-01</leafValues></_>
        <_>
          <internalNodes>
            0 -1 188 5.9010222554206848e-02</internalNodes>
          <leafValues>
            -4.3111432343721390e-02 9.0756887197494507e-01</leafValues></_>
        <_>
          <internalNodes>
            0 -1 381 -1.1710867511283141e-05</internalNodes>
          <leafValues>
            2.7205520868301392e-01 -2.0223951339721680e-01</leafValues></_>
        <_>
          <internalNodes>
            0 -1 23 -1.3054108247160912e-02</internalNodes>
          <leafValues>
            -6.6863399744033813e-01 6.4845979213714600e-02</leafValues></_>
        <_>
          <internalNodes>
            0 -1 5 1.5670011052861810e-03</internalNodes>
          <leafValues>
            1.8881572782993317e-01 -2.8337377309799194e-01</leafValues></_>
        <_>
          <internalNodes>
            0 -1 40 3.6729335784912109e-02</internalNodes>
          <leafValues>
            8.0492898821830750e-02 -6.8254327774047852e-01</leafValues></_>
        <_>
          <internalNodes>
            0 -1 112 -3.7849988788366318e-02</internalNodes>
          <leafValues>
            4.0235587954521179e-01 -1.2778644263744354e-01</leafValues></_>
        <_>
          <internalNodes>
            0 -1 179 -2.2178500890731812e-02</internalNodes>
          <leafValues>
            -8.5988730192184448e-01 6.1770468950271606e-02</leafValues></_>
        <_>
          <internalNodes>
            0 -1 153 9.0132907032966614e-02</internalNodes>
          <leafValues>
            3.8720507174730301e-02 -8.7418508529663086e-01</leafValues></_>
        <_>
          <internalNodes>
            0 -1 130 2.7828579768538475e-03</internalNodes>
          <leafValues>
            -1.5886223316192627e-01 3.4295597672462463e-01</leafValues></_>
        <_>
          <internalNodes>
            0 -1 317 3.7376925349235535e-02</internalNodes>
          <leafValues>
            -7.6879225671291351e-02 5.6523078680038452e-01</leafValues></_>
        <_>
          <internalNodes>
            0 -1 289 -1.6190562746487558e-04</internalNodes>
          <leafValues>
            -3.4451186656951904e-01 1.5607172250747681e-01</leafValues></_>
        <_>
          <internalNodes>
            0 -1 376 2.2008679807186127e-03</internalNodes>
          <leafValues>
            -1.4195826649665833e-01 3.5414749383926392e-01</leafValues></_></weakClassifiers></_>
    <!-- stage 17 -->
    <_>
      <maxWeakCount>32</maxWeakCount>
      <stageThreshold>-7.3940008878707886e-01</stageThreshold>
      <weakClassifiers>
        <_>
          <internalNodes>
            0 -1 58 -4.5038020610809326e-01</internalNodes>
          <leafValues>
            8.3510637283325195e-01 2.0062370598316193e-01</leafValues></_>
        <_>
          <internalNodes>
            0 -1 395 1.2293560430407524e-03</internalNodes>
          <leafValues>
            1.6662895679473877e-01 -3.2471907138824463e-01</leafValues></_>
        <_>
          <internalNodes>
            0 -1 118 1.1305932700634003e-01</internalNodes>
          <leafValues>
            -8.5736684501171112e-02 5.2376228570938110e-01</leafValues></_>
        <_>
          <internalNodes>
            0 -1 350 2.8438115259632468e-04</internalNodes>
          <leafValues>
            1.4405933022499084e-01 -3.5204395651817322e-01</leafValues></_>
        <_>
          <internalNodes>
            0 -1 242 5.6796561693772674e-04</internalNodes>
          <leafValues>
            -1.9500692188739777e-01 2.8681141138076782e-01</leafValues></_>
        <_>
          <internalNodes>
            0 -1 66 -2.3129475302994251e-03</internalNodes>
          <leafValues>
            1.5982668101787567e-01 -4.2016723752021790e-01</leafValues></_>
        <_>
          <internalNodes>
            0 -1 288 -2.7656956808641553e-04</internalNodes>
          <leafValues>
            -3.7911623716354370e-01 1.1705339699983597e-01</leafValues></_>
        <_>
          <internalNodes>
            0 -1 199 1.6668871976435184e-03</internalNodes>
          <leafValues>
            -1.7178373038768768e-01 3.0217444896697998e-01</leafValues></_>
        <_>
          <internalNodes>
            0 -1 374 6.8855151534080505e-02</internalNodes>
          <leafValues>
            -7.5389273464679718e-02 5.3797274827957153e-01</leafValues></_>
        <_>
          <internalNodes>
            0 -1 404 -2.9897335916757584e-02</internalNodes>
          <leafValues>
            4.9492099881172180e-01 -1.0702712833881378e-01</leafValues></_>
        <_>
          <internalNodes>
            0 -1 270 -6.3757919706404209e-03</internalNodes>
          <leafValues>
            -6.7982912063598633e-01 7.6576121151447296e-02</leafValues></_>
        <_>
          <internalNodes>
            0 -1 236 4.0942309424281120e-03</internalNodes>
          <leafValues>
            6.5292328596115112e-02 -6.8460369110107422e-01</leafValues></_>
        <_>
          <internalNodes>
            0 -1 132 6.1631738208234310e-03</internalNodes>
          <leafValues>
            -9.3156658113002777e-02 6.6419279575347900e-01</leafValues></_>
        <_>
          <internalNodes>
            0 -1 106 -1.3639315729960799e-03</internalNodes>
          <leafValues>
            3.2930225133895874e-01 -1.3042211532592773e-01</leafValues></_>
        <_>
          <internalNodes>
            0 -1 161 -2.2138681262731552e-02</internalNodes>
          <leafValues>
            3.0406489968299866e-01 -1.6988684237003326e-01</leafValues></_>
        <_>
          <internalNodes>
            0 -1 46 2.1820884197950363e-02</internalNodes>
          <leafValues>
            -1.7832905054092407e-01 3.6467871069908142e-01</leafValues></_>
        <_>
          <internalNodes>
            0 -1 247 -7.3947070632129908e-04</internalNodes>
          <leafValues>
            -4.4898292422294617e-01 1.1138495802879333e-01</leafValues></_>
        <_>
          <internalNodes>
            0 -1 292 1.2329936027526855e-02</internalNodes>
          <leafValues>
            -1.4148361980915070e-01 3.1127476692199707e-01</leafValues></_>
        <_>
          <internalNodes>
            0 -1 275 -4.6246787533164024e-03</internalNodes>
          <leafValues>
            2.5341421365737915e-01 -1.9233688712120056e-01</leafValues></_>
        <_>
          <internalNodes>
            0 -1 415 1.7946285661309958e-03</internalNodes>
          <leafValues>
            1.2822318077087402e-01 -3.7264963984489441e-01</leafValues></_>
        <_>
          <internalNodes>
            0 -1 151 -5.0504305399954319e-03</internalNodes>
          <leafValues>
            6.0391074419021606e-01 -7.8424312174320221e-02</leafValues></_>
        <_>
          <internalNodes>
            0 -1 387 1.2014394160360098e-03</internalNodes>
          <leafValues>
            -1.2537947297096252e-01 3.4256237745285034e-01</leafValues></_>
        <_>
          <internalNodes>
            0 -1 368 -8.9253479382023215e-04</internalNodes>
          <leafValues>
            -2.9993405938148499e-01 1.6422377526760101e-01</leafValues></_>
        <_>
          <internalNodes>
            0 -1 125 -1.8772222101688385e-01</internalNodes>
          <leafValues>
            -7.0438784360885620e-01 6.3966467976570129e-02</leafValues></_>
        <_>
          <internalNodes>
            0 -1 128 2.4155627470463514e-03</internalNodes>
          <leafValues>
            -1.3826015591621399e-01 3.4681397676467896e-01</leafValues></_>
        <_>
          <internalNodes>
            0 -1 19 -4.0381407737731934e-01</internalNodes>
          <leafValues>
            9.7786116600036621e-01 -4.3214794248342514e-02</leafValues></_>
        <_>
          <internalNodes>
            0 -1 62 -9.9672302603721619e-03</internalNodes>
          <leafValues>
            -7.6700359582901001e-01 7.0158571004867554e-02</leafValues></_>
        <_>
          <internalNodes>
            0 -1 348 1.1383669916540384e-03</internalNodes>
          <leafValues>
            -1.7086151242256165e-01 2.6405686140060425e-01</leafValues></_>
        <_>
          <internalNodes>
            0 -1 52 7.0712804794311523e-02</internalNodes>
          <leafValues>
            -6.9907911121845245e-02 7.2889631986618042e-01</leafValues></_>
        <_>
          <internalNodes>
            0 -1 336 -4.1902535594999790e-03</internalNodes>
          <leafValues>
            -4.5796144008636475e-01 1.3276170194149017e-01</leafValues></_>
        <_>
          <internalNodes>
            0 -1 389 -1.4185884036123753e-02</internalNodes>
          <leafValues>
            -7.4369984865188599e-01 6.1046611517667770e-02</leafValues></_>
        <_>
          <internalNodes>
            0 -1 205 4.0571147110313177e-05</internalNodes>
          <leafValues>
            -1.5068186819553375e-01 3.1448042392730713e-01</leafValues></_></weakClassifiers></_>
    <!-- stage 18 -->
    <_>
      <maxWeakCount>33</maxWeakCount>
      <stageThreshold>-7.9127621650695801e-01</stageThreshold>
      <weakClassifiers>
        <_>
          <internalNodes>
            0 -1 171 -2.2449817508459091e-02</internalNodes>
          <leafValues>
            4.9662920832633972e-01 3.8341969251632690e-02</leafValues></_>
        <_>
          <internalNodes>
            0 -1 35 -9.3967926502227783e-01</internalNodes>
          <leafValues>
            7.6557832956314087e-01 -5.5886171758174896e-02</leafValues></_>
        <_>
          <internalNodes>
            0 -1 295 -6.6944949328899384e-02</internalNodes>
          <leafValues>
            -8.2103222608566284e-01 4.6268403530120850e-02</leafValues></_>
        <_>
          <internalNodes>
            0 -1 124 -9.4775836914777756e-03</internalNodes>
          <leafValues>
            2.3997440934181213e-01 -1.8761436641216278e-01</leafValues></_>
        <_>
          <internalNodes>
            0 -1 190 -3.5574531648308039e-04</internalNodes>
          <leafValues>
            2.3990881443023682e-01 -2.0954094827175140e-01</leafValues></_>
        <_>
          <internalNodes>
            0 -1 67 1.0030257981270552e-03</internalNodes>
          <leafValues>
            -2.3097717761993408e-01 2.1474419534206390e-01</leafValues></_>
        <_>
          <internalNodes>
            0 -1 405 -2.5880470871925354e-02</internalNodes>
          <leafValues>
            2.7104130387306213e-01 -2.0084333419799805e-01</leafValues></_>
        <_>
          <internalNodes>
            0 -1 77 -1.5102803707122803e-02</internalNodes>
          <leafValues>
            3.0542325973510742e-01 -2.2628647089004517e-01</leafValues></_>
        <_>
          <internalNodes>
            0 -1 233 9.7364690154790878e-03</internalNodes>
          <leafValues>
            6.7275099456310272e-02 -8.4104460477828979e-01</leafValues></_>
        <_>
          <internalNodes>
            0 -1 253 2.7394404169172049e-03</internalNodes>
          <leafValues>
            -1.1098947376012802e-01 4.7496753931045532e-01</leafValues></_>
        <_>
          <internalNodes>
            0 -1 157 9.5011681318283081e-02</internalNodes>
          <leafValues>
            -6.8762645125389099e-02 5.9325253963470459e-01</leafValues></_>
        <_>
          <internalNodes>
            0 -1 227 -2.0699065178632736e-02</internalNodes>
          <leafValues>
            -6.5370720624923706e-01 6.9363504648208618e-02</leafValues></_>
        <_>
          <internalNodes>
            0 -1 191 5.4187509231269360e-03</internalNodes>
          <leafValues>
            -1.0547832399606705e-01 4.1386467218399048e-01</leafValues></_>
        <_>
          <internalNodes>
            0 -1 39 1.5847299247980118e-02</internalNodes>
          <leafValues>
            -9.1711804270744324e-02 4.9547624588012695e-01</leafValues></_>
        <_>
          <internalNodes>
            0 -1 359 2.0957186818122864e-02</internalNodes>
          <leafValues>
            8.0271005630493164e-02 -7.9401308298110962e-01</leafValues></_>
        <_>
          <internalNodes>
            0 -1 107 -1.8666251562535763e-03</internalNodes>
          <leafValues>
            3.6164411902427673e-01 -1.3646975159645081e-01</leafValues></_>
        <_>
          <internalNodes>
            0 -1 313 1.3997007627040148e-03</internalNodes>
          <leafValues>
            7.3174707591533661e-02 -6.9232690334320068e-01</leafValues></_>
        <_>
          <internalNodes>
            0 -1 261 -2.0701479166746140e-02</internalNodes>
          <leafValues>
            4.3821346759796143e-01 -1.0154709219932556e-01</leafValues></_>
        <_>
          <internalNodes>
            0 -1 293 1.8639467656612396e-02</internalNodes>
          <leafValues>
            -1.1873793601989746e-01 4.3238544464111328e-01</leafValues></_>
        <_>
          <internalNodes>
            0 -1 327 -3.7863999605178833e-02</internalNodes>
          <leafValues>
            -8.9921647310256958e-01 5.3601667284965515e-02</leafValues></_>
        <_>
          <internalNodes>
            0 -1 68 -3.9784773252904415e-03</internalNodes>
          <leafValues>
            1.6249908506870270e-01 -2.5867128372192383e-01</leafValues></_>
        <_>
          <internalNodes>
            0 -1 163 2.2680172696709633e-02</internalNodes>
          <leafValues>
            -9.3533948063850403e-02 5.9592616558074951e-01</leafValues></_>
        <_>
          <internalNodes>
            0 -1 284 -2.2654284839518368e-04</internalNodes>
          <leafValues>
            -3.2807558774948120e-01 1.4636009931564331e-01</leafValues></_>
        <_>
          <internalNodes>
            0 -1 101 2.1967798471450806e-02</internalNodes>
          <leafValues>
            4.6569507569074631e-02 -8.0067050457000732e-01</leafValues></_>
        <_>
          <internalNodes>
            0 -1 230 -3.6217025481164455e-03</internalNodes>
          <leafValues>
            2.8267216682434082e-01 -1.4899407327175140e-01</leafValues></_>
        <_>
          <internalNodes>
            0 -1 234 1.1580669088289142e-03</internalNodes>
          <leafValues>
            -1.7308411002159119e-01 2.9494586586952209e-01</leafValues></_>
        <_>
          <internalNodes>
            0 -1 143 -1.3734982348978519e-04</internalNodes>
          <leafValues>
            -2.2803343832492828e-01 2.1257680654525757e-01</leafValues></_>
        <_>
          <internalNodes>
            0 -1 341 6.2259542755782604e-04</internalNodes>
          <leafValues>
            -1.7118290066719055e-01 2.7903142571449280e-01</leafValues></_>
        <_>
          <internalNodes>
            0 -1 175 -1.7353311181068420e-02</internalNodes>
          <leafValues>
            -8.0364042520523071e-01 5.4822601377964020e-02</leafValues></_>
        <_>
          <internalNodes>
            0 -1 70 2.6952601037919521e-03</internalNodes>
          <leafValues>
            7.2166122496128082e-02 -5.0490772724151611e-01</leafValues></_>
        <_>
          <internalNodes>
            0 -1 349 -1.7581562860868871e-04</internalNodes>
          <leafValues>
            -2.7712750434875488e-01 1.4121261239051819e-01</leafValues></_>
        <_>
          <internalNodes>
            0 -1 213 7.1503251791000366e-02</internalNodes>
          <leafValues>
            -6.1380401253700256e-02 7.9481428861618042e-01</leafValues></_>
        <_>
          <internalNodes>
            0 -1 225 -6.9910697638988495e-03</internalNodes>
          <leafValues>
            1.6500870883464813e-01 -2.4375034868717194e-01</leafValues></_></weakClassifiers></_>
    <!-- stage 19 -->
    <_>
      <maxWeakCount>33</maxWeakCount>
      <stageThreshold>-8.1160312891006470e-01</stageThreshold>
      <weakClassifiers>
        <_>
          <internalNodes>
            0 -1 117 -1.5160492062568665e-01</internalNodes>
          <leafValues>
            6.8566495180130005e-01 1.7606042325496674e-01</leafValues></_>
        <_>
          <internalNodes>
            0 -1 411 -8.5797760402783751e-04</internalNodes>
          <leafValues>
            2.2210240364074707e-01 -3.1099757552146912e-01</leafValues></_>
        <_>
          <internalNodes>
            0 -1 294 -2.8090993873775005e-03</internalNodes>
          <leafValues>
            -5.2901113033294678e-01 1.0167227685451508e-01</leafValues></_>
        <_>
          <internalNodes>
            0 -1 325 8.6008394137024879e-03</internalNodes>
          <leafValues>
            -9.9463090300559998e-02 4.6384713053703308e-01</leafValues></_>
        <_>
          <internalNodes>
            0 -1 193 2.2248588502407074e-02</internalNodes>
          <leafValues>
            5.1338091492652893e-02 -6.1218410730361938e-01</leafValues></_>
        <_>
          <internalNodes>
            0 -1 357 9.5068197697401047e-03</internalNodes>
          <leafValues>
            -2.1152530610561371e-01 2.2160898149013519e-01</leafValues></_>
        <_>
          <internalNodes>
            0 -1 380 -2.2139550128486007e-04</internalNodes>
          <leafValues>
            -2.9973855614662170e-01 1.4371281862258911e-01</leafValues></_>
        <_>
          <internalNodes>
            0 -1 140 2.9384206980466843e-02</internalNodes>
          <leafValues>
            -1.0418280959129333e-01 4.3965259194374084e-01</leafValues></_>
        <_>
          <internalNodes>
            0 -1 162 4.2921648127958179e-04</internalNodes>
          <leafValues>
            1.7609466612339020e-01 -2.6971921324729919e-01</leafValues></_>
        <_>
          <internalNodes>
            0 -1 347 4.6549150720238686e-03</internalNodes>
          <leafValues>
            -1.1378284543752670e-01 3.4974044561386108e-01</leafValues></_>
        <_>
          <internalNodes>
            0 -1 394 -8.2255655433982611e-04</internalNodes>
          <leafValues>
            2.7053830027580261e-01 -2.0867997407913208e-01</leafValues></_>
        <_>
          <internalNodes>
            0 -1 71 2.2364532575011253e-02</internalNodes>
          <leafValues>
            -7.8858293592929840e-02 5.7663923501968384e-01</leafValues></_>
        <_>
          <internalNodes>
            0 -1 90 -1.1177739128470421e-02</internalNodes>
          <leafValues>
            2.3508748412132263e-01 -2.3334902524948120e-01</leafValues></_>
        <_>
          <internalNodes>
            0 -1 424 -1.2305480428040028e-02</internalNodes>
          <leafValues>
            3.6921489238739014e-01 -1.2625478208065033e-01</leafValues></_>
        <_>
          <internalNodes>
            0 -1 69 -8.1612495705485344e-03</internalNodes>
          <leafValues>
            4.2403748631477356e-01 -1.0698669403791428e-01</leafValues></_>
        <_>
          <internalNodes>
            0 -1 15 9.0531434398144484e-04</internalNodes>
          <leafValues>
            1.6267196834087372e-01 -2.9905539751052856e-01</leafValues></_>
        <_>
          <internalNodes>
            0 -1 43 1.6228640452027321e-02</internalNodes>
          <leafValues>
            -1.9835771620273590e-01 2.4294455349445343e-01</leafValues></_>
        <_>
          <internalNodes>
            0 -1 99 2.6547893881797791e-02</internalNodes>
          <leafValues>
            -8.4306709468364716e-02 6.1629498004913330e-01</leafValues></_>
        <_>
          <internalNodes>
            0 -1 281 -2.3038594517856836e-03</internalNodes>
          <leafValues>
            -4.4490426778793335e-01 1.2656803429126740e-01</leafValues></_>
        <_>
          <internalNodes>
            0 -1 314 -7.9907200415618718e-05</internalNodes>
          <leafValues>
            1.3325692713260651e-01 -3.1604319810867310e-01</leafValues></_>
        <_>
          <internalNodes>
            0 -1 79 -4.0623301174491644e-04</internalNodes>
          <leafValues>
            -2.7737581729888916e-01 1.5372636914253235e-01</leafValues></_>
        <_>
          <internalNodes>
            0 -1 102 -6.7137060686945915e-03</internalNodes>
          <leafValues>
            6.5693491697311401e-01 -6.7610584199428558e-02</leafValues></_>
        <_>
          <internalNodes>
            0 -1 258 -1.1688935756683350e-01</internalNodes>
          <leafValues>
            -7.0242112874984741e-01 6.7898213863372803e-02</leafValues></_>
        <_>
          <internalNodes>
            0 -1 103 -5.3269730415195227e-04</internalNodes>
          <leafValues>
            1.9843584299087524e-01 -2.2622711956501007e-01</leafValues></_>
        <_>
          <internalNodes>
            0 -1 120 2.3177247494459152e-02</internalNodes>
          <leafValues>
            -1.2799987196922302e-01 3.5253116488456726e-01</leafValues></_>
        <_>
          <internalNodes>
            0 -1 207 7.8494459390640259e-02</internalNodes>
          <leafValues>
            -6.0019757598638535e-02 7.7337670326232910e-01</leafValues></_>
        <_>
          <internalNodes>
            0 -1 250 6.9752719718962908e-04</internalNodes>
          <leafValues>
            9.3629062175750732e-02 -5.8251345157623291e-01</leafValues></_>
        <_>
          <internalNodes>
            0 -1 425 6.2194594647735357e-04</internalNodes>
          <leafValues>
            -1.3425657153129578e-01 3.7131240963935852e-01</leafValues></_>
        <_>
          <internalNodes>
            0 -1 246 -1.4414039906114340e-03</internalNodes>
          <leafValues>
            4.3437740206718445e-01 -1.1718770861625671e-01</leafValues></_>
        <_>
          <internalNodes>
            0 -1 370 -1.9564559624996036e-04</internalNodes>
          <leafValues>
            -3.0601257085800171e-01 1.5182249248027802e-01</leafValues></_>
        <_>
          <internalNodes>
            0 -1 386 -1.3991411833558232e-05</internalNodes>
          <leafValues>
            2.3183776438236237e-01 -1.9799990952014923e-01</leafValues></_>
        <_>
          <internalNodes>
            0 -1 280 1.1484305141493678e-03</internalNodes>
          <leafValues>
            6.0989011079072952e-02 -8.2155823707580566e-01</leafValues></_>
        <_>
          <internalNodes>
            0 -1 100 -3.3042081631720066e-03</internalNodes>
          <leafValues>
            3.2945770025253296e-01 -1.3636702299118042e-01</leafValues></_></weakClassifiers></_></stages>
  <features>
    <_>
      <rects>
        <_>
          0 0 15 11 -1.</_>
        <_>
          5 0 5 11 3.</_></rects>
      <tilted>0</tilted></_>
    <_>
      <rects>
        <_>
          0 0 24 25 -1.</_>
        <_>
          12 0 12 25 2.</_></rects>
      <tilted>0</tilted></_>
    <_>
      <rects>
        <_>
          0 1 6 19 -1.</_>
        <_>
          3 1 3 19 2.</_></rects>
      <tilted>0</tilted></_>
    <_>
      <rects>
        <_>
          0 1 16 18 -1.</_>
        <_>
          4 1 8 18 2.</_></rects>
      <tilted>0</tilted></_>
    <_>
      <rects>
        <_>
          0 1 20 3 -1.</_>
        <_>
          10 1 10 3 2.</_></rects>
      <tilted>0</tilted></_>
    <_>
      <rects>
        <_>
          0 2 4 12 -1.</_>
        <_>
          0 2 2 6 2.</_>
        <_>
          2 8 2 6 2.</_></rects>
      <tilted>0</tilted></_>
    <_>
      <rects>
        <_>
          0 2 12 16 -1.</_>
        <_>
          3 2 6 16 2.</_></rects>
      <tilted>0</tilted></_>
    <_>
      <rects>
        <_>
          0 2 12 19 -1.</_>
        <_>
          3 2 6 19 2.</_></rects>
      <tilted>0</tilted></_>
    <_>
      <rects>
        <_>
          0 2 16 11 -1.</_>
        <_>
          4 2 8 11 2.</_></rects>
      <tilted>0</tilted></_>
    <_>
      <rects>
        <_>
          0 2 20 22 -1.</_>
        <_>
          5 2 10 22 2.</_></rects>
      <tilted>0</tilted></_>
    <_>
      <rects>
        <_>
          0 2 24 23 -1.</_>
        <_>
          6 2 12 23 2.</_></rects>
      <tilted>0</tilted></_>
    <_>
      <rects>
        <_>
          0 2 16 22 -1.</_>
        <_>
          8 2 8 22 2.</_></rects>
      <tilted>0</tilted></_>
    <_>
      <rects>
        <_>
          0 2 18 2 -1.</_>
        <_>
          9 2 9 2 2.</_></rects>
      <tilted>0</tilted></_>
    <_>
      <rects>
        <_>
          0 2 20 1 -1.</_>
        <_>
          10 2 10 1 2.</_></rects>
      <tilted>0</tilted></_>
    <_>
      <rects>
        <_>
          0 4 12 16 -1.</_>
        <_>
          3 4 6 16 2.</_></rects>
      <tilted>0</tilted></_>
    <_>
      <rects>
        <_>
          0 5 2 8 -1.</_>
        <_>
          1 5 1 8 2.</_></rects>
      <tilted>0</tilted></_>
    <_>
      <rects>
        <_>
          0 5 24 14 -1.</_>
        <_>
          8 5 8 14 3.</_></rects>
      <tilted>0</tilted></_>
    <_>
      <rects>
        <_>
          0 6 21 11 -1.</_>
        <_>
          7 6 7 11 3.</_></rects>
      <tilted>0</tilted></_>
    <_>
      <rects>
        <_>
          0 7 2 16 -1.</_>
        <_>
          1 7 1 16 2.</_></rects>
      <tilted>0</tilted></_>
    <_>
      <rects>
        <_>
          0 7 21 10 -1.</_>
        <_>
          7 7 7 10 3.</_></rects>
      <tilted>0</tilted></_>
    <_>
      <rects>
        <_>
          0 10 16 11 -1.</_>
        <_>
          4 10 8 11 2.</_></rects>
      <tilted>0</tilted></_>
    <_>
      <rects>
        <_>
          0 11 18 9 -1.</_>
        <_>
          6 11 6 9 3.</_></rects>
      <tilted>0</tilted></_>
    <_>
      <rects>
        <_>
          0 12 24 12 -1.</_>
        <_>
          6 12 12 12 2.</_></rects>
      <tilted>0</tilted></_>
    <_>
      <rects>
        <_>
          0 13 1 12 -1.</_>
        <_>
          0 19 1 6 2.</_></rects>
      <tilted>0</tilted></_>
    <_>
      <rects>
        <_>
          0 13 14 12 -1.</_>
        <_>
          0 19 14 6 2.</_></rects>
      <tilted>0</tilted></_>
    <_>
      <rects>
        <_>
          0 14 24 10 -1.</_>
        <_>
          6 14 12 10 2.</_></rects>
      <tilted>0</tilted></_>
    <_>
      <rects>
        <_>
          0 18 9 2 -1.</_>
        <_>
          3 18 3 2 3.</_></rects>
      <tilted>0</tilted></_>
    <_>
      <rects>
        <_>
          0 18 24 2 -1.</_>
        <_>
          12 18 12 2 2.</_></rects>
      <tilted>0</tilted></_>
    <_>
      <rects>
        <_>
          0 21 12 3 -1.</_>
        <_>
          4 22 4 1 9.</_></rects>
      <tilted>0</tilted></_>
    <_>
      <rects>
        <_>
          1 0 24 25 -1.</_>
        <_>
          13 0 12 25 2.</_></rects>
      <tilted>0</tilted></_>
    <_>
      <rects>
        <_>
          1 1 4 24 -1.</_>
        <_>
          3 1 2 24 2.</_></rects>
      <tilted>0</tilted></_>
    <_>
      <rects>
        <_>
          1 3 6 12 -1.</_>
        <_>
          3 7 2 4 9.</_></rects>
      <tilted>0</tilted></_>
    <_>
      <rects>
        <_>
          1 4 6 9 -1.</_>
        <_>
          3 4 2 9 3.</_></rects>
      <tilted>0</tilted></_>
    <_>
      <rects>
        <_>
          1 4 12 9 -1.</_>
        <_>
          7 4 6 9 2.</_></rects>
      <tilted>0</tilted></_>
    <_>
      <rects>
        <_>
          1 4 24 19 -1.</_>
        <_>
          9 4 8 19 3.</_></rects>
      <tilted>0</tilted></_>
    <_>
      <rects>
        <_>
          1 7 24 18 -1.</_>
        <_>
          9 13 8 6 9.</_></rects>
      <tilted>0</tilted></_>
    <_>
      <rects>
        <_>
          1 8 9 1 -1.</_>
        <_>
          4 11 3 1 3.</_></rects>
      <tilted>1</tilted></_>
    <_>
      <rects>
        <_>
          1 9 8 1 -1.</_>
        <_>
          1 9 4 1 2.</_></rects>
      <tilted>1</tilted></_>
    <_>
      <rects>
        <_>
          1 11 10 4 -1.</_>
        <_>
          1 13 10 2 2.</_></rects>
      <tilted>0</tilted></_>
    <_>
      <rects>
        <_>
          1 12 8 1 -1.</_>
        <_>
          1 12 4 1 2.</_></rects>
      <tilted>1</tilted></_>
    <_>
      <rects>
        <_>
          1 13 6 12 -1.</_>
        <_>
          1 19 6 6 2.</_></rects>
      <tilted>0</tilted></_>
    <_>
      <rects>
        <_>
          1 13 7 3 -1.</_>
        <_>
          1 14 7 1 3.</_></rects>
      <tilted>0</tilted></_>
    <_>
      <rects>
        <_>
          1 14 15 10 -1.</_>
        <_>
          1 19 15 5 2.</_></rects>
      <tilted>0</tilted></_>
    <_>
      <rects>
        <_>
          1 16 9 6 -1.</_>
        <_>
          4 16 3 6 3.</_></rects>
      <tilted>0</tilted></_>
    <_>
      <rects>
        <_>
          1 17 24 6 -1.</_>
        <_>
          13 17 12 6 2.</_></rects>
      <tilted>0</tilted></_>
    <_>
      <rects>
        <_>
          1 18 9 3 -1.</_>
        <_>
          4 18 3 3 3.</_></rects>
      <tilted>0</tilted></_>
    <_>
      <rects>
        <_>
          1 19 17 6 -1.</_>
        <_>
          1 21 17 2 3.</_></rects>
      <tilted>0</tilted></_>
    <_>
      <rects>
        <_>
          1 20 22 4 -1.</_>
        <_>
          1 21 22 2 2.</_></rects>
      <tilted>0</tilted></_>
    <_>
      <rects>
        <_>
          2 0 2 12 -1.</_>
        <_>
          2 6 2 6 2.</_></rects>
      <tilted>0</tilted></_>
    <_>
      <rects>
        <_>
          2 0 12 2 -1.</_>
        <_>
          5 3 6 2 2.</_></rects>
      <tilted>1</tilted></_>
    <_>
      <rects>
        <_>
          2 0 16 25 -1.</_>
        <_>
          6 0 8 25 2.</_></rects>
      <tilted>0</tilted></_>
    <_>
      <rects>
        <_>
          2 2 21 19 -1.</_>
        <_>
          9 2 7 19 3.</_></rects>
      <tilted>0</tilted></_>
    <_>
      <rects>
        <_>
          2 3 20 2 -1.</_>
        <_>
          7 8 10 2 2.</_></rects>
      <tilted>1</tilted></_>
    <_>
      <rects>
        <_>
          2 3 20 17 -1.</_>
        <_>
          7 3 10 17 2.</_></rects>
      <tilted>0</tilted></_>
    <_>
      <rects>
        <_>
          2 5 12 4 -1.</_>
        <_>
          6 5 4 4 3.</_></rects>
      <tilted>0</tilted></_>
    <_>
      <rects>
        <_>
          2 5 12 12 -1.</_>
        <_>
          8 5 6 12 2.</_></rects>
      <tilted>0</tilted></_>
    <_>
      <rects>
        <_>
          2 5 14 3 -1.</_>
        <_>
          9 5 7 3 2.</_></rects>
      <tilted>0</tilted></_>
    <_>
      <rects>
        <_>
          2 6 21 11 -1.</_>
        <_>
          9 6 7 11 3.</_></rects>
      <tilted>0</tilted></_>
    <_>
      <rects>
        <_>
          2 6 21 13 -1.</_>
        <_>
          9 6 7 13 3.</_></rects>
      <tilted>0</tilted></_>
    <_>
      <rects>
        <_>
          2 8 6 9 -1.</_>
        <_>
          4 11 2 3 9.</_></rects>
      <tilted>0</tilted></_>
    <_>
      <rects>
        <_>
          2 10 18 15 -1.</_>
        <_>
          8 10 6 15 3.</_></rects>
      <tilted>0</tilted></_>
    <_>
      <rects>
        <_>
          2 11 12 10 -1.</_>
        <_>
          8 11 6 10 2.</_></rects>
      <tilted>0</tilted></_>
    <_>
      <rects>
        <_>
          2 13 1 12 -1.</_>
        <_>
          2 16 1 6 2.</_></rects>
      <tilted>0</tilted></_>
    <_>
      <rects>
        <_>
          2 16 15 5 -1.</_>
        <_>
          7 16 5 5 3.</_></rects>
      <tilted>0</tilted></_>
    <_>
      <rects>
        <_>
          2 17 15 8 -1.</_>
        <_>
          7 17 5 8 3.</_></rects>
      <tilted>0</tilted></_>
    <_>
      <rects>
        <_>
          2 18 15 1 -1.</_>
        <_>
          7 18 5 1 3.</_></rects>
      <tilted>0</tilted></_>
    <_>
      <rects>
        <_>
          2 18 18 2 -1.</_>
        <_>
          11 18 9 2 2.</_></rects>
      <tilted>0</tilted></_>
    <_>
      <rects>
        <_>
          2 19 8 1 -1.</_>
        <_>
          4 19 4 1 2.</_></rects>
      <tilted>0</tilted></_>
    <_>
      <rects>
        <_>
          2 20 12 1 -1.</_>
        <_>
          8 20 6 1 2.</_></rects>
      <tilted>0</tilted></_>
    <_>
      <rects>
        <_>
          2 21 7 4 -1.</_>
        <_>
          2 22 7 2 2.</_></rects>
      <tilted>0</tilted></_>
    <_>
      <rects>
        <_>
          3 0 2 5 -1.</_>
        <_>
          4 0 1 5 2.</_></rects>
      <tilted>0</tilted></_>
    <_>
      <rects>
        <_>
          3 0 1 20 -1.</_>
        <_>
          3 5 1 10 2.</_></rects>
      <tilted>0</tilted></_>
    <_>
      <rects>
        <_>
          3 0 12 13 -1.</_>
        <_>
          6 0 6 13 2.</_></rects>
      <tilted>0</tilted></_>
    <_>
      <rects>
        <_>
          3 0 21 2 -1.</_>
        <_>
          3 1 21 1 2.</_></rects>
      <tilted>0</tilted></_>
    <_>
      <rects>
        <_>
          3 1 1 16 -1.</_>
        <_>
          3 5 1 8 2.</_></rects>
      <tilted>0</tilted></_>
    <_>
      <rects>
        <_>
          3 1 2 5 -1.</_>
        <_>
          4 1 1 5 2.</_></rects>
      <tilted>0</tilted></_>
    <_>
      <rects>
        <_>
          3 1 15 24 -1.</_>
        <_>
          8 9 5 8 9.</_></rects>
      <tilted>0</tilted></_>
    <_>
      <rects>
        <_>
          3 3 16 3 -1.</_>
        <_>
          7 3 8 3 2.</_></rects>
      <tilted>0</tilted></_>
    <_>
      <rects>
        <_>
          3 3 20 20 -1.</_>
        <_>
          3 13 20 10 2.</_></rects>
