<?xml version="1.0"?>
<opencv_storage>
<cascade>
  <stageType>BOOST</stageType>
  <featureType>HAAR</featureType>
  <height>25</height>
  <width>25</width>
  <stageParams>
    <boostType>GAB</boostType>
    <minHitRate>9.9500000476837158e-01</minHitRate>
    <maxFalseAlarm>5.0000000000000000e-01</maxFalseAlarm>
    <weightTrimRate>9.4999999999999996e-01</weightTrimRate>
    <maxDepth>1</maxDepth>
    <maxWeakCount>100</maxWeakCount></stageParams>
  <featureParams>
    <maxCatCount>0</maxCatCount>
    <featSize>1</featSize>
    <mode>ALL</mode></featureParams>
  <stageNum>24</stageNum>
  <stages>
    <!-- stage 0 -->
    <_>
      <maxWeakCount>7</maxWeakCount>
      <stageThreshold>-1.3026646375656128e+00</stageThreshold>
      <weakClassifiers>
        <_>
          <internalNodes>
            0 -1 217 -4.5858912169933319e-02</internalNodes>
          <leafValues>
            5.1931327581405640e-01 -5.6613755226135254e-01</leafValues></_>
        <_>
          <internalNodes>
            0 -1 276 3.6734123714268208e-03</internalNodes>
          <leafValues>
            2.2050340473651886e-01 -7.9453796148300171e-01</leafValues></_>
        <_>
          <internalNodes>
            0 -1 120 -7.1796059608459473e-02</internalNodes>
          <leafValues>
            7.0228397846221924e-01 -2.8965508937835693e-01</leafValues></_>
        <_>
          <internalNodes>
            0 -1 189 -1.2171731889247894e-01</internalNodes>
          <leafValues>
            7.6936697959899902e-01 -2.3305332660675049e-01</leafValues></_>
        <_>
          <internalNodes>
            0 -1 88 7.6072867959737778e-03</internalNodes>
          <leafValues>
            2.2845260798931122e-01 -9.2111659049987793e-01</leafValues></_>
        <_>
          <internalNodes>
            0 -1 137 2.6280558668076992e-03</internalNodes>
          <leafValues>
            1.6946078836917877e-01 -8.6084747314453125e-01</leafValues></_>
        <_>
          <internalNodes>
            0 -1 263 3.0757267028093338e-02</internalNodes>
          <leafValues>
            1.8280589580535889e-01 -7.0823538303375244e-01</leafValues></_></weakClassifiers></_>
    <!-- stage 1 -->
    <_>
      <maxWeakCount>8</maxWeakCount>
      <stageThreshold>-1.2113466262817383e+00</stageThreshold>
      <weakClassifiers>
        <_>
          <internalNodes>
            0 -1 193 -1.0934835672378540e-01</internalNodes>
          <leafValues>
            6.5349543094635010e-01 -4.8387095332145691e-01</leafValues></_>
        <_>
          <internalNodes>
            0 -1 141 7.3074596002697945e-03</internalNodes>
          <leafValues>
            -5.0387114286422729e-01 3.9403629302978516e-01</leafValues></_>
        <_>
          <internalNodes>
            0 -1 51 2.2256011143326759e-03</internalNodes>
          <leafValues>
            1.8264968693256378e-01 -8.5768300294876099e-01</leafValues></_>
        <_>
          <internalNodes>
            0 -1 407 -4.7671291977167130e-03</internalNodes>
          <leafValues>
            -8.7590825557708740e-01 1.4127042889595032e-01</leafValues></_>
        <_>
          <internalNodes>
            0 -1 356 2.1847095340490341e-03</internalNodes>
          <leafValues>
            1.3826422393321991e-01 -8.0511999130249023e-01</leafValues></_>
        <_>
          <internalNodes>
            0 -1 271 -7.5551839545369148e-03</internalNodes>
          <leafValues>
            -6.3917148113250732e-01 1.7174522578716278e-01</leafValues></_>
        <_>
          <internalNodes>
            0 -1 65 -6.8976152688264847e-03</internalNodes>
          <leafValues>
            4.1217082738876343e-01 -3.3784210681915283e-01</leafValues></_>
        <_>
          <internalNodes>
            0 -1 302 -4.5466180890798569e-02</internalNodes>
          <leafValues>
            7.3295593261718750e-01 -1.8389539420604706e-01</leafValues></_></weakClassifiers></_>
    <!-- stage 2 -->
    <_>
      <maxWeakCount>10</maxWeakCount>
      <stageThreshold>-1.1326795816421509e+00</stageThreshold>
      <weakClassifiers>
        <_>
          <internalNodes>
            0 -1 56 3.2390064001083374e-01</internalNodes>
          <leafValues>
            -5.4913294315338135e-01 3.0249109864234924e-01</leafValues></_>
        <_>
          <internalNodes>
            0 -1 295 5.4153692908585072e-03</internalNodes>
          <leafValues>
            1.6938953101634979e-01 -7.3895144462585449e-01</leafValues></_>
        <_>
          <internalNodes>
            0 -1 338 1.2379433028399944e-03</internalNodes>
          <leafValues>
            1.5735778212547302e-01 -7.3477792739868164e-01</leafValues></_>
        <_>
          <internalNodes>
            0 -1 296 -1.0390995070338249e-02</internalNodes>
          <leafValues>
            -7.1267777681350708e-01 1.3825169205665588e-01</leafValues></_>
        <_>
          <internalNodes>
            0 -1 70 -2.0162761211395264e-02</internalNodes>
          <leafValues>
            3.3600258827209473e-01 -3.0131682753562927e-01</leafValues></_>
        <_>
          <internalNodes>
            0 -1 151 7.0701420307159424e-02</internalNodes>
          <leafValues>
            -2.0402333140373230e-01 6.4190012216567993e-01</leafValues></_>
        <_>
          <internalNodes>
            0 -1 50 1.6953608719632030e-03</internalNodes>
          <leafValues>
            9.4865508377552032e-02 -9.9214273691177368e-01</leafValues></_>
        <_>
          <internalNodes>
            0 -1 101 -8.2555721746757627e-05</internalNodes>
          <leafValues>
            2.7784839272499084e-01 -3.6516928672790527e-01</leafValues></_>
        <_>
          <internalNodes>
            0 -1 383 -8.8499017059803009e-02</internalNodes>
          <leafValues>
            8.3819973468780518e-01 -1.1983957141637802e-01</leafValues></_>
        <_>
          <internalNodes>
            0 -1 163 6.0803084634244442e-03</internalNodes>
          <leafValues>
            1.1726719886064529e-01 -9.5479512214660645e-01</leafValues></_></weakClassifiers></_>
    <!-- stage 3 -->
    <_>
      <maxWeakCount>15</maxWeakCount>
      <stageThreshold>-1.3181550502777100e+00</stageThreshold>
      <weakClassifiers>
        <_>
          <internalNodes>
            0 -1 148 2.8142452239990234e-02</internalNodes>
          <leafValues>
            -4.7104850411415100e-01 6.2732917070388794e-01</leafValues></_>
        <_>
          <internalNodes>
            0 -1 261 1.4302311465144157e-02</internalNodes>
          <leafValues>
            -2.4930386245250702e-01 5.8917033672332764e-01</leafValues></_>
        <_>
          <internalNodes>
            0 -1 379 -5.1738205365836620e-04</internalNodes>
          <leafValues>
            2.3456791043281555e-01 -5.4150021076202393e-01</leafValues></_>
        <_>
          <internalNodes>
            0 -1 154 1.4803286641836166e-02</internalNodes>
          <leafValues>
            -2.7016776800155640e-01 4.4038137793540955e-01</leafValues></_>
        <_>
          <internalNodes>
            0 -1 368 2.3421281948685646e-03</internalNodes>
          <leafValues>
            -3.1129682064056396e-01 3.6960360407829285e-01</leafValues></_>
        <_>
          <internalNodes>
            0 -1 76 -1.0117308236658573e-02</internalNodes>
          <leafValues>
            -7.8021812438964844e-01 1.4879079163074493e-01</leafValues></_>
        <_>
          <internalNodes>
            0 -1 293 -4.8146992921829224e-03</internalNodes>
          <leafValues>
            -5.1771956682205200e-01 1.7826479673385620e-01</leafValues></_>
        <_>
          <internalNodes>
            0 -1 345 2.7905525639653206e-03</internalNodes>
          <leafValues>
            -1.8893305957317352e-01 4.7717294096946716e-01</leafValues></_>
        <_>
          <internalNodes>
            0 -1 442 -1.6663647256791592e-03</internalNodes>
          <leafValues>
            -7.8809154033660889e-01 1.4040842652320862e-01</leafValues></_>
        <_>
          <internalNodes>
            0 -1 434 5.6415265426039696e-03</internalNodes>
          <leafValues>
            1.6339029371738434e-01 -5.1144927740097046e-01</leafValues></_>
        <_>
          <internalNodes>
            0 -1 199 -3.3219970762729645e-02</internalNodes>
          <leafValues>
            5.1729846000671387e-01 -1.9687134027481079e-01</leafValues></_>
        <_>
          <internalNodes>
            0 -1 203 -2.4024404585361481e-02</internalNodes>
          <leafValues>
            -7.7161568403244019e-01 1.6416296362876892e-01</leafValues></_>
        <_>
          <internalNodes>
            0 -1 265 2.4538833647966385e-02</internalNodes>
          <leafValues>
            -2.5619155168533325e-01 5.2031123638153076e-01</leafValues></_>
        <_>
          <internalNodes>
            0 -1 75 1.2505194172263145e-02</internalNodes>
          <leafValues>
            1.6704531013965607e-01 -5.9289091825485229e-01</leafValues></_>
        <_>
          <internalNodes>
            0 -1 285 -2.2943268413655460e-04</internalNodes>
          <leafValues>
            3.6127117276191711e-01 -2.4044959247112274e-01</leafValues></_></weakClassifiers></_>
    <!-- stage 4 -->
    <_>
      <maxWeakCount>14</maxWeakCount>
      <stageThreshold>-1.3534104824066162e+00</stageThreshold>
      <weakClassifiers>
        <_>
          <internalNodes>
            0 -1 256 -8.4646567702293396e-02</internalNodes>
          <leafValues>
            6.0942763090133667e-01 -4.4589409232139587e-01</leafValues></_>
        <_>
          <internalNodes>
            0 -1 145 1.7224375158548355e-02</internalNodes>
          <leafValues>
            -2.8763836622238159e-01 4.7045478224754333e-01</leafValues></_>
        <_>
          <internalNodes>
            0 -1 70 -2.0225908607244492e-02</internalNodes>
          <leafValues>
            3.3851990103721619e-01 -4.3375402688980103e-01</leafValues></_>
        <_>
          <internalNodes>
            0 -1 143 9.0277269482612610e-03</internalNodes>
          <leafValues>
            -3.2151627540588379e-01 3.6121180653572083e-01</leafValues></_>
        <_>
          <internalNodes>
            0 -1 461 -2.3416194599121809e-03</internalNodes>
          <leafValues>
            -8.2469761371612549e-01 1.4550577104091644e-01</leafValues></_>
        <_>
          <internalNodes>
            0 -1 122 1.0562739335000515e-02</internalNodes>
          <leafValues>
            -2.3156875371932983e-01 4.0403860807418823e-01</leafValues></_>
        <_>
          <internalNodes>
            0 -1 457 -1.3870117254555225e-03</internalNodes>
          <leafValues>
            -6.8420457839965820e-01 1.8740715086460114e-01</leafValues></_>
        <_>
          <internalNodes>
            0 -1 334 1.8640713766217232e-02</internalNodes>
          <leafValues>
            -2.9459735751152039e-01 4.4363009929656982e-01</leafValues></_>
        <_>
          <internalNodes>
            0 -1 349 2.8393554966896772e-03</internalNodes>
          <leafValues>
            1.6488201916217804e-01 -7.0895886421203613e-01</leafValues></_>
        <_>
          <internalNodes>
            0 -1 235 5.1005659624934196e-03</internalNodes>
          <leafValues>
            6.5955147147178650e-02 -7.8338962793350220e-01</leafValues></_>
        <_>
          <internalNodes>
            0 -1 24 -3.0420053750276566e-02</internalNodes>
          <leafValues>
            7.3542654514312744e-01 -1.4589497447013855e-01</leafValues></_>
        <_>
          <internalNodes>
            0 -1 290 -2.1559026092290878e-02</internalNodes>
          <leafValues>
            4.1149809956550598e-01 -2.5438693165779114e-01</leafValues></_>
        <_>
          <internalNodes>
            0 -1 40 -1.6091105062514544e-03</internalNodes>
          <leafValues>
            2.1772043406963348e-01 -3.9397168159484863e-01</leafValues></_>
        <_>
          <internalNodes>
            0 -1 102 2.2008921951055527e-02</internalNodes>
          <leafValues>
            -1.6635394096374512e-01 6.1364156007766724e-01</leafValues></_></weakClassifiers></_>
    <!-- stage 5 -->
    <_>
      <maxWeakCount>16</maxWeakCount>
      <stageThreshold>-1.3587641716003418e+00</stageThreshold>
      <weakClassifiers>
        <_>
          <internalNodes>
            0 -1 110 1.2062390148639679e-01</internalNodes>
          <leafValues>
            -5.3125000000000000e-01 3.4765625000000000e-01</leafValues></_>
        <_>
          <internalNodes>
            0 -1 335 2.2663113195449114e-03</internalNodes>
          <leafValues>
            9.7199909389019012e-02 -7.6308631896972656e-01</leafValues></_>
        <_>
          <internalNodes>
            0 -1 72 -3.3816874027252197e-02</internalNodes>
          <leafValues>
            -7.0851635932922363e-01 1.4877358078956604e-01</leafValues></_>
        <_>
          <internalNodes>
            0 -1 149 1.1950651183724403e-02</internalNodes>
          <leafValues>
            1.3842587172985077e-01 -6.1543530225753784e-01</leafValues></_>
        <_>
          <internalNodes>
            0 -1 228 1.2668304145336151e-02</internalNodes>
          <leafValues>
            1.2350939959287643e-01 -7.6600211858749390e-01</leafValues></_>
        <_>
          <internalNodes>
            0 -1 389 -1.6742153093218803e-04</internalNodes>
          <leafValues>
            2.2198480367660522e-01 -3.8209688663482666e-01</leafValues></_>
        <_>
          <internalNodes>
            0 -1 427 -5.0472058355808258e-03</internalNodes>
          <leafValues>
            4.1283443570137024e-01 -1.9396679103374481e-01</leafValues></_>
        <_>
          <internalNodes>
            0 -1 260 -1.5431315638124943e-02</internalNodes>
          <leafValues>
            4.1393274068832397e-01 -2.4215586483478546e-01</leafValues></_>
        <_>
          <internalNodes>
            0 -1 247 2.2113337181508541e-03</internalNodes>
          <leafValues>
            1.1175629496574402e-01 -9.0868973731994629e-01</leafValues></_>
        <_>
          <internalNodes>
            0 -1 266 -1.6553297638893127e-02</internalNodes>
          <leafValues>
            -6.1436879634857178e-01 1.0577767342329025e-01</leafValues></_>
        <_>
          <internalNodes>
            0 -1 20 -3.8991528563201427e-03</internalNodes>
          <leafValues>
            3.1944748759269714e-01 -2.6762750744819641e-01</leafValues></_>
        <_>
          <internalNodes>
            0 -1 291 -1.1436287313699722e-02</internalNodes>
          <leafValues>
            -7.5891005992889404e-01 1.1295330524444580e-01</leafValues></_>
        <_>
          <internalNodes>
            0 -1 175 8.5514457896351814e-03</internalNodes>
          <leafValues>
            -2.2504669427871704e-01 3.5178804397583008e-01</leafValues></_>
        <_>
          <internalNodes>
            0 -1 36 -1.8601723015308380e-02</internalNodes>
          <leafValues>
            2.8370928764343262e-01 -2.9827719926834106e-01</leafValues></_>
        <_>
          <internalNodes>
            0 -1 85 2.8944162186235189e-03</internalNodes>
          <leafValues>
            1.0418678075075150e-01 -7.7126204967498779e-01</leafValues></_>
        <_>
          <internalNodes>
            0 -1 204 6.5643088892102242e-03</internalNodes>
          <leafValues>
            7.2496823966503143e-02 -9.0775913000106812e-01</leafValues></_></weakClassifiers></_>
    <!-- stage 6 -->
    <_>
      <maxWeakCount>15</maxWeakCount>
      <stageThreshold>-1.1499272584915161e+00</stageThreshold>
      <weakClassifiers>
        <_>
          <internalNodes>
            0 -1 213 -1.1502943933010101e-01</internalNodes>
          <leafValues>
            5.9393942356109619e-01 -4.6929132938385010e-01</leafValues></_>
        <_>
          <internalNodes>
            0 -1 395 -2.5898679159581661e-03</internalNodes>
          <leafValues>
            2.6079437136650085e-01 -3.9303502440452576e-01</leafValues></_>
        <_>
          <internalNodes>
            0 -1 420 2.7731049805879593e-02</internalNodes>
          <leafValues>
            -1.8498636782169342e-01 5.1534485816955566e-01</leafValues></_>
        <_>
          <internalNodes>
            0 -1 90 1.0101550072431564e-01</internalNodes>
          <leafValues>
            -2.3792175948619843e-01 4.2883074283599854e-01</leafValues></_>
        <_>
          <internalNodes>
            0 -1 12 -8.1320498138666153e-03</internalNodes>
          <leafValues>
            -7.0230334997177124e-01 1.2318622320890427e-01</leafValues></_>
        <_>
          <internalNodes>
            0 -1 33 -1.1050205212086439e-03</internalNodes>
          <leafValues>
            3.7690663337707520e-01 -2.5574940443038940e-01</leafValues></_>
        <_>
          <internalNodes>
            0 -1 241 6.0728862881660461e-02</internalNodes>
          <leafValues>
            -1.6017450392246246e-01 6.7973965406417847e-01</leafValues></_>
        <_>
          <internalNodes>
            0 -1 46 -1.1801600921899080e-03</internalNodes>
          <leafValues>
            2.3843450844287872e-01 -4.3889090418815613e-01</leafValues></_>
        <_>
          <internalNodes>
            0 -1 39 6.6319955512881279e-03</internalNodes>
          <leafValues>
            -2.1672509610652924e-01 4.0670758485794067e-01</leafValues></_>
        <_>
          <internalNodes>
            0 -1 364 1.4247798826545477e-03</internalNodes>
          <leafValues>
            -2.3734895884990692e-01 3.3772781491279602e-01</leafValues></_>
        <_>
          <internalNodes>
            0 -1 267 1.5279484912753105e-02</internalNodes>
          <leafValues>
            -1.7994256317615509e-01 4.3028125166893005e-01</leafValues></_>
        <_>
          <internalNodes>
            0 -1 447 -3.7769074551761150e-03</internalNodes>
          <leafValues>
            -5.6975471973419189e-01 1.2395182251930237e-01</leafValues></_>
        <_>
          <internalNodes>
            0 -1 372 -4.7800773754715919e-03</internalNodes>
          <leafValues>
            -7.8116518259048462e-01 9.6847459673881531e-02</leafValues></_>
        <_>
          <internalNodes>
            0 -1 355 -1.2070996308466420e-04</internalNodes>
          <leafValues>
            1.2167491018772125e-01 -5.1148402690887451e-01</leafValues></_>
        <_>
          <internalNodes>
            0 -1 169 7.6907217502593994e-02</internalNodes>
          <leafValues>
            -9.3923978507518768e-02 8.8593620061874390e-01</leafValues></_></weakClassifiers></_>
    <!-- stage 7 -->
    <_>
      <maxWeakCount>20</maxWeakCount>
      <stageThreshold>-1.2065621614456177e+00</stageThreshold>
      <weakClassifiers>
        <_>
          <internalNodes>
            0 -1 214 -1.2468782812356949e-01</internalNodes>
          <leafValues>
            4.9152541160583496e-01 -4.6067416667938232e-01</leafValues></_>
        <_>
          <internalNodes>
            0 -1 311 2.8292424976825714e-03</internalNodes>
          <leafValues>
            -2.8339636325836182e-01 3.2911849021911621e-01</leafValues></_>
        <_>
          <internalNodes>
            0 -1 186 1.9667278975248337e-02</internalNodes>
          <leafValues>
            -2.1305635571479797e-01 4.1404065489768982e-01</leafValues></_>
        <_>
          <internalNodes>
            0 -1 58 -3.4945538640022278e-01</internalNodes>
          <leafValues>
            7.7691447734832764e-01 -1.2794290482997894e-01</leafValues></_>
        <_>
          <internalNodes>
            0 -1 251 -2.3136075586080551e-02</internalNodes>
          <leafValues>
            5.1382172107696533e-01 -1.1896692216396332e-01</leafValues></_>
        <_>
          <internalNodes>
            0 -1 68 3.8111262023448944e-02</internalNodes>
          <leafValues>
            -6.8581230938434601e-02 7.5135618448257446e-01</leafValues></_>
        <_>
          <internalNodes>
            0 -1 177 -7.0492257364094257e-03</internalNodes>
          <leafValues>
            3.7405550479888916e-01 -2.7216264605522156e-01</leafValues></_>
        <_>
          <internalNodes>
            0 -1 144 7.8414967283606529e-03</internalNodes>
          <leafValues>
            1.2094766646623611e-01 -6.4847737550735474e-01</leafValues></_>
        <_>
          <internalNodes>
            0 -1 320 1.1528654955327511e-02</internalNodes>
          <leafValues>
            7.8983634710311890e-02 -8.2046943902969360e-01</leafValues></_>
        <_>
          <internalNodes>
            0 -1 415 1.0267224162817001e-02</internalNodes>
          <leafValues>
            9.0191639959812164e-02 -5.7450592517852783e-01</leafValues></_>
        <_>
          <internalNodes>
            0 -1 196 6.7019432783126831e-02</internalNodes>
          <leafValues>
            -1.2222766876220703e-01 5.6382197141647339e-01</leafValues></_>
        <_>
          <internalNodes>
            0 -1 112 1.1936352588236332e-02</internalNodes>
          <leafValues>
            9.8612844944000244e-02 -8.2156246900558472e-01</leafValues></_>
        <_>
          <internalNodes>
            0 -1 323 4.4500073418021202e-03</internalNodes>
          <leafValues>
            -1.8362264335155487e-01 3.4202879667282104e-01</leafValues></_>
        <_>
          <internalNodes>
            0 -1 441 -3.3003706485033035e-03</internalNodes>
          <leafValues>
            -7.8000921010971069e-01 9.3195900321006775e-02</leafValues></_>
        <_>
          <internalNodes>
            0 -1 262 -1.0734718292951584e-02</internalNodes>
          <leafValues>
            -5.5960124731063843e-01 8.9367330074310303e-02</leafValues></_>
        <_>
          <internalNodes>
            0 -1 218 5.3155757486820221e-03</internalNodes>
          <leafValues>
            -1.8045617640018463e-01 3.4135010838508606e-01</leafValues></_>
        <_>
          <internalNodes>
            0 -1 458 2.2329811472445726e-03</internalNodes>
          <leafValues>
            8.9173853397369385e-02 -7.1411728858947754e-01</leafValues></_>
        <_>
          <internalNodes>
            0 -1 173 2.3343548178672791e-02</internalNodes>
          <leafValues>
            1.1849060654640198e-01 -5.3956723213195801e-01</leafValues></_>
        <_>
          <internalNodes>
            0 -1 8 3.0894970893859863e-01</internalNodes>
          <leafValues>
            -1.0529781877994537e-01 6.3662475347518921e-01</leafValues></_>
        <_>
          <internalNodes>
            0 -1 9 -6.4601078629493713e-03</internalNodes>
          <leafValues>
            3.2675805687904358e-01 -2.4125532805919647e-01</leafValues></_></weakClassifiers></_>
    <!-- stage 8 -->
    <_>
      <maxWeakCount>19</maxWeakCount>
      <stageThreshold>-1.1872731447219849e+00</stageThreshold>
      <weakClassifiers>
        <_>
          <internalNodes>
            0 -1 28 1.8308600783348083e-01</internalNodes>
          <leafValues>
            -3.6703601479530334e-01 8.3333331346511841e-01</leafValues></_>
        <_>
          <internalNodes>
            0 -1 366 3.1934510916471481e-03</internalNodes>
          <leafValues>
            -4.3747040629386902e-01 3.2025739550590515e-01</leafValues></_>
        <_>
          <internalNodes>
            0 -1 92 -5.6072466075420380e-02</internalNodes>
          <leafValues>
            4.4874766469001770e-01 -1.7656394839286804e-01</leafValues></_>
        <_>
          <internalNodes>
            0 -1 242 3.4381682053208351e-03</internalNodes>
          <leafValues>
            -1.6402569413185120e-01 4.1482326388359070e-01</leafValues></_>
        <_>
          <internalNodes>
            0 -1 44 5.7998998090624809e-03</internalNodes>
          <leafValues>
            1.2579758465290070e-01 -7.6312220096588135e-01</leafValues></_>
        <_>
          <internalNodes>
            0 -1 103 4.5290361158549786e-03</internalNodes>
          <leafValues>
            -1.4245009422302246e-01 4.5216241478919983e-01</leafValues></_>
        <_>
          <internalNodes>
            0 -1 365 -8.3196006016805768e-04</internalNodes>
          <leafValues>
            1.2657909095287323e-01 -5.2093559503555298e-01</leafValues></_>
        <_>
          <internalNodes>
            0 -1 69 -7.3793783783912659e-02</internalNodes>
          <leafValues>
            -6.5886300802230835e-01 1.3335740566253662e-01</leafValues></_>
        <_>
          <internalNodes>
            0 -1 451 -5.2705010602949187e-05</internalNodes>
          <leafValues>
            2.3307476937770844e-01 -3.0241334438323975e-01</leafValues></_>
        <_>
          <internalNodes>
            0 -1 215 -1.3138290494680405e-02</internalNodes>
          <leafValues>
            3.2989752292633057e-01 -2.1471752226352692e-01</leafValues></_>
        <_>
          <internalNodes>
            0 -1 438 -1.4291292428970337e-01</internalNodes>
          <leafValues>
            6.3167631626129150e-01 -1.1761336773633957e-01</leafValues></_>
        <_>
          <internalNodes>
            0 -1 190 4.5230980962514877e-02</internalNodes>
          <leafValues>
            -1.6117738187313080e-01 4.9486166238784790e-01</leafValues></_>
        <_>
          <internalNodes>
            0 -1 37 -2.8122630901634693e-03</internalNodes>
          <leafValues>
            -7.9446059465408325e-01 1.0294464975595474e-01</leafValues></_>
        <_>
          <internalNodes>
            0 -1 253 -3.7211163435131311e-03</internalNodes>
          <leafValues>
            3.6268299818038940e-01 -2.1627596020698547e-01</leafValues></_>
        <_>
          <internalNodes>
            0 -1 61 -2.9586947057396173e-03</internalNodes>
          <leafValues>
            3.5366812348365784e-01 -1.9561271369457245e-01</leafValues></_>
        <_>
          <internalNodes>
            0 -1 314 4.1625350713729858e-03</internalNodes>
          <leafValues>
            -1.0082271695137024e-01 6.0700315237045288e-01</leafValues></_>
        <_>
          <internalNodes>
            0 -1 331 -9.6921809017658234e-03</internalNodes>
          <leafValues>
            -7.9923760890960693e-01 8.6170077323913574e-02</leafValues></_>
        <_>
          <internalNodes>
            0 -1 449 6.6200479865074158e-02</internalNodes>
          <leafValues>
            -1.3806365430355072e-01 5.2577388286590576e-01</leafValues></_>
        <_>
          <internalNodes>
            0 -1 347 -3.7372374208644032e-05</internalNodes>
          <leafValues>
            2.6687696576118469e-01 -2.0134060084819794e-01</leafValues></_></weakClassifiers></_>
    <!-- stage 9 -->
    <_>
      <maxWeakCount>21</maxWeakCount>
      <stageThreshold>-1.1546130180358887e+00</stageThreshold>
      <weakClassifiers>
        <_>
          <internalNodes>
            0 -1 25 3.2697829604148865e-01</internalNodes>
          <leafValues>
            -3.5856848955154419e-01 8.2312923669815063e-01</leafValues></_>
        <_>
          <internalNodes>
            0 -1 36 -1.7953231930732727e-02</internalNodes>
          <leafValues>
            2.5919455289840698e-01 -4.2711380124092102e-01</leafValues></_>
        <_>
          <internalNodes>
            0 -1 363 1.5249700518324971e-03</internalNodes>
          <leafValues>
            1.9127683341503143e-01 -5.5877035856246948e-01</leafValues></_>
        <_>
          <internalNodes>
            0 -1 292 -1.8691558390855789e-02</internalNodes>
          <leafValues>
            -6.1112308502197266e-01 1.3792264461517334e-01</leafValues></_>
        <_>
          <internalNodes>
            0 -1 74 1.1822423897683620e-02</internalNodes>
          <leafValues>
            -2.6223060488700867e-01 2.6537075638771057e-01</leafValues></_>
        <_>
          <internalNodes>
            0 -1 288 7.7736362814903259e-02</internalNodes>
          <leafValues>
            -1.3392138481140137e-01 5.7276999950408936e-01</leafValues></_>
        <_>
          <internalNodes>
            0 -1 360 1.1010902002453804e-02</internalNodes>
          <leafValues>
            -2.2608515620231628e-01 3.6884063482284546e-01</leafValues></_>
        <_>
          <internalNodes>
            0 -1 452 7.8124151332303882e-04</internalNodes>
          <leafValues>
            1.2825022637844086e-01 -5.2767938375473022e-01</leafValues></_>
        <_>
          <internalNodes>
            0 -1 206 9.3179307878017426e-03</internalNodes>
          <leafValues>
            -1.8173713982105255e-01 4.1956076025962830e-01</leafValues></_>
        <_>
          <internalNodes>
            0 -1 402 7.6346946880221367e-03</internalNodes>
          <leafValues>
            -2.3158814013004303e-01 3.2405716180801392e-01</leafValues></_>
        <_>
          <internalNodes>
            0 -1 53 1.6023273346945643e-03</internalNodes>
          <leafValues>
            7.5950585305690765e-02 -8.5262215137481689e-01</leafValues></_>
        <_>
          <internalNodes>
            0 -1 0 -9.0335458517074585e-03</internalNodes>
          <leafValues>
            -4.5891043543815613e-01 1.1102223396301270e-01</leafValues></_>
        <_>
          <internalNodes>
            0 -1 394 4.6923071146011353e-02</internalNodes>
          <leafValues>
            5.7843361049890518e-02 -9.7602128982543945e-01</leafValues></_>
        <_>
          <internalNodes>
            0 -1 278 -2.4547523353248835e-03</internalNodes>
          <leafValues>
            3.3221933245658875e-01 -2.1447005867958069e-01</leafValues></_>
        <_>
          <internalNodes>
            0 -1 412 -1.6282481374219060e-04</internalNodes>
          <leafValues>
            1.9837172329425812e-01 -2.9969096183776855e-01</leafValues></_>
        <_>
          <internalNodes>
            0 -1 332 -2.4321090313605964e-04</internalNodes>
          <leafValues>
            1.3965296745300293e-01 -3.9197728037834167e-01</leafValues></_>
        <_>
          <internalNodes>
            0 -1 226 -2.1338332444429398e-02</internalNodes>
          <leafValues>
            -4.4146010279655457e-01 1.3472460210323334e-01</leafValues></_>
        <_>
          <internalNodes>
            0 -1 197 6.3981544226408005e-03</internalNodes>
          <leafValues>
            -1.7907127737998962e-01 3.8095173239707947e-01</leafValues></_>
        <_>
          <internalNodes>
            0 -1 254 4.2817974463105202e-03</internalNodes>
          <leafValues>
            -2.0530213415622711e-01 3.2865816354751587e-01</leafValues></_>
        <_>
          <internalNodes>
            0 -1 152 1.5447555109858513e-02</internalNodes>
          <leafValues>
            -1.2670485675334930e-01 4.6408751606941223e-01</leafValues></_>
        <_>
          <internalNodes>
            0 -1 114 -1.0405355133116245e-03</internalNodes>
          <leafValues>
            2.8219756484031677e-01 -2.4509301781654358e-01</leafValues></_></weakClassifiers></_>
    <!-- stage 10 -->
    <_>
      <maxWeakCount>18</maxWeakCount>
      <stageThreshold>-1.1065052747726440e+00</stageThreshold>
      <weakClassifiers>
        <_>
          <internalNodes>
            0 -1 38 8.5962817072868347e-02</internalNodes>
          <leafValues>
            -3.5120275616645813e-01 7.6551723480224609e-01</leafValues></_>
        <_>
          <internalNodes>
            0 -1 308 4.5192576944828033e-03</internalNodes>
          <leafValues>
            -5.0307416915893555e-01 1.6278848052024841e-01</leafValues></_>
        <_>
          <internalNodes>
            0 -1 77 -3.2708153128623962e-02</internalNodes>
          <leafValues>
            4.2267128825187683e-01 -2.3843114078044891e-01</leafValues></_>
        <_>
          <internalNodes>
            0 -1 312 3.6119089927524328e-03</internalNodes>
          <leafValues>
            -3.0428555607795715e-01 2.0772045850753784e-01</leafValues></_>
        <_>
          <internalNodes>
            0 -1 326 5.6809680536389351e-03</internalNodes>
          <leafValues>
            1.2382608652114868e-01 -5.2940326929092407e-01</leafValues></_>
        <_>
          <internalNodes>
            0 -1 223 -7.3852926492691040e-02</internalNodes>
          <leafValues>
            -8.6892765760421753e-01 8.5737191140651703e-02</leafValues></_>
        <_>
          <internalNodes>
            0 -1 305 -8.4033589810132980e-03</internalNodes>
          <leafValues>
            -5.9213650226593018e-01 8.6923882365226746e-02</leafValues></_>
        <_>
          <internalNodes>
            0 -1 161 -1.7079195007681847e-02</internalNodes>
          <leafValues>
            3.0282157659530640e-01 -2.0717880129814148e-01</leafValues></_>
        <_>
          <internalNodes>
            0 -1 299 3.8530654273927212e-03</internalNodes>
          <leafValues>
            -1.7961689829826355e-01 3.4074154496192932e-01</leafValues></_>
        <_>
          <internalNodes>
            0 -1 27 -2.5160353630781174e-02</internalNodes>
          <leafValues>
            3.4291234612464905e-01 -1.9503596425056458e-01</leafValues></_>
        <_>
          <internalNodes>
            0 -1 97 4.7038886696100235e-03</internalNodes>
          <leafValues>
            6.8276710808277130e-02 -7.5173658132553101e-01</leafValues></_>
        <_>
          <internalNodes>
            0 -1 43 -3.9896853268146515e-02</internalNodes>
          <leafValues>
            6.9731104373931885e-01 -9.4336137175559998e-02</leafValues></_>
        <_>
          <internalNodes>
            0 -1 35 5.1613654941320419e-03</internalNodes>
          <leafValues>
            -3.1903928518295288e-01 2.4583777785301208e-01</leafValues></_>
        <_>
          <internalNodes>
            0 -1 66 1.2239346280694008e-02</internalNodes>
          <leafValues>
            1.8039433658123016e-01 -3.5090583562850952e-01</leafValues></_>
        <_>
          <internalNodes>
            0 -1 398 1.0022756177932024e-03</internalNodes>
          <leafValues>
            1.0561547428369522e-01 -5.3026843070983887e-01</leafValues></_>
        <_>
          <internalNodes>
            0 -1 133 1.2505201622843742e-02</internalNodes>
          <leafValues>
            -1.7111226916313171e-01 2.9821038246154785e-01</leafValues></_>
        <_>
          <internalNodes>
            0 -1 357 -5.3029344417154789e-04</internalNodes>
          <leafValues>
            1.8366944789886475e-01 -3.4417632222175598e-01</leafValues></_>
        <_>
          <internalNodes>
            0 -1 454 4.1333722765557468e-04</internalNodes>
          <leafValues>
            -1.6487708687782288e-01 3.2233488559722900e-01</leafValues></_></weakClassifiers></_>
    <!-- stage 11 -->
    <_>
      <maxWeakCount>25</maxWeakCount>
      <stageThreshold>-1.3046144247055054e+00</stageThreshold>
      <weakClassifiers>
        <_>
          <internalNodes>
            0 -1 233 -1.8635079264640808e-02</internalNodes>
          <leafValues>
            7.0629370212554932e-01 -3.4385722875595093e-01</leafValues></_>
        <_>
          <internalNodes>
            0 -1 168 -3.8092151284217834e-02</internalNodes>
          <leafValues>
            2.8827163577079773e-01 -2.8420701622962952e-01</leafValues></_>
        <_>
          <internalNodes>
            0 -1 62 -2.5289501994848251e-02</internalNodes>
          <leafValues>
            -5.2958470582962036e-01 1.7468184232711792e-01</leafValues></_>
        <_>
          <internalNodes>
            0 -1 287 4.7043738886713982e-03</internalNodes>
          <leafValues>
            1.2732955813407898e-01 -6.6964066028594971e-01</leafValues></_>
        <_>
          <internalNodes>
            0 -1 303 5.3345935884863138e-04</internalNodes>
          <leafValues>
            -2.4471065402030945e-01 2.4876444041728973e-01</leafValues></_>
        <_>
          <internalNodes>
            0 -1 341 2.5586432311683893e-03</internalNodes>
          <leafValues>
            7.8600786626338959e-02 -7.9903781414031982e-01</leafValues></_>
        <_>
          <internalNodes>
            0 -1 374 1.4301383635029197e-03</internalNodes>
          <leafValues>
            1.5056011080741882e-01 -3.5645684599876404e-01</leafValues></_>
        <_>
          <internalNodes>
            0 -1 26 -8.9265238493680954e-03</internalNodes>
          <leafValues>
            2.5339534878730774e-01 -2.5258111953735352e-01</leafValues></_>
        <_>
          <internalNodes>
            0 -1 6 -5.7581583969295025e-03</internalNodes>
          <leafValues>
            3.3401098847389221e-01 -2.2390523552894592e-01</leafValues></_>
        <_>
          <internalNodes>
            0 -1 131 2.6050889864563942e-03</internalNodes>
          <leafValues>
            -2.1473665535449982e-01 2.4251164495944977e-01</leafValues></_>
        <_>
          <internalNodes>
            0 -1 428 -7.4532046914100647e-02</internalNodes>
          <leafValues>
            -9.1671043634414673e-01 3.9122506976127625e-02</leafValues></_>
        <_>
          <internalNodes>
            0 -1 373 2.2401912137866020e-03</internalNodes>
          <leafValues>
            7.9086244106292725e-02 -5.7452267408370972e-01</leafValues></_>
        <_>
          <internalNodes>
            0 -1 125 3.8789665268268436e-05</internalNodes>
          <leafValues>
            -1.9873197376728058e-01 2.7212175726890564e-01</leafValues></_>
        <_>
          <internalNodes>
            0 -1 179 -6.8015819415450096e-03</internalNodes>
          <leafValues>
            -7.9060727357864380e-01 7.8163154423236847e-02</leafValues></_>
        <_>
          <internalNodes>
            0 -1 286 -3.9528251363663003e-05</internalNodes>
          <leafValues>
            2.8383293747901917e-01 -2.0106060802936554e-01</leafValues></_>
        <_>
          <internalNodes>
            0 -1 157 6.5108509734272957e-03</internalNodes>
          <leafValues>
            5.9527844190597534e-02 -9.2218512296676636e-01</leafValues></_>
        <_>
          <internalNodes>
            0 -1 104 3.6947976332157850e-04</internalNodes>
          <leafValues>
            -1.5265548229217529e-01 3.7780496478080750e-01</leafValues></_>
        <_>
          <internalNodes>
            0 -1 86 7.4783951276913285e-05</internalNodes>
          <leafValues>
            -2.2286704182624817e-01 2.6124450564384460e-01</leafValues></_>
        <_>
          <internalNodes>
            0 -1 352 -3.3192090690135956e-02</internalNodes>
          <leafValues>
            -5.7115668058395386e-01 1.1676569283008575e-01</leafValues></_>
        <_>
          <internalNodes>
            0 -1 224 4.2653316631913185e-03</internalNodes>
          <leafValues>
            -1.6710765659809113e-01 3.1325325369834900e-01</leafValues></_>
        <_>
          <internalNodes>
            0 -1 413 -1.6698647290468216e-02</internalNodes>
          <leafValues>
            -7.4694973230361938e-01 7.0355154573917389e-02</leafValues></_>
        <_>
          <internalNodes>
            0 -1 380 4.1449526324868202e-03</internalNodes>
          <leafValues>
            -1.6412605345249176e-01 4.0175920724868774e-01</leafValues></_>
        <_>
          <internalNodes>
            0 -1 281 3.0684242956340313e-03</internalNodes>
          <leafValues>
            -1.2878729403018951e-01 4.2134204506874084e-01</leafValues></_>
        <_>
          <internalNodes>
            0 -1 139 -5.1831854507327080e-03</internalNodes>
          <leafValues>
            2.6453942060470581e-01 -2.4297280609607697e-01</leafValues></_>
        <_>
          <internalNodes>
            0 -1 319 5.6021921336650848e-03</internalNodes>
          <leafValues>
            -1.6846416890621185e-01 3.2304972410202026e-01</leafValues></_></weakClassifiers></_>
    <!-- stage 12 -->
    <_>
      <maxWeakCount>23</maxWeakCount>
      <stageThreshold>-1.0520098209381104e+00</stageThreshold>
      <weakClassifiers>
        <_>
          <internalNodes>
            0 -1 16 2.6008260250091553e-01</internalNodes>
          <leafValues>
            -3.4240978956222534e-01 7.8625953197479248e-01</leafValues></_>
        <_>
          <internalNodes>
            0 -1 445 2.4902049452066422e-02</internalNodes>
          <leafValues>
            -2.7358427643775940e-01 3.7725636363029480e-01</leafValues></_>
        <_>
          <internalNodes>
            0 -1 456 -2.1969325840473175e-02</internalNodes>
          <leafValues>
            3.4681838750839233e-01 -1.6627563536167145e-01</leafValues></_>
        <_>
          <internalNodes>
            0 -1 388 1.9537236075848341e-03</internalNodes>
          <leafValues>
            -3.1502917408943176e-01 2.2675743699073792e-01</leafValues></_>
        <_>
          <internalNodes>
            0 -1 123 1.0312246158719063e-02</internalNodes>
          <leafValues>
            1.2159726023674011e-01 -7.8087526559829712e-01</leafValues></_>
        <_>
          <internalNodes>
            0 -1 167 4.9064774066209793e-03</internalNodes>
          <leafValues>
            -2.1853508055210114e-01 2.5066539645195007e-01</leafValues></_>
        <_>
          <internalNodes>
            0 -1 408 3.4738117828965187e-03</internalNodes>
          <leafValues>
            2.0465259253978729e-01 -3.1635618209838867e-01</leafValues></_>
        <_>
          <internalNodes>
            0 -1 41 -4.5587578788399696e-03</internalNodes>
          <leafValues>
            -7.1693032979965210e-01 3.5105425864458084e-02</leafValues></_>
        <_>
          <internalNodes>
            0 -1 207 1.5532138058915734e-04</internalNodes>
          <leafValues>
            -2.1423286199569702e-01 2.9408740997314453e-01</leafValues></_>
        <_>
          <internalNodes>
            0 -1 422 -5.9669846668839455e-03</internalNodes>
          <leafValues>
            3.0821764469146729e-01 -2.0404484868049622e-01</leafValues></_>
        <_>
          <internalNodes>
            0 -1 280 7.8334240242838860e-05</internalNodes>
          <leafValues>
            -3.5687178373336792e-01 1.8395526707172394e-01</leafValues></_>
        <_>
          <internalNodes>
            0 -1 184 -2.8647631406784058e-02</internalNodes>
          <leafValues>
            3.4028843045234680e-01 -2.0881401002407074e-01</leafValues></_>
        <_>
          <internalNodes>
            0 -1 375 2.7481987490318716e-04</internalNodes>
          <leafValues>
            -2.2643375396728516e-01 2.6522755622863770e-01</leafValues></_>
        <_>
          <internalNodes>
            0 -1 283 -1.1212637182325125e-03</internalNodes>
          <leafValues>
            -7.9195237159729004e-01 5.7978004217147827e-02</leafValues></_>
        <_>
          <internalNodes>
            0 -1 1 -3.3979564905166626e-01</internalNodes>
          <leafValues>
            -6.8072301149368286e-01 6.3602782785892487e-02</leafValues></_>
        <_>
          <internalNodes>
            0 -1 244 9.6415274310857058e-04</internalNodes>
          <leafValues>
            -1.7815262079238892e-01 3.0590245127677917e-01</leafValues></_>
        <_>
          <internalNodes>
            0 -1 268 -1.5645220875740051e-02</internalNodes>
          <leafValues>
            -5.9142398834228516e-01 1.0987579077482224e-01</leafValues></_>
        <_>
          <internalNodes>
            0 -1 82 -1.5237269923090935e-02</internalNodes>
          <leafValues>
            2.9554152488708496e-01 -1.9818022847175598e-01</leafValues></_>
        <_>
          <internalNodes>
            0 -1 129 5.4304845631122589e-02</internalNodes>
          <leafValues>
            -1.6315260529518127e-01 4.2065581679344177e-01</leafValues></_>
        <_>
          <internalNodes>
            0 -1 115 -8.6025577038526535e-03</internalNodes>
          <leafValues>
            -6.6480505466461182e-01 6.7115142941474915e-02</leafValues></_>
        <_>
          <internalNodes>
            0 -1 358 -3.9805847336538136e-05</internalNodes>
          <leafValues>
            2.1275313198566437e-01 -2.4043010175228119e-01</leafValues></_>
        <_>
          <internalNodes>
            0 -1 227 -1.2854795902967453e-02</internalNodes>
          <leafValues>
            4.6320766210556030e-01 -9.8491780459880829e-02</leafValues></_>
        <_>
          <internalNodes>
            0 -1 159 1.0530499741435051e-02</internalNodes>
          <leafValues>
            -1.5509550273418427e-01 4.1367524862289429e-01</leafValues></_></weakClassifiers></_>
    <!-- stage 13 -->
    <_>
      <maxWeakCount>24</maxWeakCount>
      <stageThreshold>-1.1937189102172852e+00</stageThreshold>
      <weakClassifiers>
        <_>
          <internalNodes>
            0 -1 15 3.7273362278938293e-01</internalNodes>
          <leafValues>
            -3.4164935350418091e-01 5.9235668182373047e-01</leafValues></_>
        <_>
          <internalNodes>
            0 -1 344 8.4930537268519402e-03</internalNodes>
          <leafValues>
            -3.2140645384788513e-01 2.6179471611976624e-01</leafValues></_>
        <_>
          <internalNodes>
            0 -1 279 4.3729893513955176e-04</internalNodes>
          <leafValues>
            -1.8280509114265442e-01 3.5856232047080994e-01</leafValues></_>
        <_>
          <internalNodes>
            0 -1 399 1.2422660365700722e-02</internalNodes>
          <leafValues>
            1.1952846497297287e-01 -5.2582758665084839e-01</leafValues></_>
        <_>
          <internalNodes>
            0 -1 269 -1.3112684711813927e-02</internalNodes>
          <leafValues>
            -6.4563477039337158e-01 1.0458154976367950e-01</leafValues></_>
        <_>
          <internalNodes>
            0 -1 297 4.0307670133188367e-04</internalNodes>
          <leafValues>
            -1.8258993327617645e-01 3.2445088028907776e-01</leafValues></_>
        <_>
          <internalNodes>
            0 -1 52 7.9804044216871262e-03</internalNodes>
          <leafValues>
            4.7559287399053574e-02 -8.7062388658523560e-01</leafValues></_>
        <_>
          <internalNodes>
            0 -1 94 -1.2755655683577061e-02</internalNodes>
          <leafValues>
            -6.9179046154022217e-01 5.9948414564132690e-02</leafValues></_>
        <_>
          <internalNodes>
            0 -1 22 -4.0085143409669399e-03</internalNodes>
          <leafValues>
            3.8480320572853088e-01 -1.3346439599990845e-01</leafValues></_>
        <_>
          <internalNodes>
            0 -1 127 -1.3420897722244263e-01</internalNodes>
          <leafValues>
            -5.1155579090118408e-01 1.2125184386968613e-01</leafValues></_>
        <_>
          <internalNodes>
            0 -1 243 -2.2523957304656506e-03</internalNodes>
          <leafValues>
            -5.9887498617172241e-01 8.4354259073734283e-02</leafValues></_>
        <_>
          <internalNodes>
            0 -1 371 5.7946110609918833e-04</internalNodes>
          <leafValues>
            -1.6178396344184875e-01 3.3115062117576599e-01</leafValues></_>
        <_>
          <internalNodes>
            0 -1 462 9.6484035020694137e-04</internalNodes>
          <leafValues>
            -1.6136832535266876e-01 3.4044805169105530e-01</leafValues></_>
        <_>
          <internalNodes>
            0 -1 425 6.4829876646399498e-03</internalNodes>
          <leafValues>
            6.7294895648956299e-02 -9.3670129776000977e-01</leafValues></_>
        <_>
          <internalNodes>
            0 -1 259 6.9528650492429733e-03</internalNodes>
          <leafValues>
            -1.3209323585033417e-01 4.2826855182647705e-01</leafValues></_>
        <_>
          <internalNodes>
            0 -1 289 -1.7062094411812723e-04</internalNodes>
          <leafValues>
            3.2012650370597839e-01 -1.6862457990646362e-01</leafValues></_>
        <_>
          <internalNodes>
            0 -1 111 3.5411700606346130e-02</internalNodes>
          <leafValues>
            8.6511246860027313e-02 -6.8428224325180054e-01</leafValues></_>
        <_>
          <internalNodes>
            0 -1 464 -6.2607163563370705e-03</internalNodes>
          <leafValues>
            -8.1806236505508423e-01 4.3117843568325043e-02</leafValues></_>
        <_>
          <internalNodes>
            0 -1 187 2.5212657637894154e-03</internalNodes>
          <leafValues>
            -1.3533082604408264e-01 3.6613872647285461e-01</leafValues></_>
        <_>
          <internalNodes>
            0 -1 108 2.1553314290940762e-03</internalNodes>
          <leafValues>
            1.7428009212017059e-01 -3.1393340229988098e-01</leafValues></_>
        <_>
          <internalNodes>
            0 -1 99 1.5754550695419312e-02</internalNodes>
          <leafValues>
            -1.4097134768962860e-01 3.6377382278442383e-01</leafValues></_>
        <_>
          <internalNodes>
            0 -1 192 -1.5589913818985224e-03</internalNodes>
          <leafValues>
            3.5128447413444519e-01 -1.9523085653781891e-01</leafValues></_>
        <_>
          <internalNodes>
            0 -1 19 7.9250084236264229e-03</internalNodes>
          <leafValues>
            8.3575181663036346e-02 -7.1543151140213013e-01</leafValues></_>
        <_>
          <internalNodes>
            0 -1 59 -3.8312911783577874e-05</internalNodes>
          <leafValues>
            2.5191372632980347e-01 -2.1893808245658875e-01</leafValues></_></weakClassifiers></_>
    <!-- stage 14 -->
    <_>
      <maxWeakCount>26</maxWeakCount>
      <stageThreshold>-1.2767820358276367e+00</stageThreshold>
      <weakClassifiers>
        <_>
          <internalNodes>
            0 -1 29 2.4252434074878693e-01</internalNodes>
          <leafValues>
            -3.4713596105575562e-01 6.8211919069290161e-01</leafValues></_>
        <_>
          <internalNodes>
            0 -1 47 -3.9722253859508783e-05</internalNodes>
          <leafValues>
            1.0083314776420593e-01 -6.6085481643676758e-01</leafValues></_>
        <_>
          <internalNodes>
            0 -1 436 1.7507527023553848e-02</internalNodes>
          <leafValues>
            -1.8422316014766693e-01 3.3874425292015076e-01</leafValues></_>
        <_>
          <internalNodes>
            0 -1 277 6.7706638947129250e-04</internalNodes>
          <leafValues>
            1.6547088325023651e-01 -5.1919430494308472e-01</leafValues></_>
        <_>
          <internalNodes>
            0 -1 32 5.0926795229315758e-03</internalNodes>
          <leafValues>
            -2.3950561881065369e-01 2.5400847196578979e-01</leafValues></_>
        <_>
          <internalNodes>
            0 -1 31 -8.8362884707748890e-04</internalNodes>
          <leafValues>
            2.8360852599143982e-01 -2.2643868625164032e-01</leafValues></_>
        <_>
          <internalNodes>
            0 -1 300 -2.6018721982836723e-03</internalNodes>
          <leafValues>
            -6.8733686208724976e-01 1.1627987772226334e-01</leafValues></_>
        <_>
          <internalNodes>
            0 -1 401 2.4391070008277893e-02</internalNodes>
          <leafValues>
            -1.6555564105510712e-01 4.5886752009391785e-01</leafValues></_>
        <_>
          <internalNodes>
            0 -1 155 -8.8551007211208344e-03</internalNodes>
          <leafValues>
            -8.6067378520965576e-01 5.1814556121826172e-02</leafValues></_>
        <_>
          <internalNodes>
            0 -1 30 -2.2784559987485409e-03</internalNodes>
          <leafValues>
            4.4824239611625671e-01 -1.3576011359691620e-01</leafValues></_>
        <_>
          <internalNodes>
            0 -1 57 -3.0722393421456218e-04</internalNodes>
          <leafValues>
            2.5897493958473206e-01 -2.0782960951328278e-01</leafValues></_>
        <_>
          <internalNodes>
            0 -1 257 3.3125668764114380e-02</internalNodes>
          <leafValues>
            -1.1207526177167892e-01 4.9781280755996704e-01</leafValues></_>
        <_>
          <internalNodes>
            0 -1 13 -4.2730085551738739e-03</internalNodes>
          <leafValues>
            -6.4933377504348755e-01 8.0659031867980957e-02</leafValues></_>
        <_>
          <internalNodes>
            0 -1 198 -6.7089166259393096e-04</internalNodes>
          <leafValues>
            2.7599298954010010e-01 -2.0539085566997528e-01</leafValues></_>
        <_>
          <internalNodes>
            0 -1 100 -1.0867157578468323e-01</internalNodes>
          <leafValues>
            -6.2538802623748779e-01 9.4215556979179382e-02</leafValues></_>
        <_>
          <internalNodes>
            0 -1 376 1.1083515360951424e-02</internalNodes>
          <leafValues>
            1.6830603778362274e-01 -2.9858285188674927e-01</leafValues></_>
        <_>
          <internalNodes>
            0 -1 316 -1.4566430822014809e-02</internalNodes>
          <leafValues>
            -6.6319853067398071e-01 8.0682255327701569e-02</leafValues></_>
        <_>
          <internalNodes>
            0 -1 437 1.9134220480918884e-01</internalNodes>
          <leafValues>
            -6.4620278775691986e-02 1.</leafValues></_>
        <_>
          <internalNodes>
            0 -1 416 2.0283959805965424e-02</internalNodes>
          <leafValues>
            -1.8832744657993317e-01 2.8792166709899902e-01</leafValues></_>
        <_>
          <internalNodes>
            0 -1 301 -1.5297661535441875e-02</internalNodes>
          <leafValues>
            4.1869112849235535e-01 -1.6630868613719940e-01</leafValues></_>
        <_>
          <internalNodes>
            0 -1 419 2.8034828603267670e-02</internalNodes>
          <leafValues>
            7.0639222860336304e-02 -7.4633777141571045e-01</leafValues></_>
        <_>
          <internalNodes>
            0 -1 158 3.6957480479031801e-03</internalNodes>
          <leafValues>
            -2.1983833611011505e-01 2.9041641950607300e-01</leafValues></_>
        <_>
          <internalNodes>
            0 -1 42 -1.0130706941708922e-03</internalNodes>
          <leafValues>
            2.0023600757122040e-01 -2.9404366016387939e-01</leafValues></_>
        <_>
          <internalNodes>
            0 -1 430 -9.7024464048445225e-04</internalNodes>
          <leafValues>
            4.5423260331153870e-01 -1.2349316477775574e-01</leafValues></_>
        <_>
          <internalNodes>
            0 -1 354 8.3772568032145500e-03</internalNodes>
          <leafValues>
            1.4758665859699249e-01 -3.9099189639091492e-01</leafValues></_>
        <_>
          <internalNodes>
            0 -1 410 3.4073377028107643e-03</internalNodes>
          <leafValues>
            -1.7019568383693695e-01 3.4217822551727295e-01</leafValues></_></weakClassifiers></_>
    <!-- stage 15 -->
    <_>
      <maxWeakCount>28</maxWeakCount>
      <stageThreshold>-1.0631005764007568e+00</stageThreshold>
      <weakClassifiers>
        <_>
          <internalNodes>
            0 -1 307 4.7343894839286804e-02</internalNodes>
          <leafValues>
            -3.6857348680496216e-01 4.9771690368652344e-01</leafValues></_>
        <_>
          <internalNodes>
            0 -1 146 3.7983447313308716e-02</internalNodes>
          <leafValues>
            -2.5820609927177429e-01 2.7217712998390198e-01</leafValues></_>
        <_>
          <internalNodes>
            0 -1 368 2.3820621427148581e-03</internalNodes>
          <leafValues>
            -4.1024366021156311e-01 1.7434138059616089e-01</leafValues></_>
        <_>
          <internalNodes>
            0 -1 284 1.7543942667543888e-03</internalNodes>
          <leafValues>
            1.7275375127792358e-01 -4.5734465122222900e-01</leafValues></_>
        <_>
          <internalNodes>
            0 -1 124 -3.8330703973770142e-02</internalNodes>
          <leafValues>
            -3.7912800908088684e-01 1.2973721325397491e-01</leafValues></_>
        <_>
          <internalNodes>
            0 -1 180 -8.9547801762819290e-03</internalNodes>
          <leafValues>
            3.2692015171051025e-01 -1.5451852977275848e-01</leafValues></_>
        <_>
          <internalNodes>
            0 -1 336 1.2374965474009514e-02</internalNodes>
          <leafValues>
            -2.0321588218212128e-01 2.7586469054222107e-01</leafValues></_>
        <_>
          <internalNodes>
            0 -1 237 -4.9203142523765564e-02</internalNodes>
          <leafValues>
            -4.6115362644195557e-01 1.6930687427520752e-01</leafValues></_>
        <_>
          <internalNodes>
            0 -1 73 2.2367502097040415e-03</internalNodes>
          <leafValues>
            -1.8463787436485291e-01 3.6871778964996338e-01</leafValues></_>
        <_>
          <internalNodes>
            0 -1 211 -5.6319870054721832e-03</internalNodes>
          <leafValues>
            3.8056734204292297e-01 -1.4850506186485291e-01</leafValues></_>
        <_>
          <internalNodes>
            0 -1 264 1.0259330272674561e-02</internalNodes>
          <leafValues>
            1.7104378342628479e-01 -3.4322488307952881e-01</leafValues></_>
        <_>
          <internalNodes>
            0 -1 98 -1.3820953667163849e-02</internalNodes>
          <leafValues>
            1.7393586039543152e-01 -2.9327207803726196e-01</leafValues></_>
        <_>
          <internalNodes>
            0 -1 414 1.2223273515701294e-01</internalNodes>
          <leafValues>
            -7.0699393749237061e-02 7.9591608047485352e-01</leafValues></_>
        <_>
          <internalNodes>
            0 -1 181 -5.7094160001724958e-04</internalNodes>
          <leafValues>
            2.6502361893653870e-01 -1.8224427103996277e-01</leafValues></_>
        <_>
          <internalNodes>
            0 -1 54 -3.3772304654121399e-02</internalNodes>
          <leafValues>
            -9.4079476594924927e-01 5.7736080139875412e-02</leafValues></_>
        <_>
          <internalNodes>
            0 -1 183 -4.4305603951215744e-03</internalNodes>
          <leafValues>
            -6.3183701038360596e-01 5.3988218307495117e-02</leafValues></_>
        <_>
          <internalNodes>
            0 -1 282 -8.5170380771160126e-03</internalNodes>
          <leafValues>
            3.6646005511283875e-01 -1.4005644619464874e-01</leafValues></_>
        <_>
          <internalNodes>
            0 -1 153 4.1036093607544899e-03</internalNodes>
          <leafValues>
            -2.4439145624637604e-01 2.8884518146514893e-01</leafValues></_>
        <_>
          <internalNodes>
            0 -1 156 2.3201752919703722e-03</internalNodes>
          <leafValues>
            -1.6152162849903107e-01 3.8504269719123840e-01</leafValues></_>
        <_>
          <internalNodes>
            0 -1 205 -1.4588813064619899e-03</internalNodes>
          <leafValues>
            3.8646242022514343e-01 -1.3745984435081482e-01</leafValues></_>
        <_>
          <internalNodes>
            0 -1 3 5.7735109329223633e-01</internalNodes>
          <leafValues>
            -9.0577326714992523e-02 5.5835610628128052e-01</leafValues></_>
        <_>
          <internalNodes>
            0 -1 119 1.1082352139055729e-02</internalNodes>
          <leafValues>
            -1.4837510883808136e-01 3.7992915511131287e-01</leafValues></_>
        <_>
          <internalNodes>
            0 -1 128 2.3482821881771088e-02</internalNodes>
          <leafValues>
            -1.1532382667064667e-01 5.1531875133514404e-01</leafValues></_>
        <_>
          <internalNodes>
            0 -1 274 6.3277585431933403e-03</internalNodes>
          <leafValues>
            6.3852600753307343e-02 -8.1082594394683838e-01</leafValues></_>
        <_>
          <internalNodes>
            0 -1 333 -7.6638311147689819e-02</internalNodes>
          <leafValues>
            9.3235635757446289e-01 -6.4911819994449615e-02</leafValues></_>
        <_>
          <internalNodes>
            0 -1 403 7.6809609308838844e-03</internalNodes>
          <leafValues>
            6.4992286264896393e-02 -9.2457228899002075e-01</leafValues></_>
        <_>
          <internalNodes>
            0 -1 7 -1.8108300864696503e-02</internalNodes>
          <leafValues>
            2.2383767366409302e-01 -2.0587696135044098e-01</leafValues></_>
        <_>
          <internalNodes>
            0 -1 310 -1.6611444880254567e-04</internalNodes>
          <leafValues>
            2.5250869989395142e-01 -1.7655937373638153e-01</leafValues></_></weakClassifiers></_>
    <!-- stage 16 -->
    <_>
      <maxWeakCount>21</maxWeakCount>
      <stageThreshold>-9.7451412677764893e-01</stageThreshold>
      <weakClassifiers>
        <_>
          <internalNodes>
            0 -1 298 -2.0186940208077431e-02</internalNodes>
          <leafValues>
            6.8345326185226440e-01 -3.3880904316902161e-01</leafValues></_>
        <_>
          <internalNodes>
            0 -1 2 4.8476040363311768e-01</internalNodes>
          <leafValues>
            -1.8156324326992035e-01 4.9786818027496338e-01</leafValues></_>
        <_>
          <internalNodes>
            0 -1 87 9.3162674456834793e-03</internalNodes>
          <leafValues>
            -1.9536879658699036e-01 2.9214388132095337e-01</leafValues></_>
        <_>
          <internalNodes>
            0 -1 444 1.0069760680198669e-01</internalNodes>
          <leafValues>
            3.3449757844209671e-02 -9.0197890996932983e-01</leafValues></_>
        <_>
          <internalNodes>
            0 -1 306 2.3546875454485416e-03</internalNodes>
          <leafValues>
            9.4301670789718628e-02 -7.7711880207061768e-01</leafValues></_>
        <_>
          <internalNodes>
            0 -1 330 1.4677984872832894e-03</internalNodes>
          <leafValues>
            1.4882688224315643e-01 -4.3085181713104248e-01</leafValues></_>
        <_>
          <internalNodes>
            0 -1 329 1.8101456807926297e-03</internalNodes>
          <leafValues>
            -1.8504481017589569e-01 3.0406615138053894e-01</leafValues></_>
        <_>
          <internalNodes>
            0 -1 313 -1.6410781536251307e-03</internalNodes>
          <leafValues>
            -8.2023632526397705e-01 9.6696913242340088e-02</leafValues></_>
        <_>
          <internalNodes>
            0 -1 459 -2.9609540943056345e-03</internalNodes>
          <leafValues>
            -7.9235267639160156e-01 2.7577688917517662e-02</leafValues></_>
        <_>
          <internalNodes>
            0 -1 220 1.7840820364654064e-03</internalNodes>
          <leafValues>
            -1.2118842452764511e-01 3.9100468158721924e-01</leafValues></_>
        <_>
          <internalNodes>
            0 -1 270 -3.8452394306659698e-02</internalNodes>
          <leafValues>
            3.3490914106369019e-01 -1.4552573859691620e-01</leafValues></_>
        <_>
          <internalNodes>
            0 -1 230 -5.2357236854732037e-03</internalNodes>
          <leafValues>
            -4.5871302485466003e-01 1.1601677536964417e-01</leafValues></_>
        <_>
          <internalNodes>
            0 -1 405 -9.2518310993909836e-03</internalNodes>
          <leafValues>
            -8.6710822582244873e-01 5.0291921943426132e-02</leafValues></_>
        <_>
          <internalNodes>
            0 -1 339 4.4033015146851540e-03</internalNodes>
          <leafValues>
            5.4135534912347794e-02 -7.1348047256469727e-01</leafValues></_>
        <_>
          <internalNodes>
            0 -1 275 -1.0076449252665043e-03</internalNodes>
          <leafValues>
            3.2053515315055847e-01 -1.6617019474506378e-01</leafValues></_>
        <_>
          <internalNodes>
            0 -1 55 5.3484424948692322e-02</internalNodes>
          <leafValues>
            1.6084179282188416e-01 -3.3326095342636108e-01</leafValues></_>
        <_>
          <internalNodes>
            0 -1 126 4.3602056801319122e-02</internalNodes>
          <leafValues>
            -1.6473601758480072e-01 4.0900826454162598e-01</leafValues></_>
        <_>
          <internalNodes>
            0 -1 222 -2.9402274638414383e-02</internalNodes>
          <leafValues>
            -6.4522814750671387e-01 8.7539665400981903e-02</leafValues></_>
        <_>
          <internalNodes>
            0 -1 67 -1.1888809967786074e-04</internalNodes>
          <leafValues>
            2.7456244826316833e-01 -2.0382021367549896e-01</leafValues></_>
        <_>
          <internalNodes>
            0 -1 273 5.8173493016511202e-04</internalNodes>
          <leafValues>
            -1.4957259595394135e-01 3.4630933403968811e-01</leafValues></_>
        <_>
          <internalNodes>
            0 -1 21 -3.5582706332206726e-03</internalNodes>
          <leafValues>
            3.0236303806304932e-01 -1.7647053301334381e-01</leafValues></_></weakClassifiers></_>
    <!-- stage 17 -->
    <_>
      <maxWeakCount>27</maxWeakCount>
      <stageThreshold>-1.1603149175643921e+00</stageThreshold>
      <weakClassifiers>
        <_>
          <internalNodes>
            0 -1 79 2.2200042009353638e-01</internalNodes>
          <leafValues>
            -3.5744681954383850e-01 5.4736840724945068e-01</leafValues></_>
        <_>
          <internalNodes>
            0 -1 318 1.9894585420843214e-04</internalNodes>
          <leafValues>
            -2.8387960791587830e-01 2.2069258987903595e-01</leafValues></_>
        <_>
          <internalNodes>
            0 -1 367 4.1239885613322258e-03</internalNodes>
          <leafValues>
            -2.5628113746643066e-01 2.4343197047710419e-01</leafValues></_>
        <_>
          <internalNodes>
            0 -1 130 9.1201797127723694e-02</internalNodes>
          <leafValues>
            -1.6767331957817078e-01 2.8386712074279785e-01</leafValues></_>
        <_>
          <internalNodes>
            0 -1 328 1.6092065197881311e-04</internalNodes>
          <leafValues>
            1.2671147286891937e-01 -3.9911466836929321e-01</leafValues></_>
        <_>
          <internalNodes>
            0 -1 160 1.4481774996966124e-03</internalNodes>
          <leafValues>
            -1.4693565666675568e-01 3.1963375210762024e-01</leafValues></_>
        <_>
          <internalNodes>
            0 -1 411 -1.9252196652814746e-03</internalNodes>
          <leafValues>
            2.4545955657958984e-01 -2.8689140081405640e-01</leafValues></_>
        <_>
          <internalNodes>
            0 -1 340 3.2063602702692151e-04</internalNodes>
          <leafValues>
            1.2996874749660492e-01 -4.5122742652893066e-01</leafValues></_>
        <_>
          <internalNodes>
            0 -1 443 -4.7647980973124504e-03</internalNodes>
          <leafValues>
            -8.1752365827560425e-01 7.1309842169284821e-02</leafValues></_>
        <_>
          <internalNodes>
            0 -1 182 7.1152281016111374e-03</internalNodes>
          <leafValues>
            4.9165412783622742e-02 -8.6968672275543213e-01</leafValues></_>
        <_>
          <internalNodes>
            0 -1 135 7.1813464164733887e-03</internalNodes>
          <leafValues>
            -1.8499207496643066e-01 2.7954587340354919e-01</leafValues></_>
        <_>
          <internalNodes>
            0 -1 391 4.4441362842917442e-03</internalNodes>
          <leafValues>
            1.3683651387691498e-01 -3.6493331193923950e-01</leafValues></_>
        <_>
          <internalNodes>
            0 -1 216 6.0122877359390259e-02</internalNodes>
          <leafValues>
            -1.1758454144001007e-01 4.0325570106506348e-01</leafValues></_>
        <_>
          <internalNodes>
            0 -1 317 9.7339712083339691e-03</internalNodes>
          <leafValues>
            -1.0263752937316895e-01 4.4387295842170715e-01</leafValues></_>
        <_>
          <internalNodes>
            0 -1 435 -5.1124987658113241e-04</internalNodes>
          <leafValues>
            3.8195487856864929e-01 -1.2727920711040497e-01</leafValues></_>
        <_>
          <internalNodes>
            0 -1 10 2.8683263808488846e-02</internalNodes>
          <leafValues>
            1.4512915909290314e-01 -3.4343272447586060e-01</leafValues></_>
        <_>
          <internalNodes>
            0 -1 105 -7.0126629434525967e-03</internalNodes>
          <leafValues>
            -6.4581400156021118e-01 5.8756254613399506e-02</leafValues></_>
        <_>
          <internalNodes>
            0 -1 221 3.1962126959115267e-03</internalNodes>
          <leafValues>
            -1.3413655757904053e-01 3.6926934123039246e-01</leafValues></_>
        <_>
          <internalNodes>
            0 -1 14 -5.3474428132176399e-03</internalNodes>
          <leafValues>
            -6.6663926839828491e-01 8.1252284348011017e-02</leafValues></_>
        <_>
          <internalNodes>
            0 -1 18 -3.5124015063047409e-02</internalNodes>
          <leafValues>
            2.6440283656120300e-01 -1.6999928653240204e-01</leafValues></_>
        <_>
          <internalNodes>
            0 -1 400 1.3950478285551071e-02</internalNodes>
          <leafValues>
            1.7027622461318970e-01 -3.3739733695983887e-01</leafValues></_>
        <_>
          <internalNodes>
            0 -1 342 4.6100188046693802e-03</internalNodes>
          <leafValues>
            -1.6891451179981232e-01 3.3498039841651917e-01</leafValues></_>
        <_>
          <internalNodes>
            0 -1 138 1.8238749355077744e-02</internalNodes>
          <leafValues>
            8.0421537160873413e-02 -6.4389538764953613e-01</leafValues></_>
        <_>
          <internalNodes>
            0 -1 426 -3.3200138714164495e-03</internalNodes>
          <leafValues>
            3.9710250496864319e-01 -1.3677369058132172e-01</leafValues></_>
        <_>
          <internalNodes>
            0 -1 106 1.1772299185395241e-02</internalNodes>
          <leafValues>
            1.0175672173500061e-01 -4.9120464920997620e-01</leafValues></_>
        <_>
          <internalNodes>
            0 -1 439 -1.1031361296772957e-02</internalNodes>
          <leafValues>
            -8.7713444232940674e-01 5.3643956780433655e-02</leafValues></_>
        <_>
          <internalNodes>
            0 -1 11 -1.6468532383441925e-02</internalNodes>
          <leafValues>
            -6.9103443622589111e-01 5.5248409509658813e-02</leafValues></_></weakClassifiers></_>
    <!-- stage 18 -->
    <_>
      <maxWeakCount>29</maxWeakCount>
      <stageThreshold>-1.2374696731567383e+00</stageThreshold>
      <weakClassifiers>
        <_>
          <internalNodes>
            0 -1 48 4.8316575586795807e-02</internalNodes>
          <leafValues>
            -3.3469387888908386e-01 7.0769232511520386e-01</leafValues></_>
        <_>
          <internalNodes>
            0 -1 386 8.8811118621379137e-04</internalNodes>
          <leafValues>
            1.2048459798097610e-01 -4.6412712335586548e-01</leafValues></_>
        <_>
          <internalNodes>
            0 -1 188 -1.2637650966644287e-01</internalNodes>
          <leafValues>
            -7.0585787296295166e-01 9.8836392164230347e-02</leafValues></_>
        <_>
          <internalNodes>
            0 -1 17 6.5795928239822388e-02</internalNodes>
          <leafValues>
            -5.5498726665973663e-02 7.5790363550186157e-01</leafValues></_>
        <_>
          <internalNodes>
            0 -1 240 5.1707461476325989e-02</internalNodes>
          <leafValues>
            -1.2027795612812042e-01 4.9991333484649658e-01</leafValues></_>
        <_>
          <internalNodes>
            0 -1 327 3.1866347417235374e-03</internalNodes>
          <leafValues>
            7.8305400907993317e-02 -5.9980583190917969e-01</leafValues></_>
        <_>
          <internalNodes>
            0 -1 337 4.1654572123661637e-04</internalNodes>
          <leafValues>
            -1.4790610969066620e-01 3.0912294983863831e-01</leafValues></_>
        <_>
          <internalNodes>
            0 -1 463 7.8468024730682373e-03</internalNodes>
          <leafValues>
            -1.6670253872871399e-01 2.6191085577011108e-01</leafValues></_>
        <_>
          <internalNodes>
            0 -1 166 -1.0874473303556442e-01</internalNodes>
          <leafValues>
            -8.8199692964553833e-01 4.8021934926509857e-02</leafValues></_>
        <_>
          <internalNodes>
            0 -1 346 -3.4210496232844889e-04</internalNodes>
          <leafValues>
            2.1183991432189941e-01 -2.1224546432495117e-01</leafValues></_>
        <_>
          <internalNodes>
            0 -1 78 5.8799218386411667e-03</internalNodes>
          <leafValues>
            -1.0062026977539062e-01 4.1468647122383118e-01</leafValues></_>
        <_>
          <internalNodes>
            0 -1 250 1.5898898243904114e-02</internalNodes>
          <leafValues>
            1.1832251399755478e-01 -3.6833032965660095e-01</leafValues></_>
        <_>
          <internalNodes>
            0 -1 162 -1.1706357821822166e-02</internalNodes>
          <leafValues>
            -9.0718245506286621e-01 3.0297642573714256e-02</leafValues></_>
        <_>
          <internalNodes>
            0 -1 450 1.0886741802096367e-03</internalNodes>
          <leafValues>
            1.0009476542472839e-01 -3.8030508160591125e-01</leafValues></_>
        <_>
          <internalNodes>
            0 -1 406 1.6726283356547356e-03</internalNodes>
          <leafValues>
            -1.0288659483194351e-01 4.4989052414894104e-01</leafValues></_>
        <_>
          <internalNodes>
            0 -1 429 2.9877671040594578e-03</internalNodes>
          <leafValues>
            -2.2941637039184570e-01 2.1881960332393646e-01</leafValues></_>
        <_>
          <internalNodes>
            0 -1 421 6.2193153426051140e-03</internalNodes>
          <leafValues>
            8.0021880567073822e-02 -6.4959871768951416e-01</leafValues></_>
        <_>
          <internalNodes>
            0 -1 225 5.8319652453064919e-03</internalNodes>
          <leafValues>
            -1.5493321418762207e-01 2.6351308822631836e-01</leafValues></_>
        <_>
          <internalNodes>
            0 -1 107 5.1875427365303040e-02</internalNodes>
          <leafValues>
            -8.7837837636470795e-02 5.2341520786285400e-01</leafValues></_>
        <_>
          <internalNodes>
            0 -1 132 3.6832923069596291e-03</internalNodes>
          <leafValues>
            -1.3090816140174866e-01 3.9208379387855530e-01</leafValues></_>
        <_>
          <internalNodes>
            0 -1 60 -2.0289927721023560e-02</internalNodes>
          <leafValues>
            2.0767480134963989e-01 -2.3466722667217255e-01</leafValues></_>
        <_>
          <internalNodes>
            0 -1 200 6.7617297172546387e-03</internalNodes>
          <leafValues>
            -2.2387057542800903e-01 2.5422281026840210e-01</leafValues></_>
        <_>
          <internalNodes>
            0 -1 370 -1.8284942489117384e-03</internalNodes>
          <leafValues>
            3.9373305439949036e-01 -1.2219291925430298e-01</leafValues></_>
        <_>
          <internalNodes>
            0 -1 249 4.5724213123321533e-03</internalNodes>
          <leafValues>
            6.0029797255992889e-02 -8.1008386611938477e-01</leafValues></_>
        <_>
          <internalNodes>
            0 -1 201 -1.0827543213963509e-02</internalNodes>
          <leafValues>
            -5.0267052650451660e-01 7.9183012247085571e-02</leafValues></_>
        <_>
          <internalNodes>
            0 -1 150 -2.3524235002696514e-03</internalNodes>
          <leafValues>
            2.7417287230491638e-01 -1.8816256523132324e-01</leafValues></_>
        <_>
          <internalNodes>
            0 -1 359 2.4357228539884090e-03</internalNodes>
          <leafValues>
            6.4794883131980896e-02 -6.8523687124252319e-01</leafValues></_>
        <_>
          <internalNodes>
            0 -1 63 -2.0475240307860076e-04</internalNodes>
          <leafValues>
            3.4847667813301086e-01 -1.3656139373779297e-01</leafValues></_>
        <_>
          <internalNodes>
            0 -1 381 3.2592598348855972e-02</internalNodes>
          <leafValues>
            -4.8321079462766647e-02 8.6903285980224609e-01</leafValues></_></weakClassifiers></_>
    <!-- stage 19 -->
    <_>
      <maxWeakCount>22</maxWeakCount>
      <stageThreshold>-6.5125143527984619e-01</stageThreshold>
      <weakClassifiers>
        <_>
          <internalNodes>
            0 -1 239 4.5209197560325265e-04</internalNodes>
          <leafValues>
            -3.9999999105930328e-02 5.7473683357238770e-01</leafValues></_>
        <_>
          <internalNodes>
            0 -1 121 -3.4198451787233353e-02</internalNodes>
          <leafValues>
            7.1532070636749268e-01 -9.5798484981060028e-02</leafValues></_>
        <_>
          <internalNodes>
            0 -1 4 6.8196177482604980e-01</internalNodes>
          <leafValues>
            -1.3215997815132141e-01 5.6104791164398193e-01</leafValues></_>
        <_>
          <internalNodes>
            0 -1 324 -3.7620709917973727e-05</internalNodes>
          <leafValues>
            2.4755801260471344e-01 -3.0909654498100281e-01</leafValues></_>
        <_>
          <internalNodes>
            0 -1 460 -1.3598836085293442e-04</internalNodes>
          <leafValues>
            2.6135477423667908e-01 -2.5454729795455933e-01</leafValues></_>
        <_>
          <internalNodes>
            0 -1 448 6.3083082437515259e-02</internalNodes>
          <leafValues>
            -5.1391933113336563e-02 1.</leafValues></_>
        <_>
          <internalNodes>
            0 -1 431 8.3246026188135147e-03</internalNodes>
          <leafValues>
            9.6781283617019653e-02 -7.2875511646270752e-01</leafValues></_>
        <_>
          <internalNodes>
            0 -1 96 -2.3254798725247383e-03</internalNodes>
          <leafValues>
            5.5566334724426270e-01 -1.2948422133922577e-01</leafValues></_>
        <_>
          <internalNodes>
            0 -1 393 -8.6375758051872253e-02</internalNodes>
          <leafValues>
            7.7472734451293945e-01 -4.8824474215507507e-02</leafValues></_>
        <_>
          <internalNodes>
            0 -1 377 -4.1729067452251911e-03</internalNodes>
          <leafValues>
            1.9528605043888092e-01 -3.1809079647064209e-01</leafValues></_>
        <_>
          <internalNodes>
            0 -1 231 -2.5667261332273483e-02</internalNodes>
          <leafValues>
            4.5022404193878174e-01 -1.3009434938430786e-01</leafValues></_>
        <_>
          <internalNodes>
            0 -1 64 -4.4539228838402778e-05</internalNodes>
          <leafValues>
            2.4481612443923950e-01 -2.9016381502151489e-01</leafValues></_>
        <_>
          <internalNodes>
            0 -1 321 -3.6459431052207947e-02</internalNodes>
          <leafValues>
            -6.1107635498046875e-01 1.0452509671449661e-01</leafValues></_>
        <_>
          <internalNodes>
            0 -1 453 2.3974350187927485e-03</internalNodes>
          <leafValues>
            -1.6944223642349243e-01 4.3814644217491150e-01</leafValues></_>
        <_>
          <internalNodes>
            0 -1 369 -3.3131635282188654e-03</internalNodes>
          <leafValues>
            5.0698864459991455e-01 -1.3088969886302948e-01</leafValues></_>
        <_>
          <internalNodes>
            0 -1 348 -7.6116772834211588e-04</internalNodes>
          <leafValues>
            -7.0381277799606323e-01 9.6858911216259003e-02</leafValues></_>
        <_>
          <internalNodes>
            0 -1 432 7.0907240733504295e-03</internalNodes>
          <leafValues>
            -1.9227470457553864e-01 3.4064927697181702e-01</leafValues></_>
        <_>
          <internalNodes>
            0 -1 258 1.5895406249910593e-03</internalNodes>
          <leafValues>
            -1.6277000308036804e-01 3.6896610260009766e-01</leafValues></_>
        <_>
          <internalNodes>
            0 -1 246 1.4020679518580437e-02</internalNodes>
          <leafValues>
            -2.9291456937789917e-01 2.2626662254333496e-01</leafValues></_>
        <_>
          <internalNodes>
            0 -1 83 -4.8123445361852646e-02</internalNodes>
          <leafValues>
            -4.6657612919807434e-01 1.5684710443019867e-01</leafValues></_>
        <_>
          <internalNodes>
            0 -1 191 -9.2500120401382446e-02</internalNodes>
          <leafValues>
            -5.1388067007064819e-01 1.1906445026397705e-01</leafValues></_>
        <_>
          <internalNodes>
            0 -1 409 -6.8383668549358845e-03</internalNodes>
          <leafValues>
            -5.1346915960311890e-01 1.0282145440578461e-01</leafValues></_></weakClassifiers></_>
    <!-- stage 20 -->
    <_>
      <maxWeakCount>24</maxWeakCount>
      <stageThreshold>-7.0970362424850464e-01</stageThreshold>
      <weakClassifiers>
        <_>
          <internalNodes>
            0 -1 378 -1.6165226697921753e-02</internalNodes>
          <leafValues>
            8.4313726425170898e-01 9.2198580503463745e-02</leafValues></_>
        <_>
          <internalNodes>
            0 -1 304 2.1708672284148633e-04</internalNodes>
          <leafValues>
            -2.2744745016098022e-01 3.1200510263442993e-01</leafValues></_>
        <_>
          <internalNodes>
            0 -1 23 4.9252081662416458e-03</internalNodes>
          <leafValues>
            1.0368116945028305e-01 -6.3795071840286255e-01</leafValues></_>
        <_>
          <internalNodes>
            0 -1 380 2.0804703235626221e-03</internalNodes>
          <leafValues>
            -2.0412831008434296e-01 3.4218457341194153e-01</leafValues></_>
        <_>
          <internalNodes>
            0 -1 387 4.8272448475472629e-04</internalNodes>
          <leafValues>
            1.1402546614408493e-01 -5.0075417757034302e-01</leafValues></_>
        <_>
          <internalNodes>
            0 -1 171 -8.5988771170377731e-03</internalNodes>
          <leafValues>
            4.0016344189643860e-01 -1.9721533358097076e-01</leafValues></_>
        <_>
          <internalNodes>
            0 -1 212 2.4984866380691528e-02</internalNodes>
          <leafValues>
            -2.3116232454776764e-01 2.9405564069747925e-01</leafValues></_>
        <_>
          <internalNodes>
            0 -1 455 -3.5018585622310638e-02</internalNodes>
          <leafValues>
            3.6450791358947754e-01 -1.4021967351436615e-01</leafValues></_>
        <_>
          <internalNodes>
            0 -1 71 2.2681610425934196e-04</internalNodes>
          <leafValues>
            -1.8913574516773224e-01 3.3848932385444641e-01</leafValues></_>
        <_>
          <internalNodes>
            0 -1 396 -3.5659846616908908e-05</internalNodes>
          <leafValues>
            2.6095768809318542e-01 -2.3679082095623016e-01</leafValues></_>
        <_>
          <internalNodes>
            0 -1 49 -1.8431383068673313e-04</internalNodes>
          <leafValues>
            3.4396922588348389e-01 -1.6111274063587189e-01</leafValues></_>
        <_>
          <internalNodes>
            0 -1 351 3.0003278516232967e-03</internalNodes>
          <leafValues>
            -1.1621548235416412e-01 4.2998978495597839e-01</leafValues></_>
        <_>
          <internalNodes>
            0 -1 385 4.0953727439045906e-03</internalNodes>
          <leafValues>
            1.0459148138761520e-01 -6.2188768386840820e-01</leafValues></_>
        <_>
          <internalNodes>
            0 -1 170 -6.1029515927657485e-04</internalNodes>
          <leafValues>
            2.5581139326095581e-01 -2.0375292003154755e-01</leafValues></_>
        <_>
          <internalNodes>
            0 -1 195 -3.4947223030030727e-03</internalNodes>
          <leafValues>
            3.5006052255630493e-01 -1.7386300861835480e-01</leafValues></_>
        <_>
          <internalNodes>
            0 -1 109 -2.5764733552932739e-01</internalNodes>
          <leafValues>
            -8.3611458539962769e-01 7.1991175413131714e-02</leafValues></_>
        <_>
          <internalNodes>
            0 -1 174 -1.4283871278166771e-02</internalNodes>
          <leafValues>
            -4.8959931731224060e-01 9.6101492643356323e-02</leafValues></_>
        <_>
          <internalNodes>
            0 -1 248 1.4837037306278944e-03</internalNodes>
          <leafValues>
            -1.7703166604042053e-01 2.8275483846664429e-01</leafValues></_>
        <_>
          <internalNodes>
            0 -1 176 -6.4054655376821756e-04</internalNodes>
          <leafValues>
            3.4041956067085266e-01 -1.5158249437808990e-01</leafValues></_>
        <_>
          <internalNodes>
            0 -1 245 -3.5108644515275955e-03</internalNodes>
          <leafValues>
            -7.0369195938110352e-01 8.6974896490573883e-02</leafValues></_>
        <_>
          <internalNodes>
            0 -1 232 -1.0255263186991215e-03</internalNodes>
          <leafValues>
            3.2672214508056641e-01 -1.5898925065994263e-01</leafValues></_>
        <_>
          <internalNodes>
            0 -1 202 1.7026884015649557e-03</internalNodes>
          <leafValues>
            -1.6558839380741119e-01 3.3232620358467102e-01</leafValues></_>
        <_>
          <internalNodes>
            0 -1 136 -9.4837788492441177e-04</internalNodes>
          <leafValues>
            3.4438917040824890e-01 -1.7294038832187653e-01</leafValues></_>
        <_>
          <internalNodes>
            0 -1 116 3.3119269646704197e-03</internalNodes>
          <leafValues>
            8.3339311182498932e-02 -6.5465205907821655e-01</leafValues></_></weakClassifiers></_>
    <!-- stage 21 -->
    <_>
      <maxWeakCount>16</maxWeakCount>
      <stageThreshold>-4.8769333958625793e-01</stageThreshold>
      <weakClassifiers>
        <_>
          <internalNodes>
            0 -1 34 1.0751599073410034e-01</internalNodes>
          <leafValues>
            7.5425788760185242e-02 8.2456141710281372e-01</leafValues></_>
        <_>
          <internalNodes>
            0 -1 343 2.3204108583740890e-04</internalNodes>
          <leafValues>
            -2.1360968053340912e-01 2.9682675004005432e-01</leafValues></_>
        <_>
          <internalNodes>
            0 -1 236 1.0451061651110649e-02</internalNodes>
          <leafValues>
            8.9042961597442627e-02 -8.3904033899307251e-01</leafValues></_>
        <_>
          <internalNodes>
            0 -1 322 -6.3164945458993316e-05</internalNodes>
          <leafValues>
            2.0093581080436707e-01 -2.7989736199378967e-01</leafValues></_>
        <_>
          <internalNodes>
            0 -1 45 -3.6723511293530464e-03</internalNodes>
          <leafValues>
            2.0780935883522034e-01 -3.5146579146385193e-01</leafValues></_>
        <_>
          <internalNodes>
            0 -1 140 1.9488659454509616e-03</internalNodes>
          <leafValues>
            -1.4543557167053223e-01 3.9155766367912292e-01</leafValues></_>
        <_>
          <internalNodes>
            0 -1 353 -1.4356994070112705e-02</internalNodes>
          <leafValues>
            2.1774981915950775e-01 -2.9319965839385986e-01</leafValues></_>
        <_>
          <internalNodes>
            0 -1 418 1.9941352307796478e-02</internalNodes>
          <leafValues>
            -1.4958922564983368e-01 3.8060051202774048e-01</leafValues></_>
        <_>
          <internalNodes>
            0 -1 397 8.8495954871177673e-02</internalNodes>
          <leafValues>
            6.5315105020999908e-02 -7.1328270435333252e-01</leafValues></_>
        <_>
          <internalNodes>
            0 -1 208 3.0219445470720530e-03</internalNodes>
          <leafValues>
            9.3858085572719574e-02 -6.1023437976837158e-01</leafValues></_>
        <_>
          <internalNodes>
            0 -1 117 1.2580588459968567e-02</internalNodes>
          <leafValues>
            -1.5232899785041809e-01 4.4798520207405090e-01</leafValues></_>
        <_>
          <internalNodes>
            0 -1 89 1.4162475243210793e-02</internalNodes>
          <leafValues>
            7.3915667831897736e-02 -9.4705587625503540e-01</leafValues></_>
        <_>
          <internalNodes>
            0 -1 417 1.9945396110415459e-02</internalNodes>
          <leafValues>
            7.1974508464336395e-02 -7.0046466588973999e-01</leafValues></_>
        <_>
          <internalNodes>
            0 -1 350 2.6931073516607285e-03</internalNodes>
          <leafValues>
            1.9598001241683960e-01 -3.3088314533233643e-01</leafValues></_>
        <_>
          <internalNodes>
            0 -1 210 3.8143941201269627e-03</internalNodes>
          <leafValues>
            1.1549447476863861e-01 -5.7785969972610474e-01</leafValues></_>
        <_>
          <internalNodes>
            0 -1 404 8.2678562030196190e-03</internalNodes>
          <leafValues>
            6.5075837075710297e-02 -7.7263855934143066e-01</leafValues></_></weakClassifiers></_>
    <!-- stage 22 -->
    <_>
      <maxWeakCount>20</maxWeakCount>
      <stageThreshold>-8.2734513282775879e-01</stageThreshold>
      <weakClassifiers>
        <_>
          <internalNodes>
            0 -1 325 -1.4810156077146530e-02</internalNodes>
          <leafValues>
            8.3829784393310547e-01 6.5030671656131744e-02</leafValues></_>
        <_>
          <internalNodes>
            0 -1 91 2.7749088406562805e-01</internalNodes>
          <leafValues>
            -2.6064857840538025e-02 1.</leafValues></_>
        <_>
          <internalNodes>
            0 -1 234 3.2264594919979572e-03</internalNodes>
          <leafValues>
            1.0974082350730896e-01 -6.5641486644744873e-01</leafValues></_>
        <_>
          <internalNodes>
            0 -1 382 3.0115400440990925e-03</internalNodes>
          <leafValues>
            1.6779769957065582e-01 -4.0773400664329529e-01</leafValues></_>
        <_>
          <internalNodes>
            0 -1 113 -4.9088723957538605e-02</internalNodes>
          <leafValues>
            -9.2633837461471558e-01 8.2714103162288666e-02</leafValues></_>
        <_>
          <internalNodes>
            0 -1 238 -1.3033866416662931e-03</internalNodes>
          <leafValues>
            5.0706976652145386e-01 -1.6560357809066772e-01</leafValues></_>
        <_>
          <internalNodes>
            0 -1 147 2.6115383952856064e-02</internalNodes>
          <leafValues>
            7.7319681644439697e-02 -8.2549971342086792e-01</leafValues></_>
        <_>
          <internalNodes>
            0 -1 315 1.4833842869848013e-03</internalNodes>
          <leafValues>
            -1.8892896175384521e-01 3.7505626678466797e-01</leafValues></_>
        <_>
          <internalNodes>
            0 -1 5 -3.2949534058570862e-01</internalNodes>
          <leafValues>
            -7.9080677032470703e-01 8.0144926905632019e-02</leafValues></_>
        <_>
          <internalNodes>
            0 -1 294 3.8527499418705702e-04</internalNodes>
          <leafValues>
            1.7354239523410797e-01 -4.2618340253829956e-01</leafValues></_>
        <_>
          <internalNodes>
            0 -1 81 -5.7453089539194480e-05</internalNodes>
          <leafValues>
            3.2258766889572144e-01 -2.1851927042007446e-01</leafValues></_>
        <_>
          <internalNodes>
            0 -1 164 -2.5154888862743974e-04</internalNodes>
          <leafValues>
            2.8671604394912720e-01 -2.9005253314971924e-01</leafValues></_>
        <_>
          <internalNodes>
            0 -1 309 -2.9553018976002932e-04</internalNodes>
          <leafValues>
            -5.7133370637893677e-01 1.3067916035652161e-01</leafValues></_>
        <_>
          <internalNodes>
            0 -1 80 -1.8176409602165222e-01</internalNodes>
          <leafValues>
            4.7031471133232117e-01 -1.8023280799388885e-01</leafValues></_>
        <_>
          <internalNodes>
            0 -1 95 -3.0114324763417244e-03</internalNodes>
          <leafValues>
            6.1379235982894897e-01 -1.3363017141819000e-01</leafValues></_>
        <_>
          <internalNodes>
            0 -1 93 1.0877178981900215e-02</internalNodes>
          <leafValues>
            1.4293344318866730e-01 -7.6304602622985840e-01</leafValues></_>
        <_>
          <internalNodes>
            0 -1 142 -5.0942006055265665e-05</internalNodes>
          <leafValues>
            3.4361141920089722e-01 -2.3344519734382629e-01</leafValues></_>
        <_>
          <internalNodes>
            0 -1 165 -4.5330673456192017e-03</internalNodes>
          <leafValues>
            5.4877936840057373e-01 -1.5034008026123047e-01</leafValues></_>
        <_>
          <internalNodes>
            0 -1 384 -2.2758240811526775e-03</internalNodes>
          <leafValues>
            6.7339265346527100e-01 -1.0365076363086700e-01</leafValues></_>
        <_>
          <internalNodes>
            0 -1 229 9.8465606570243835e-03</internalNodes>
          <leafValues>
            -1.6677980124950409e-01 4.5874828100204468e-01</leafValues></_></weakClassifiers></_>
    <!-- stage 23 -->
    <_>
      <maxWeakCount>22</maxWeakCount>
      <stageThreshold>-8.8709694147109985e-01</stageThreshold>
      <weakClassifiers>
        <_>
          <internalNodes>
            0 -1 185 1.8601857125759125e-02</internalNodes>
          <leafValues>
            -1.2385321408510208e-01 4.9511399865150452e-01</leafValues></_>
        <_>
          <internalNodes>
            0 -1 178 1.8121914472430944e-03</internalNodes>
          <leafValues>
            -2.0366255939006805e-01 4.1712427139282227e-01</leafValues></_>
        <_>
          <internalNodes>
            0 -1 252 1.2472788803279400e-03</internalNodes>
          <leafValues>
            -2.2888079285621643e-01 3.6904853582382202e-01</leafValues></_>
        <_>
          <internalNodes>
            0 -1 194 -7.5734108686447144e-03</internalNodes>
          <leafValues>
            7.1506792306900024e-01 -1.6935314238071442e-01</leafValues></_>
        <_>
          <internalNodes>
            0 -1 440 -1.7072258051484823e-03</internalNodes>
          <leafValues>
            -4.5497891306877136e-01 2.0955219864845276e-01</leafValues></_>
        <_>
          <internalNodes>
            0 -1 219 -5.1054134964942932e-03</internalNodes>
          <leafValues>
            6.5671116113662720e-01 -1.0905385017395020e-01</leafValues></_>
        <_>
          <internalNodes>
            0 -1 209 4.9688474973663688e-05</internalNodes>
          <leafValues>
            -1.7221730947494507e-01 4.6482282876968384e-01</leafValues></_>
        <_>
          <internalNodes>
            0 -1 134 -1.0849483078345656e-03</internalNodes>
          <leafValues>
            4.0336367487907410e-01 -1.6892874240875244e-01</leafValues></_>
        <_>
          <internalNodes>
            0 -1 118 4.0115099400281906e-03</internalNodes>
          <leafValues>
            -1.4067439734935760e-01 5.6213253736495972e-01</leafValues></_>
        <_>
          <internalNodes>
            0 -1 446 -9.0457347687333822e-04</internalNodes>
          <leafValues>
            5.0324338674545288e-01 -1.4138737320899963e-01</leafValues></_>
        <_>
          <internalNodes>
            0 -1 172 2.0255286246538162e-02</internalNodes>
          <leafValues>
            9.7496002912521362e-02 -8.9224278926849365e-01</leafValues></_>
        <_>
          <internalNodes>
            0 -1 423 1.2452797964215279e-03</internalNodes>
          <leafValues>
            -1.9271883368492126e-01 4.0401008725166321e-01</leafValues></_>
        <_>
          <internalNodes>
            0 -1 272 -1.5312449540942907e-03</internalNodes>
          <leafValues>
            1.6358736157417297e-01 -4.3555518984794617e-01</leafValues></_>
        <_>
          <internalNodes>
            0 -1 433 -5.7182784075848758e-05</internalNodes>
          <leafValues>
            3.6870756745338440e-01 -1.9544740021228790e-01</leafValues></_>
        <_>
          <internalNodes>
            0 -1 361 -9.3339383602142334e-03</internalNodes>
          <leafValues>
            6.2324488162994385e-01 -1.1572728306055069e-01</leafValues></_>
        <_>
          <internalNodes>
            0 -1 392 1.1361644603312016e-02</internalNodes>
          <leafValues>
            1.8737347424030304e-01 -4.2714294791221619e-01</leafValues></_>
        <_>
          <internalNodes>
            0 -1 390 1.6182345570996404e-03</internalNodes>
          <leafValues>
            -1.2658788263797760e-01 6.2282264232635498e-01</leafValues></_>
        <_>
          <internalNodes>
            0 -1 362 6.0708867385983467e-03</internalNodes>
          <leafValues>
            -1.7980484664440155e-01 3.7274944782257080e-01</leafValues></_>
        <_>
          <internalNodes>
            0 -1 84 3.2943326514214277e-03</internalNodes>
          <leafValues>
            1.1365812271833420e-01 -7.1514570713043213e-01</leafValues></_>
        <_>
          <internalNodes>
            0 -1 255 -3.6826981231570244e-03</internalNodes>
          <leafValues>
            -3.5029521584510803e-01 2.0261177420616150e-01</leafValues></_>
        <_>
          <internalNodes>
            0 -1 424 -1.1429926380515099e-03</internalNodes>
          <leafValues>
            5.5146783590316772e-01 -1.3577032089233398e-01</leafValues></_>
        <_>
          <internalNodes>
            0 -1 185 -1.2839769944548607e-02</internalNodes>
          <leafValues>
            4.8520883917808533e-01 -1.4614395797252655e-01</leafValues></_></weakClassifiers></_></stages>
  <features>
    <_>
      <rects>
        <_>
          0 0 8 4 -1.</_>
        <_>
          4 0 4 4 2.</_></rects>
      <tilted>0</tilted></_>
    <_>
      <rects>
        <_>
          0 0 18 25 -1.</_>
        <_>
          9 0 9 25 2.</_></rects>
      <tilted>0</tilted></_>
    <_>
      <rects>
        <_>
          0 0 25 16 -1.</_>
        <_>
          0 8 25 8 2.</_></rects>
      <tilted>0</tilted></_>
    <_>
      <rects>
        <_>
          0 0 25 18 -1.</_>
        <_>
          0 9 25 9 2.</_></rects>
      <tilted>0</tilted></_>
    <_>
      <rects>
        <_>
          0 0 25 22 -1.</_>
        <_>
          0 11 25 11 2.</_></rects>
      <tilted>0</tilted></_>
    <_>
      <rects>
        <_>
          0 1 22 24 -1.</_>
        <_>
          11 1 11 24 2.</_></rects>
      <tilted>0</tilted></_>
    <_>
      <rects>
        <_>
          0 3 3 15 -1.</_>
        <_>
          0 8 3 5 3.</_></rects>
      <tilted>0</tilted></_>
    <_>
      <rects>
        <_>
          0 3 6 15 -1.</_>
        <_>
          0 8 6 5 3.</_></rects>
      <tilted>0</tilted></_>
    <_>
      <rects>
        <_>
          0 3 25 12 -1.</_>
        <_>
          0 9 25 6 2.</_></rects>
      <tilted>0</tilted></_>
    <_>
      <rects>
        <_>
          0 4 5 10 -1.</_>
        <_>
          0 9 5 5 2.</_></rects>
      <tilted>0</tilted></_>
    <_>
      <rects>
        <_>
          0 4 23 12 -1.</_>
        <_>
          0 8 23 4 3.</_></rects>
      <tilted>0</tilted></_>
    <_>
      <rects>
        <_>
          0 5 1 20 -1.</_>
        <_>
          0 15 1 10 2.</_></rects>
      <tilted>0</tilted></_>
    <_>
      <rects>
        <_>
          0 5 4 7 -1.</_>
        <_>
          2 5 2 7 2.</_></rects>
      <tilted>0</tilted></_>
    <_>
      <rects>
        <_>
          0 6 4 10 -1.</_>
        <_>
          1 6 2 10 2.</_></rects>
      <tilted>0</tilted></_>
    <_>
      <rects>
        <_>
          0 6 4 6 -1.</_>
        <_>
          0 6 2 3 2.</_>
        <_>
          2 9 2 3 2.</_></rects>
      <tilted>0</tilted></_>
    <_>
      <rects>
        <_>
          0 7 24 14 -1.</_>
        <_>
          6 7 12 14 2.</_></rects>
      <tilted>0</tilted></_>
    <_>
      <rects>
        <_>
          0 7 14 14 -1.</_>
        <_>
          7 7 7 14 2.</_></rects>
      <tilted>0</tilted></_>
    <_>
      <rects>
        <_>
          0 9 24 4 -1.</_>
        <_>
          0 11 24 2 2.</_></rects>
      <tilted>0</tilted></_>
    <_>
