<?xml version="1.0"?>
<opencv_storage>
<cascade>
  <stageType>BOOST</stageType>
  <featureType>HAAR</featureType>
  <height>50</height>
  <width>50</width>
  <stageParams>
    <boostType>GAB</boostType>
    <minHitRate>9.9500000476837158e-01</minHitRate>
    <maxFalseAlarm>5.0000000000000000e-01</maxFalseAlarm>
    <weightTrimRate>9.4999999999999996e-01</weightTrimRate>
    <maxDepth>1</maxDepth>
    <maxWeakCount>100</maxWeakCount></stageParams>
  <featureParams>
    <maxCatCount>0</maxCatCount>
    <featSize>1</featSize>
    <mode>BASIC</mode></featureParams>
  <stageNum>10</stageNum>
  <stages>
    <!-- stage 0 -->
    <_>
      <maxWeakCount>3</maxWeakCount>
      <stageThreshold>-8.4655451774597168e-01</stageThreshold>
      <weakClassifiers>
        <_>
          <internalNodes>
            0 -1 5 -1.7352227587252855e-03</internalNodes>
          <leafValues>
            7.5721859931945801e-01 -6.8990039825439453e-01</leafValues></_>
        <_>
          <internalNodes>
            0 -1 27 1.4029422891326249e-04</internalNodes>
          <leafValues>
            -9.6394014358520508e-01 4.9979147315025330e-01</leafValues></_>
        <_>
          <internalNodes>
            0 -1 7 1.2463195249438286e-02</internalNodes>
          <leafValues>
            -6.5644556283950806e-01 5.5884009599685669e-01</leafValues></_></weakClassifiers></_>
    <!-- stage 1 -->
    <_>
      <maxWeakCount>4</maxWeakCount>
      <stageThreshold>-1.1142233610153198e+00</stageThreshold>
      <weakClassifiers>
        <_>
          <internalNodes>
            0 -1 4 -1.5083983540534973e-02</internalNodes>
          <leafValues>
            7.3373132944107056e-01 -5.9172415733337402e-01</leafValues></_>
        <_>
          <internalNodes>
            0 -1 11 1.2543681077659130e-02</internalNodes>
          <leafValues>
            -6.6556406021118164e-01 5.5068880319595337e-01</leafValues></_>
        <_>
          <internalNodes>
            0 -1 3 4.3011000379920006e-03</internalNodes>
          <leafValues>
            -4.6013429760932922e-01 6.4579802751541138e-01</leafValues></_>
        <_>
          <internalNodes>
            0 -1 15 -9.6350186504423618e-04</internalNodes>
          <leafValues>
            4.0674254298210144e-01 -7.2225636243820190e-01</leafValues></_></weakClassifiers></_>
    <!-- stage 2 -->
    <_>
      <maxWeakCount>5</maxWeakCount>
      <stageThreshold>-7.2325348854064941e-01</stageThreshold>
      <weakClassifiers>
        <_>
          <internalNodes>
            0 -1 31 -1.2878989800810814e-02</internalNodes>
          <leafValues>
            -8.8888889551162720e-01 5.4901963472366333e-01</leafValues></_>
        <_>
          <internalNodes>
            0 -1 20 1.5995325520634651e-02</internalNodes>
          <leafValues>
            -4.6146783232688904e-01 5.5825722217559814e-01</leafValues></_>
        <_>
          <internalNodes>
            0 -1 51 1.4869742153678089e-04</internalNodes>
          <leafValues>
            -8.3459705114364624e-01 3.7440520524978638e-01</leafValues></_>
        <_>
          <internalNodes>
            0 -1 21 -4.0778149850666523e-03</internalNodes>
          <leafValues>
            6.8568545579910278e-01 -4.0427938103675842e-01</leafValues></_>
        <_>
          <internalNodes>
            0 -1 2 -9.5244403928518295e-03</internalNodes>
          <leafValues>
            7.2846001386642456e-01 -4.3298745155334473e-01</leafValues></_></weakClassifiers></_>
    <!-- stage 3 -->
    <_>
      <maxWeakCount>4</maxWeakCount>
      <stageThreshold>-5.6715041399002075e-01</stageThreshold>
      <weakClassifiers>
        <_>
          <internalNodes>
            0 -1 29 -4.0161255747079849e-03</internalNodes>
          <leafValues>
            -9.6996998786926270e-01 5.4329949617385864e-01</leafValues></_>
        <_>
          <internalNodes>
            0 -1 42 1.9792528473772109e-04</internalNodes>
          <leafValues>
            3.7826189398765564e-01 -8.6889106035232544e-01</leafValues></_>
        <_>
          <internalNodes>
            0 -1 25 1.8025828467216343e-05</internalNodes>
          <leafValues>
            2.8422859311103821e-01 -7.6556938886642456e-01</leafValues></_>
        <_>
          <internalNodes>
            0 -1 17 1.7571577802300453e-02</internalNodes>
          <leafValues>
            -5.2578741312026978e-01 4.4626861810684204e-01</leafValues></_></weakClassifiers></_>
    <!-- stage 4 -->
    <_>
      <maxWeakCount>5</maxWeakCount>
      <stageThreshold>-8.0856668949127197e-01</stageThreshold>
      <weakClassifiers>
        <_>
          <internalNodes>
            0 -1 50 1.3663718709722161e-04</internalNodes>
          <leafValues>
            5.5873644351959229e-01 -8.8770055770874023e-01</leafValues></_>
        <_>
          <internalNodes>
            0 -1 1 8.3899833261966705e-03</internalNodes>
          <leafValues>
            -5.5849528312683105e-01 4.4382560253143311e-01</leafValues></_>
        <_>
          <internalNodes>
            0 -1 46 -6.7964527988806367e-04</internalNodes>
          <leafValues>
            -9.2770195007324219e-01 3.1057390570640564e-01</leafValues></_>
        <_>
          <internalNodes>
            0 -1 8 -1.9403997808694839e-02</internalNodes>
          <leafValues>
            7.7890229225158691e-01 -3.7726694345474243e-01</leafValues></_>
        <_>
          <internalNodes>
            0 -1 16 -2.7815187349915504e-03</internalNodes>
          <leafValues>
            6.3479030132293701e-01 -4.5184707641601562e-01</leafValues></_></weakClassifiers></_>
    <!-- stage 5 -->
    <_>
      <maxWeakCount>6</maxWeakCount>
      <stageThreshold>-6.5090072154998779e-01</stageThreshold>
      <weakClassifiers>
        <_>
          <internalNodes>
            0 -1 39 -2.2540676582138985e-05</internalNodes>
          <leafValues>
            -7.6941174268722534e-01 5.7063293457031250e-01</leafValues></_>
        <_>
          <internalNodes>
            0 -1 40 2.2964263916946948e-04</internalNodes>
          <leafValues>
            3.7637636065483093e-01 -9.0966063737869263e-01</leafValues></_>
        <_>
          <internalNodes>
            0 -1 38 3.2849572598934174e-03</internalNodes>
          <leafValues>
            -5.2378994226455688e-01 4.6480759978294373e-01</leafValues></_>
        <_>
          <internalNodes>
            0 -1 22 1.0574152693152428e-02</internalNodes>
          <leafValues>
            -3.4894669055938721e-01 7.9900687932968140e-01</leafValues></_>
        <_>
          <internalNodes>
            0 -1 34 1.7636870325077325e-05</internalNodes>
          <leafValues>
            -5.7948708534240723e-01 3.8399374485015869e-01</leafValues></_>
        <_>
          <internalNodes>
            0 -1 54 2.1406282030511647e-04</internalNodes>
          <leafValues>
            2.3087757825851440e-01 -9.0149050951004028e-01</leafValues></_></weakClassifiers></_>
    <!-- stage 6 -->
    <_>
      <maxWeakCount>7</maxWeakCount>
      <stageThreshold>-5.5816888809204102e-01</stageThreshold>
      <weakClassifiers>
        <_>
          <internalNodes>
            0 -1 53 -1.1017055658157915e-04</internalNodes>
          <leafValues>
            -7.5193798542022705e-01 5.4197716712951660e-01</leafValues></_>
        <_>
          <internalNodes>
            0 -1 12 1.0774158872663975e-02</internalNodes>
          <leafValues>
            -6.7365568876266479e-01 3.5224488377571106e-01</leafValues></_>
        <_>
          <internalNodes>
            0 -1 35 3.9979502616915852e-05</internalNodes>
          <leafValues>
            -7.7384144067764282e-01 3.0536121129989624e-01</leafValues></_>
        <_>
          <internalNodes>
            0 -1 28 -9.9408682435750961e-03</internalNodes>
          <leafValues>
            7.1976900100708008e-01 -3.5055062174797058e-01</leafValues></_>
        <_>
          <internalNodes>
            0 -1 36 1.0119045618921518e-03</internalNodes>
          <leafValues>
            2.7450937032699585e-01 -8.8180249929428101e-01</leafValues></_>
        <_>
          <internalNodes>
            0 -1 30 -2.9756710864603519e-04</internalNodes>
          <leafValues>
            2.6913619041442871e-01 -6.7787140607833862e-01</leafValues></_>
        <_>
          <internalNodes>
            0 -1 52 -1.8643665825948119e-03</internalNodes>
          <leafValues>
            4.5496088266372681e-01 -4.6602270007133484e-01</leafValues></_></weakClassifiers></_>
    <!-- stage 7 -->
    <_>
      <maxWeakCount>7</maxWeakCount>
      <stageThreshold>-6.5588015317916870e-01</stageThreshold>
      <weakClassifiers>
        <_>
          <internalNodes>
            0 -1 41 3.4035040243907133e-06</internalNodes>
          <leafValues>
            -6.5217393636703491e-01 5.6701028347015381e-01</leafValues></_>
        <_>
          <internalNodes>
            0 -1 44 1.4044842100702226e-04</internalNodes>
          <leafValues>
            2.5029006600379944e-01 -9.2854768037796021e-01</leafValues></_>
        <_>
          <internalNodes>
            0 -1 6 3.0144038610160351e-03</internalNodes>
          <leafValues>
            -4.1795411705970764e-01 4.3397688865661621e-01</leafValues></_>
        <_>
          <internalNodes>
            0 -1 13 -4.3038176372647285e-03</internalNodes>
          <leafValues>
            5.8757823705673218e-01 -3.5422393679618835e-01</leafValues></_>
        <_>
          <internalNodes>
            0 -1 0 6.2420576810836792e-02</internalNodes>
          <leafValues>
            -2.7689319849014282e-01 7.7657574415206909e-01</leafValues></_>
        <_>
          <internalNodes>
            0 -1 49 -1.1323914077365771e-04</internalNodes>
          <leafValues>
            -7.9996228218078613e-01 2.9727521538734436e-01</leafValues></_>
        <_>
          <internalNodes>
            0 -1 23 -6.2715727835893631e-03</internalNodes>
          <leafValues>
            6.5323507785797119e-01 -3.2487699389457703e-01</leafValues></_></weakClassifiers></_>
    <!-- stage 8 -->
    <_>
      <maxWeakCount>9</maxWeakCount>
      <stageThreshold>-1.0023010969161987e+00</stageThreshold>
      <weakClassifiers>
        <_>
          <internalNodes>
            0 -1 37 -2.2853710106573999e-04</internalNodes>
          <leafValues>
            5.2988445758819580e-01 -6.2347185611724854e-01</leafValues></_>
        <_>
          <internalNodes>
            0 -1 33 2.6894100301433355e-05</internalNodes>
          <leafValues>
            -6.1099928617477417e-01 3.5657414793968201e-01</leafValues></_>
        <_>
          <internalNodes>
            0 -1 32 -2.0785562694072723e-02</internalNodes>
          <leafValues>
            -7.2592920064926147e-01 2.6906090974807739e-01</leafValues></_>
        <_>
          <internalNodes>
            0 -1 14 4.4133905321359634e-03</internalNodes>
          <leafValues>
            -3.6507874727249146e-01 5.1754760742187500e-01</leafValues></_>
        <_>
          <internalNodes>
            0 -1 48 2.1332933101803064e-04</internalNodes>
          <leafValues>
            2.2097653150558472e-01 -8.8798666000366211e-01</leafValues></_>
        <_>
          <internalNodes>
            0 -1 43 7.9102821473497897e-05</internalNodes>
          <leafValues>
            -5.6630980968475342e-01 3.3151566982269287e-01</leafValues></_>
        <_>
          <internalNodes>
            0 -1 10 -1.4090619515627623e-03</internalNodes>
          <leafValues>
            5.3929734230041504e-01 -3.7681108713150024e-01</leafValues></_>
        <_>
          <internalNodes>
            0 -1 18 1.7432385357096791e-03</internalNodes>
          <leafValues>
            -3.5182577371597290e-01 5.2372765541076660e-01</leafValues></_>
        <_>
          <internalNodes>
            0 -1 9 -1.1348042171448469e-03</internalNodes>
          <leafValues>
            4.3690410256385803e-01 -4.1561400890350342e-01</leafValues></_></weakClassifiers></_>
    <!-- stage 9 -->
    <_>
      <maxWeakCount>7</maxWeakCount>
      <stageThreshold>-9.7858422994613647e-01</stageThreshold>
      <weakClassifiers>
        <_>
          <internalNodes>
            0 -1 56 -2.2513930161949247e-05</internalNodes>
          <leafValues>
            -6.1428570747375488e-01 5.3434342145919800e-01</leafValues></_>
        <_>
          <internalNodes>
            0 -1 26 -1.6871957108378410e-02</internalNodes>
          <leafValues>
            -8.5770654678344727e-01 2.4856351315975189e-01</leafValues></_>
        <_>
          <internalNodes>
            0 -1 47 -6.9294386776164174e-05</internalNodes>
          <leafValues>
            2.9790157079696655e-01 -6.8447667360305786e-01</leafValues></_>
        <_>
          <internalNodes>
            0 -1 24 -2.4654339067637920e-03</internalNodes>
          <leafValues>
            4.3805754184722900e-01 -4.6449294686317444e-01</leafValues></_>
        <_>
          <internalNodes>
            0 -1 55 2.5201828684657812e-03</internalNodes>
          <leafValues>
            -4.3295705318450928e-01 4.1118124127388000e-01</leafValues></_>
        <_>
          <internalNodes>
            0 -1 19 1.8732920289039612e-03</internalNodes>
          <leafValues>
            -2.8537574410438538e-01 7.3567402362823486e-01</leafValues></_>
        <_>
          <internalNodes>
            0 -1 45 -8.0453304690308869e-05</internalNodes>
          <leafValues>
            -9.1523849964141846e-01 2.0827303826808929e-01</leafValues></_></weakClassifiers></_></stages>
  <features>
    <_>
      <rects>
        <_>
          0 7 15 17 -1.</_>
        <_>
          5 7 5 17 3.</_></rects>
      <tilted>0</tilted></_>
    <_>
      <rects>
        <_>
          2 36 24 5 -1.</_>
        <_>
          10 36 8 5 3.</_></rects>
      <tilted>0</tilted></_>
    <_>
      <rects>
        <_>
          5 12 12 5 -1.</_>
        <_>
          11 12 6 5 2.</_></rects>
      <tilted>0</tilted></_>
    <_>
      <rects>
        <_>
          5 15 6 14 -1.</_>
        <_>
          5 15 3 7 2.</_>
        <_>
          8 22 3 7 2.</_></rects>
      <tilted>0</tilted></_>
    <_>
      <rects>
        <_>
          6 9 20 22 -1.</_>
        <_>
          16 9 10 22 2.</_></rects>
      <tilted>0</tilted></_>
    <_>
      <rects>
        <_>
          6 11 26 2 -1.</_>
        <_>
          19 11 13 2 2.</_></rects>
      <tilted>0</tilted></_>
    <_>
      <rects>
        <_>
          6 12 4 18 -1.</_>
        <_>
          6 12 2 9 2.</_>
        <_>
          8 21 2 9 2.</_></rects>
      <tilted>0</tilted></_>
    <_>
      <rects>
        <_>
          6 31 18 11 -1.</_>
        <_>
          12 31 6 11 3.</_></rects>
      <tilted>0</tilted></_>
    <_>
      <rects>
        <_>
          7 12 8 13 -1.</_>
        <_>
          11 12 4 13 2.</_></rects>
      <tilted>0</tilted></_>
    <_>
      <rects>
        <_>
          9 12 4 5 -1.</_>
        <_>
          11 12 2 5 2.</_></rects>
      <tilted>0</tilted></_>
    <_>
      <rects>
        <_>
          9 27 3 6 -1.</_>
        <_>
          9 30 3 3 2.</_></rects>
      <tilted>0</tilted></_>
    <_>
      <rects>
        <_>
          9 33 24 14 -1.</_>
        <_>
          9 33 12 7 2.</_>
        <_>
          21 40 12 7 2.</_></rects>
      <tilted>0</tilted></_>
    <_>
      <rects>
        <_>
          9 34 28 12 -1.</_>
        <_>
          9 34 14 6 2.</_>
        <_>
          23 40 14 6 2.</_></rects>
      <tilted>0</tilted></_>
    <_>
      <rects>
        <_>
          10 0 24 4 -1.</_>
        <_>
          10 0 12 2 2.</_>
        <_>
          22 2 12 2 2.</_></rects>
      <tilted>0</tilted></_>
    <_>
      <rects>
        <_>
          10 0 13 6 -1.</_>
        <_>
          10 2 13 2 3.</_></rects>
      <tilted>0</tilted></_>
    <_>
      <rects>
        <_>
          10 9 30 2 -1.</_>
        <_>
          25 9 15 2 2.</_></rects>
      <tilted>0</tilted></_>
    <_>
      <rects>
        <_>
          11 4 15 4 -1.</_>
        <_>
          11 6 15 2 2.</_></rects>
      <tilted>0</tilted></_>
    <_>
      <rects>
        <_>
          11 20 8 30 -1.</_>
        <_>
          11 30 8 10 3.</_></rects>
      <tilted>0</tilted></_>
    <_>
      <rects>
        <_>
          11 21 1 24 -1.</_>
        <_>
          11 29 1 8 3.</_></rects>
      <tilted>0</tilted></_>
    <_>
      <rects>
        <_>
          12 1 15 2 -1.</_>
        <_>
          12 2 15 1 2.</_></rects>
      <tilted>0</tilted></_>
    <_>
      <rects>
        <_>
          12 23 5 27 -1.</_>
        <_>
          12 32 5 9 3.</_></rects>
      <tilted>0</tilted></_>
    <_>
      <rects>
        <_>
          14 0 20 4 -1.</_>
        <_>
          14 0 10 2 2.</_>
        <_>
          24 2 10 2 2.</_></rects>
      <tilted>0</tilted></_>
    <_>
      <rects>
        <_>
          14 0 11 9 -1.</_>
        <_>
          14 3 11 3 3.</_></rects>
      <tilted>0</tilted></_>
    <_>
      <rects>
        <_>
          15 46 23 4 -1.</_>
        <_>
          15 48 23 2 2.</_></rects>
      <tilted>0</tilted></_>
    <_>
      <rects>
        <_>
          18 35 8 9 -1.</_>
        <_>
          18 38 8 3 3.</_></rects>
      <tilted>0</tilted></_>
    <_>
      <rects>
        <_>
          19 36 8 6 -1.</_>
        <_>
          19 38 8 2 3.</_></rects>
      <tilted>0</tilted></_>
    <_>
      <rects>
        <_>
          20 5 17 42 -1.</_>
        <_>
          20 26 17 21 2.</_></rects>
      <tilted>0</tilted></_>
    <_>
      <rects>
        <_>
          20 29 14 18 -1.</_>
        <_>
          20 38 14 9 2.</_></rects>
      <tilted>0</tilted></_>
    <_>
      <rects>
        <_>
          21 44 14 6 -1.</_>
        <_>
          21 47 14 3 2.</_></rects>
      <tilted>0</tilted></_>
    <_>
      <rects>
        <_>
          22 25 8 12 -1.</_>
        <_>
          22 31 8 6 2.</_></rects>
      <tilted>0</tilted></_>
    <_>
      <rects>
        <_>
          23 5 9 6 -1.</_>
        <_>
          23 8 9 3 2.</_></rects>
      <tilted>0</tilted></_>
    <_>
      <rects>
        <_>
          24 5 7 26 -1.</_>
        <_>
          24 18 7 13 2.</_></rects>
      <tilted>0</tilted></_>
    <_>
      <rects>
        <_>
          24 19 5 30 -1.</_>
        <_>
          24 29 5 10 3.</_></rects>
      <tilted>0</tilted></_>
    <_>
      <rects>
        <_>
          25 22 2 5 -1.</_>
        <_>
          26 22 1 5 2.</_></rects>
      <tilted>0</tilted></_>
    <_>
      <rects>
        <_>
          25 23 2 9 -1.</_>
        <_>
          26 23 1 9 2.</_></rects>
      <tilted>0</tilted></_>
    <_>
      <rects>
        <_>
          25 23 4 6 -1.</_>
        <_>
          27 23 2 6 2.</_></rects>
      <tilted>0</tilted></_>
    <_>
      <rects>
        <_>
          25 23 4 7 -1.</_>
        <_>
          27 23 2 7 2.</_></rects>
      <tilted>0</tilted></_>
    <_>
      <rects>
        <_>
          25 30 5 15 -1.</_>
        <_>
          25 35 5 5 3.</_></rects>
      <tilted>0</tilted></_>
    <_>
      <rects>
        <_>
          25 36 16 3 -1.</_>
        <_>
          33 36 8 3 2.</_></rects>
      <tilted>0</tilted></_>
    <_>
      <rects>
        <_>
          26 23 2 7 -1.</_>
        <_>
          27 23 1 7 2.</_></rects>
      <tilted>0</tilted></_>
    <_>
      <rects>
        <_>
          26 24 2 6 -1.</_>
        <_>
          27 24 1 6 2.</_></rects>
      <tilted>0</tilted></_>
    <_>
      <rects>
        <_>
          26 24 2 7 -1.</_>
        <_>
          27 24 1 7 2.</_></rects>
      <tilted>0</tilted></_>
    <_>
      <rects>
        <_>
          26 24 3 10 -1.</_>
        <_>
          26 29 3 5 2.</_></rects>
      <tilted>0</tilted></_>
    <_>
      <rects>
        <_>
          26 25 4 5 -1.</_>
        <_>
          28 25 2 5 2.</_></rects>
      <tilted>0</tilted></_>
    <_>
      <rects>
        <_>
          26 26 2 3 -1.</_>
        <_>
          27 26 1 3 2.</_></rects>
      <tilted>0</tilted></_>
    <_>
      <rects>
        <_>
          26 26 3 3 -1.</_>
        <_>
          27 26 1 3 3.</_></rects>
      <tilted>0</tilted></_>
    <_>
      <rects>
        <_>
          27 21 1 12 -1.</_>
        <_>
          27 27 1 6 2.</_></rects>
      <tilted>0</tilted></_>
    <_>
      <rects>
        <_>
          27 21 3 12 -1.</_>
        <_>
          27 27 3 6 2.</_></rects>
      <tilted>0</tilted></_>
    <_>
      <rects>
        <_>
          27 23 2 5 -1.</_>
        <_>
          28 23 1 5 2.</_></rects>
      <tilted>0</tilted></_>
    <_>
      <rects>
        <_>
          27 23 3 5 -1.</_>
        <_>
          28 23 1 5 3.</_></rects>
      <tilted>0</tilted></_>
    <_>
      <rects>
        <_>
          27 27 1 12 -1.</_>
        <_>
          27 31 1 4 3.</_></rects>
      <tilted>0</tilted></_>
    <_>
      <rects>
        <_>
          27 36 1 10 -1.</_>
        <_>
          27 41 1 5 2.</_></rects>
      <tilted>0</tilted></_>
    <_>
      <rects>
        <_>
          28 9 12 6 -1.</_>
        <_>
          34 9 6 6 2.</_></rects>
      <tilted>0</tilted></_>
    <_>
      <rects>
        <_>
          30 36 2 4 -1.</_>
        <_>
          31 36 1 4 2.</_></rects>
      <tilted>0</tilted></_>
    <_>
      <rects>
        <_>
          30 37 3 4 -1.</_>
        <_>
          31 37 1 4 3.</_></rects>
      <tilted>0</tilted></_>
    <_>
      <rects>
        <_>
          31 36 15 5 -1.</_>
        <_>
          36 36 5 5 3.</_></rects>
      <tilted>0</tilted></_>
    <_>
      <rects>
        <_>
          33 39 2 1 -1.</_>
        <_>
          34 39 1 1 2.</_></rects>
      <tilted>0</tilted></_></features></cascade>
</opencv_storage>
