<?xml version="1.0"?>
<opencv_storage>
<stage4>
  <maxWeakCount>8</maxWeakCount>
  <stageThreshold>-8.9199811220169067e-01</stageThreshold>
  <weakClassifiers>
    <_>
      <internalNodes>
        0 -1 37815 7.9854205250740051e-03</internalNodes>
      <leafValues>
        -3.3574005961418152e-01 6.0314339399337769e-01</leafValues></_>
    <_>
      <internalNodes>
        0 -1 68458 4.0061137406155467e-04</internalNodes>
      <leafValues>
        -7.4437403678894043e-01 2.8597557544708252e-01</leafValues></_>
    <_>
      <internalNodes>
        0 -1 61446 1.0981832747347653e-04</internalNodes>
      <leafValues>
        3.4851956367492676e-01 -5.7048863172531128e-01</leafValues></_>
    <_>
      <internalNodes>
        0 -1 3391 6.5947592258453369e-02</internalNodes>
      <leafValues>
        -3.0626574158668518e-01 7.5451701879501343e-01</leafValues></_>
    <_>
      <internalNodes>
        0 -1 45740 -4.1787307709455490e-03</internalNodes>
      <leafValues>
        6.4017045497894287e-01 -3.6199787259101868e-01</leafValues></_>
    <_>
      <internalNodes>
        0 -1 61288 -3.1643011607229710e-03</internalNodes>
      <leafValues>
        -8.7604933977127075e-01 2.6340705156326294e-01</leafValues></_>
    <_>
      <internalNodes>
        0 -1 58581 -7.7482834458351135e-03</internalNodes>
      <leafValues>
        6.0353255271911621e-01 -3.0327838659286499e-01</leafValues></_>
    <_>
      <internalNodes>
        0 -1 65478 1.1192620731890202e-02</internalNodes>
      <leafValues>
        -3.9115211367607117e-01 5.1158702373504639e-01</leafValues></_></weakClassifiers></stage4>
</opencv_storage>
