<?xml version="1.0"?>
<opencv_storage>
<stage5>
  <maxWeakCount>7</maxWeakCount>
  <stageThreshold>-8.6867320537567139e-01</stageThreshold>
  <weakClassifiers>
    <_>
      <internalNodes>
        0 -1 59411 4.1191726922988892e-02</internalNodes>
      <leafValues>
        4.5336657762527466e-01 -7.5637394189834595e-01</leafValues></_>
    <_>
      <internalNodes>
        0 -1 22235 1.1314842849969864e-02</internalNodes>
      <leafValues>
        -2.6463028788566589e-01 7.0196855068206787e-01</leafValues></_>
    <_>
      <internalNodes>
        0 -1 68542 3.3993036486208439e-03</internalNodes>
      <leafValues>
        -4.5063140988349915e-01 4.1955587267875671e-01</leafValues></_>
    <_>
      <internalNodes>
        0 -1 57698 -6.4457496628165245e-03</internalNodes>
      <leafValues>
        -9.5499974489212036e-01 1.8267181515693665e-01</leafValues></_>
    <_>
      <internalNodes>
        0 -1 17282 7.2973109781742096e-03</internalNodes>
      <leafValues>
        -3.7114515900611877e-01 4.9377974867820740e-01</leafValues></_>
    <_>
      <internalNodes>
        0 -1 39513 -8.6460483726114035e-04</internalNodes>
      <leafValues>
        3.1027516722679138e-01 -6.7558544874191284e-01</leafValues></_>
    <_>
      <internalNodes>
        0 -1 59493 -2.3756535665597767e-04</internalNodes>
      <leafValues>
        2.5728070735931396e-01 -5.9173989295959473e-01</leafValues></_></weakClassifiers></stage5>
</opencv_storage>
