<?xml version="1.0"?>
<opencv_storage>
<stage7>
  <maxWeakCount>10</maxWeakCount>
  <stageThreshold>-1.0604134798049927e+00</stageThreshold>
  <weakClassifiers>
    <_>
      <internalNodes>
        0 -1 65328 -3.7507995148189366e-04</internalNodes>
      <leafValues>
        -8.8014984130859375e-01 4.1941654682159424e-01</leafValues></_>
    <_>
      <internalNodes>
        0 -1 20309 5.3046308457851410e-02</internalNodes>
      <leafValues>
        -3.5317775607109070e-01 5.8126544952392578e-01</leafValues></_>
    <_>
      <internalNodes>
        0 -1 61453 -1.6743679298087955e-03</internalNodes>
      <leafValues>
        2.9821392893791199e-01 -6.2621945142745972e-01</leafValues></_>
    <_>
      <internalNodes>
        0 -1 30365 -2.5997593998908997e-02</internalNodes>
      <leafValues>
        4.6498370170593262e-01 -3.2042837142944336e-01</leafValues></_>
    <_>
      <internalNodes>
        0 -1 17956 -7.7778962440788746e-03</internalNodes>
      <leafValues>
        3.1034100055694580e-01 -4.8950847983360291e-01</leafValues></_>
    <_>
      <internalNodes>
        0 -1 28430 9.1631952673196793e-03</internalNodes>
      <leafValues>
        -2.6051458716392517e-01 4.8958697915077209e-01</leafValues></_>
    <_>
      <internalNodes>
        0 -1 64734 -7.2751921834424138e-05</internalNodes>
      <leafValues>
        2.3219184577465057e-01 -6.1693674325942993e-01</leafValues></_>
    <_>
      <internalNodes>
        0 -1 61630 1.2353829515632242e-04</internalNodes>
      <leafValues>
        -4.9974778294563293e-01 2.8524771332740784e-01</leafValues></_>
    <_>
      <internalNodes>
        0 -1 61257 1.9479056354612112e-03</internalNodes>
      <leafValues>
        1.9875702261924744e-01 -7.7850365638732910e-01</leafValues></_>
    <_>
      <internalNodes>
        0 -1 32934 -1.1863448889926076e-03</internalNodes>
      <leafValues>
        5.4332435131072998e-01 -2.9562571644783020e-01</leafValues></_></weakClassifiers></stage7>
</opencv_storage>
